tree
version=v4
num_class=1
num_tree_per_iteration=1
label_index=0
max_feature_idx=18
objective=binary sigmoid:1
feature_names=Gender Age Driving_License Region_Code Previously_Insured Vehicle_Age Vehicle_Damage Annual_Premium Policy_Sales_Channel Vintage Age_Annual_Premium Age_Vintage Annual_Premium_Vintage Age_0 Annual_Premium_1 Vintage_2 Age_Annual_Premium_3 Age_Vintage_4 Annual_Premium_Vintage_5
feature_infos=[0:1] [-1.2256272922689735:2.9883722918655309] [1:1] [0:52] [0:1] [0:2] [0:1] [-1.7401129184661843:3.1031814001897318] [1:163] [-1.9242225122635184:1.6891961904386203] [-4.8509226057490569:8.1031969700909077] [-5.3293107772711004:4.6741265731957782] [-5.5003381486216778:5.0728436479938592] [-1.2256272922689735:2.9883722918655309] [-1.7401129184661843:3.1031814001897318] [-1.9242225122635184:1.6891961904386203] [-4.8509226057490569:8.1031969700909077] [-5.3293107772711004:4.6741265731957782] [-5.5003381486216778:5.0728436479938592]
tree_sizes=4473 4473 4485 4490 4505 4529 4539 4545 4558 4518 4586 4539 4569 4548 4552 4566 4563 4577 4557 4573 4570 4589 4565 4579 4598 4575 4574 4565 4565 4583 4608 4592 4523 4569 4590 4555 4538 4616 4541 4554 4586 4561 4572 4552 4610 4565 4524 4566 4526 4456 4451 4517 4559 4530 4604 4621 4522 4549 4526 4494 4532 4609 4563 4563 4462 4546 4541 4584 4564 4580 4564 4569 4537 4377 4534 4573 4437 4617 4298 4520 4516 4541 4503 4430 4552 4421 4551 4553 4498 4497 4494 4461 4457 4446 4533 4559 4505 4556 4367 4470

Tree=0
num_leaves=40
num_cat=0
split_feature=6 1 1 4 8 4 8 1 1 8 8 8 5 1 4 7 1 4 8 5 1 5 1 5 8 15 15 15 5 8 8 15 15 1 1 5 8 7 4
split_gain=1.11123e+06 190922 96185.8 71109.4 14249 14175.6 13032.2 12995.1 12717.2 11738 12174.2 9357.18 8807.68 8183.89 6155.9 5439.03 4872.01 4462.18 3549.83 5437.31 3445.04 3213.05 3042.35 2426.51 2376.72 2312.67 1968.65 3127.28 1746.79 1689.54 1876.54 1610.95 1560.16 1491.09 1462.63 1300.63 1205.27 1166.48 1155.69
threshold=1.0000000180025095e-35 -0.72396067511010376 1.0820391466618269 1.0000000180025095e-35 27.500000000000004 1.0000000180025095e-35 150.50000000000003 1.8178168518281688 0.21248367691978595 125.50000000000001 153.50000000000003 24.500000000000004 1.0000000180025095e-35 -0.18884961680730963 1.0000000180025095e-35 -1.731353167948195 -1.0584050865493502 1.0000000180025095e-35 27.500000000000004 1.0000000180025095e-35 0.81448361751042953 1.0000000180025095e-35 0.68070585293473096 1.0000000180025095e-35 123.00000000000001 1.0077729402750684 -0.45509899126870429 -1.2302960831978826 1.0000000180025095e-35 158.50000000000003 161.50000000000003 -1.0427483996666298 -0.44259581236662077 2.1522612632674152 1.4164835581010731 1.0000000180025095e-35 152.50000000000003 0.23014021506561042 1.0000000180025095e-35
decision_type=2 2 2 2 2 2 2 2 2 2 2 2 2 2 2 2 2 2 2 2 2 2 2 2 2 2 2 2 2 2 2 2 2 2 2 2 2 2 2
left_child=17 6 3 4 11 7 24 18 9 13 -11 -3 20 -6 16 23 29 -1 19 34 25 -18 -10 -12 -2 26 27 -13 33 36 -31 -29 -28 -9 -4 -17 -8 -14 -26
right_child=1 2 5 -5 8 -7 14 28 22 10 15 12 37 -15 -16 35 21 -19 -20 -21 -22 -23 -24 -25 38 -27 32 31 -30 30 -32 -33 -34 -35 -36 -37 -38 -39 -40
leaf_value=-2.2077497945626363 -1.8293137244060564 -1.6100568068259824 -1.6183460417880795 -2.2707305103112523 -1.1332259701445824 -2.2901463914594524 -2.0698434460727317 -1.8990650661256669 -1.5219829157494273 -1.7578750973186903 -1.4533881798456925 -1.2218675307705709 -1.2020963479442535 -1.3916282309758425 -2.2847323009871183 -1.1841525539161422 -1.5431675750678202 -2.2974918478608952 -1.7660888866785891 -1.3710518092784587 -1.4780435153770193 -1.9668769972668749 -1.641291305974635 -1.7334611502332555 -1.5093178914205303 -1.4307365796773961 -0.59347776432843746 -1.6453018985434269 -1.7931224165324229 -2.1975552886198924 -1.7129880752773405 -1.3911229834446335 -1.2405461393841093 -2.0453991440566393 -1.7628315612954817 -1.4465859315737577 -1.8543726648006327 -1.0054961529351674 -2.2482982345953744
leaf_weight=54173.113507941365 4821.9772636964917 9813.8587653338909 13276.818013988435 8940.4818980023265 16124.818912230432 4818.846880659461 19251.855677738786 13517.209842383862 52395.595664121211 12633.902104727924 12391.027558751404 9328.7573388367891 3912.5470193177462 30712.080032065511 8190.3773557841778 8024.2511663362384 1602.1084495037794 405871.86360682547 29227.954639784992 5954.0964806750417 13649.225651152432 42150.931426346302 28451.511702358723 3401.6469188258052 4666.3216657862067 11918.231775917113 325.55983585119247 2738.2216034606099 6540.7734395116568 13971.223326995969 724.84558943659067 10051.444043420255 26344.655974194407 10807.809351712465 11096.776089303195 2047.2705062180758 2533.4513751417398 7830.5991950109601 189.76597858965397
leaf_count=501862 44671 90916 122997 82825 149381 44642 178350 125224 485395 117041 114791 86422 36246 284518 75876 74337 14842 3760014 270769 55159 126447 390488 263576 31513 43229 110411 3016 25367 60594 129430 6715 93117 244058 100124 102801 18966 23470 72543 1758
internal_value=-1.96342 -1.64293 -1.54547 -1.45625 -1.42847 -1.79935 -2.00679 -1.7732 -1.4805 -1.40142 -1.52157 -1.33833 -1.30736 -1.30266 -2.0422 -1.40614 -2.01744 -2.28692 -1.69305 -1.62265 -1.3447 -1.95136 -1.56397 -1.51371 -1.68324 -1.31472 -1.28638 -1.35119 -1.92785 -2.0967 -2.17365 -1.44553 -1.23264 -1.96408 -1.68412 -1.23748 -2.04478 -1.07098 -1.53821
internal_weight=0 464379 366276 271036 262095 95240.3 98102.9 90421.4 166182 85335 38498.1 95913.1 86099.2 46836.9 88424.8 25864.2 80234.4 460045 59555.6 30327.7 74356.1 43753 80847.1 15792.7 9678.06 60706.9 48788.6 22118.4 30865.8 36481.4 14696.1 12789.7 26670.2 24325 24373.6 10071.5 21785.3 11743.1 4856.09
internal_count=8563901 4302025 3393196 2510886 2428061 882310 908829 837668 1539518 790547 356648 888543 797627 433899 819171 239607 743295 4261876 551726 280957 688838 405330 748971 146304 89658 562391 451980 204906 285942 337965 136145 118484 247074 225348 225798 93303 201820 108789 44987
is_linear=0
shrinkage=1


Tree=1
num_leaves=40
num_cat=0
split_feature=6 1 4 1 4 4 3 9 9 9 8 9 9 9 9 8 8 9 1 9 9 9 9 0 9 9 9 8 8 3 9 9 9 9 9 9 9 8 1
split_gain=564753 52205.5 31972.7 17106.1 5456.03 5072.7 5069.76 3803.36 4279.73 5361.13 3778.32 3279.73 5323.31 2896.93 6794.57 2606.07 2361.01 2239.67 2117.18 2086.1 2299.82 1696.7 1677.92 1447.47 1409.34 1831.77 2656.75 1344.03 1371.73 1196.48 1177.24 2056.6 1121.74 1673.41 3262.58 1395.52 1188.04 1018.59 897.444
threshold=1.0000000180025095e-35 -0.79084955739795304 1.0000000180025095e-35 1.4164835581010731 1.0000000180025095e-35 1.0000000180025095e-35 46.500000000000007 1.0077729402750684 0.42012353187714241 0.64518075211464598 150.50000000000003 0.73270300442923064 0.74520618333131416 -1.2302960831978826 -0.75517528491870889 158.50000000000003 161.50000000000003 0.32009810066047423 2.0184834986917171 -1.7054168814770567 -1.7179200603791402 0.94525704576465064 1.0202761191771519 1.0000000180025095e-35 -0.76767846382079241 -1.0427483996666298 -0.99273568405829604 152.50000000000003 158.50000000000003 1.5000000000000002 -1.2553024410020499 -1.2928119777083005 0.5451553208979778 0.48263942638756002 0.4701362474854765 0.43262671077922593 0.62017439431047894 152.50000000000003 -0.99151620426150078
decision_type=2 2 2 2 2 2 2 2 2 2 2 2 2 2 2 2 2 2 2 2 2 2 2 2 2 2 2 2 2 2 2 2 2 2 2 2 2 2 2
left_child=5 4 3 6 10 27 7 8 13 32 38 -11 -13 19 24 23 -17 29 -5 20 -3 -14 -9 37 25 -15 -27 -1 -29 -16 31 -21 33 34 35 -10 -34 -12 -2
right_child=1 2 -4 18 -6 -7 -8 22 9 11 15 12 21 14 17 16 -18 -19 -20 30 -22 -23 -24 -25 -26 26 -28 28 -30 -31 -32 -33 36 -35 -36 -37 -38 -39 -40
leaf_value=-0.23925841171742607 0.06289519933409124 0.23977801670999133 -0.29734618983694172 0.1025778100891717 -0.30628260432858812 -0.32210776323522777 0.085235687274495139 -0.083658831636503603 0.55715838966138675 0.10216152415285415 -0.079133634365707292 0.79707221555733909 0.21818267550799661 0.063509302909915258 -0.016559155074997233 -0.1919528362394668 0.20763495184803279 0.13817782463934042 -0.012165138822360141 0.32853691329636986 -0.10266795992534238 0.36429225519951208 0.18493346266608529 0.030219068377552376 -0.096651618526352442 0.32893755918156636 0.12907182855361302 0.018173821450892691 -0.23287212182534167 0.26333650246451762 0.47275149748149281 0.094634106190533765 0.51771141421094224 0.2390043401169841 0.78606932493565607 0.22269764978398482 0.3367518372997293 0.1172480150081827 0.23664134139756679
leaf_weight=37271.528095707297 5877.9235887825489 15179.209601461887 11063.287524938583 44502.917155645788 6486.3063455894589 312041.93011964858 20152.97417909652 2060.3789553642273 1564.8349383845925 10138.350955441594 28876.36998680979 1714.08014126122 21155.776390224695 19192.250469222665 1330.8857994377613 14295.508547738194 1400.0482198297977 14386.615033246577 20148.834637641907 35506.305555351079 1903.3652731999755 10144.452806577086 75721.381998486817 25861.746200658381 2382.1143413335085 7664.5479830130935 22808.683986596763 3885.2583258226514 3631.6255209073424 126336.97370868176 4093.3706116527319 3568.7849670872092 11010.714827433228 6225.2549008950591 1822.1363761425018 3447.4720945358276 4376.1665080711246 2472.8244659900665 4549.4060425907373
leaf_count=417634 44110 97861 131118 356450 76354 3760014 135787 13736 9998 65776 275893 10952 136957 131104 8760 154041 11294 93634 185236 227637 12435 65175 502271 243165 15739 50354 150798 43535 40693 819055 26293 22977 70467 40237 11647 22131 28085 20684 33814
internal_value=0 0.159295 0.196354 0.207535 -0.0468407 -0.308841 0.228997 0.236173 0.250098 0.313528 -0.0266458 0.248275 0.293143 0.232242 0.214779 -0.050296 -0.156305 0.248039 0.0668175 0.288501 0.201619 0.26554 0.177818 -0.0212118 0.123999 0.134584 0.179345 -0.21641 -0.103112 0.260418 0.322879 0.307176 0.41251 0.349182 0.449523 0.327142 0.466253 -0.0636412 0.138707
internal_weight=0 589422 499602 488539 89820.1 356830 423887 403734 325952 71599.2 83333.8 43152.7 33014.3 254353 194102 72906.5 15695.6 142054 64651.8 60251 17082.6 31300.2 77781.8 57210.9 52047.6 49665.5 30473.2 44788.4 7516.88 127668 43168.5 39075.1 28446.6 13059.7 6834.44 5012.31 15386.9 31349.2 10427.3
internal_count=8563901 4302025 3442670 3311552 859355 4261876 2769866 2634079 2118072 461425 783001 278860 213084 1656647 1269444 705077 165335 921449 541686 387203 110296 202132 516007 539742 347995 332256 201152 501862 84228 827815 276907 250614 182565 84013 43776 32129 98552 296577 77924
is_linear=0
shrinkage=0.293686


Tree=2
num_leaves=40
num_cat=0
split_feature=6 4 1 1 4 3 3 1 3 1 8 1 8 8 8 8 8 5 8 8 1 1 7 5 3 8 3 8 1 8 0 1 3 3 7 3 5 1 1
split_gain=349314 23889 18361.7 6272.43 5818.81 2891.74 3088.37 1898.42 1644.28 1425.93 1385.2 1374.9 1133.64 1102.03 2192.5 1083.51 948.603 893.027 976.296 869.605 826.73 1224.39 756.036 755.785 748.945 738.957 634.446 615.723 608.555 586.939 575.753 550.3 549.606 548.831 537.524 511.767 511.198 461.109 448.587
threshold=1.0000000180025095e-35 1.0000000180025095e-35 -0.92462732197365149 1.2827057935253745 1.0000000180025095e-35 27.500000000000004 41.500000000000007 -1.1252939688371992 1.5000000000000002 2.4198167924188123 45.500000000000007 1.0000000180025095e-35 152.50000000000003 161.50000000000003 158.50000000000003 150.50000000000003 158.50000000000003 1.0000000180025095e-35 153.50000000000003 124.50000000000001 -0.65707179282225447 1.0000000180025095e-35 0.25349954978024808 1.0000000180025095e-35 30.500000000000004 152.50000000000003 40.500000000000007 158.50000000000003 -0.12196073451946034 150.50000000000003 1.0000000180025095e-35 -0.65707179282225447 40.500000000000007 46.500000000000007 1.1955023984943247 47.500000000000007 1.0000000180025095e-35 0.74759473522258024 0.078705912344087373
decision_type=2 2 2 2 2 2 2 2 2 2 2 2 2 2 2 2 2 2 2 2 2 2 2 2 2 2 2 2 2 2 2 2 2 2 2 2 2 2 2
left_child=4 2 7 5 12 8 10 27 -4 17 22 15 -1 14 20 -12 -14 18 29 34 36 -22 28 -9 -17 32 37 -2 -7 33 -25 -8 -26 -5 -19 38 -10 -13 -33
right_child=1 -3 3 9 -6 6 31 23 13 -11 11 26 16 -15 -16 24 -18 19 -20 -21 21 -23 -24 30 25 -27 -28 -29 -30 -31 -32 35 -34 -35 -36 -37 -38 -39 -40
leaf_value=-0.21354212447642851 -0.066697735283590881 -0.2861105703151221 -0.074445561419967277 0.042621202304358861 -0.31363729418502195 0.25103908813315312 -0.01968618494792955 0.13942546984983306 0.18980937602196976 -0.090430749580482334 0.21391683618266075 0.12954889196167177 0.012612929345342819 0.3033161612197241 -0.19528873715780554 0.18023253569036843 -0.20653903116650604 0.10956298409579462 0.16259127033516596 -0.087366935098229653 0.1609408411986393 0.093676972623954954 0.19909330118532351 -0.050491105799067688 -0.029918104282786784 0.15299714479885165 0.21219071398815834 -0.17138382465397328 0.13711326384400091 -0.22489474202672821 0.017986590847696621 0.15835886699619142 0.16209397684587384 -0.087632225115359605 0.23667309097804737 0.044402882579901631 0.005082934866681009 0.0838005541084446 0.087227697111804073
leaf_weight=30617.698703989387 9792.6715118810534 13647.741277135909 4550.6619192138314 52599.144913122058 237929.54462841153 4577.565987482667 4089.855850726366 2787.7882296964526 1493.9181209802628 5826.3495644703507 34142.669513985515 74373.587326653302 3942.1775230765343 2377.229248046875 2110.7514721155167 16568.354480952024 2999.3474063575268 11678.06375297904 5431.857824370265 1588.0460615307093 33684.878432713449 76037.232844181359 90977.365975446999 22609.125221274793 5091.3988710492849 7314.9590364396572 6554.0280854478478 9596.7357893586159 34779.841494940221 755.29352391511202 19920.162336729467 11729.171433150768 1719.8702116757631 2946.0702114105225 3805.6059012487531 13557.511011049151 9559.6753027811646 25534.35578853637 21989.109370350838
leaf_count=417634 92092 207472 27602 406688 3760014 24823 33090 18751 8725 55461 177269 431555 43535 13714 15076 107291 40693 80056 41516 11969 186317 441901 487311 221857 40598 43201 39156 120662 190721 5762 181405 65557 13422 23362 26089 86017 79746 165406 130385
internal_value=0 0.098313 0.106613 0.123515 -0.296679 0.136442 0.150226 -0.0416105 0.0989612 0.0497633 0.161562 0.1442 -0.189247 0.105261 0.101429 0.177917 -0.082078 0.0601292 0.0436871 0.119581 0.106615 0.114328 0.18438 -0.00870481 0.137871 0.088181 0.123665 -0.118515 0.150366 0.0322141 -0.0184162 0.0836558 0.0185637 0.0357117 0.14081 0.0925968 0.0300556 0.117857 0.111973
internal_weight=0 645799 632151 567444 275489 482814 353000 64706.5 129814 84630.4 301634 171299 37559.2 125264 122886 64837.3 6941.52 78804.1 61732.4 17071.7 120776 109722 130335 45317.1 30694.6 14126.2 106462 19389.4 39357.4 56300.5 42529.3 51365.6 6811.27 55545.2 15483.7 47275.8 11053.6 99907.9 33718.3
internal_count=8563901 4302025 4094553 3459786 4261876 2808883 2035802 634767 773081 650903 1720753 1017898 501862 745479 731765 381781 84228 595442 477328 118114 716689 628218 702855 422013 204512 97221 636117 212754 215544 435812 403262 315049 54020 430050 106145 281959 88471 596961 195942
is_linear=0
shrinkage=0.293686


Tree=3
num_leaves=40
num_cat=0
split_feature=4 6 1 1 7 1 1 8 8 8 8 8 3 1 3 3 9 9 9 9 9 9 9 9 8 5 8 8 7 3 3 9 9 9 9 8 8 5 9
split_gain=231484 19143.7 8227 3239.13 1742.73 1378.81 1012.45 936.255 2428.58 911.313 876.276 1071.17 716.179 667.209 648.931 1192.06 597.258 789.11 1297.56 773.617 656.585 1093.75 1252.13 732.74 592.12 937.294 590.28 588.215 586.618 575.015 756.611 571.042 545.409 596.289 651.455 537.62 1110.88 600.307 530.057
threshold=1.0000000180025095e-35 1.0000000180025095e-35 -0.85773843968580232 0.8813724997982787 -1.731353167948195 -1.1252939688371992 2.1522612632674152 161.50000000000003 159.50000000000003 153.50000000000003 24.500000000000004 27.500000000000004 1.0000000180025095e-35 -1.0584050865493502 17.500000000000004 30.500000000000004 1.0077729402750684 -0.58013078028953957 -1.1802833675895488 1.1453079081979871 -0.50511170687703844 -0.45509899126870429 -0.44259581236662077 -0.51761488577912196 156.50000000000003 1.5000000000000002 5.5000000000000009 161.50000000000003 1.1792073787135493 27.500000000000004 24.500000000000004 -1.0427483996666298 -0.94272296844996173 -0.80518800052704298 -0.59263395919162309 150.50000000000003 152.50000000000003 1.5000000000000002 -0.48010534907287139
decision_type=2 2 2 2 2 2 2 2 2 2 2 2 2 2 2 2 2 2 2 2 2 2 2 2 2 2 2 2 2 2 2 2 2 2 2 2 2 2 2
left_child=1 9 5 4 7 -3 10 8 12 -1 26 28 -4 -11 -7 29 17 18 -6 -18 23 38 -23 -19 35 -26 -5 -13 -12 30 -16 -20 -33 -34 -35 -14 -37 -38 -22
right_child=-2 2 3 6 16 14 -8 -9 -10 13 11 27 24 -15 15 -17 19 20 31 -21 21 22 -24 -25 25 -27 -28 -29 -30 -31 -32 32 33 34 -36 36 37 -39 -40
leaf_value=-0.18736763612980117 -0.30544986252778011 -0.09417524070244282 -0.10743448853679431 0.14994982717440292 0.1236347694383725 -0.043661351104890056 -0.031648522348755988 0.22193001994010395 -0.20235836348722619 -0.20997804398611661 0.070083092427860705 0.028990426122639582 0.077585613596633268 -0.0026598823583483646 0.10754362635811428 -0.024477534306274154 0.017629189071173071 0.16066987975597585 0.004030040893425112 0.09595824763140913 0.13071931004261342 0.35471408620597034 0.12067096207559272 0.39305055706039094 0.14952792245071736 -0.16024632992235913 -0.071788433988738867 0.236381384566384 0.13548803980316626 0.11692926132289551 -0.12895707641418619 0.13891965279751314 0.004631635091404511 0.10095264566220123 -0.066955713228050204 -0.088819878588026202 0.065164913616902687 -0.16823029878170648 -0.088602602203186373
leaf_weight=25559.873694963753 191033.2854851298 17632.271441854537 2084.9775406569242 1211.5731228664517 54867.444132782519 19254.237847059965 13261.56621324271 2930.9882346019149 3094.0275858417153 1898.2593995928764 55753.432828269899 68066.28251902014 41912.517301671207 4543.9915318377316 2452.3455330878496 20372.056318491697 13918.966252781451 5120.2735077887774 12192.438514441252 49757.962890632451 1357.6692481711507 1997.6353405117989 151502.49292181432 1517.6869656518102 11320.910330116749 909.91250261664391 7114.5512119010091 1200.2209263145924 15015.202468499541 11655.187814868987 2225.1968761235476 9327.2709721550345 11651.739939890802 21808.792679443955 2193.0223450064659 5847.5147964656353 21512.885980024934 994.16550616919994 3166.9784630909562
leaf_count=418225 3967486 212754 12877 7536 278824 183997 127010 15915 21173 29398 341305 460554 220605 54239 22615 191657 76988 26768 73065 270798 7160 9634 772333 7891 62176 5405 47037 7621 88822 95685 21862 48414 65123 116632 11435 40139 120188 5955 16600
internal_value=0 0.0593934 0.0700518 0.0815527 0.0948491 -0.0225608 0.0460958 0.0586515 0.0531923 -0.162486 0.0530454 0.0585491 0.0625412 -0.0637584 3.92743e-06 0.0229106 0.104485 0.110387 0.0913716 0.0788372 0.123324 0.119523 0.123718 0.213817 0.0668377 0.126477 -0.0395148 0.0325853 0.0839612 0.0820202 -0.00495714 0.0604087 0.0756897 0.0591465 0.085609 0.056456 0.0252214 0.0548524 -0.0227815
internal_weight=0 698205 666202 592611 430988 73591.3 161623 90607.9 87676.9 32002.1 148361 140035 84582.9 6442.25 55959 36704.8 340380 276703 112041 63676.9 164663 158025 153500 6637.96 82497.9 12230.8 8326.12 69266.5 70768.6 16332.7 4677.54 57173.3 44980.8 35653.6 24001.8 70267.1 28354.6 22507.1 4524.65
internal_count=8563901 4596415 4094553 3365983 2286098 728570 1079885 504433 488518 501862 952875 898302 467345 83637 515816 331819 1781665 1433879 593493 347786 840386 805727 781967 34659 454468 67581 54573 468175 430127 140162 44477 314669 241604 193190 128067 386887 166282 126143 23760
is_linear=0
shrinkage=0.293686


Tree=4
num_leaves=40
num_cat=0
split_feature=4 6 13 13 8 8 5 5 13 13 7 3 8 8 8 8 3 8 3 3 8 3 7 5 13 5 13 8 8 8 13 8 8 8 8 3 13 8 8
split_gain=161277 10381.2 3963.33 1587.02 1099.47 3118.7 2402.71 2077.87 1318.07 1040.84 935.445 907.31 897.242 823.725 757.302 734.839 711.907 686.072 583.605 777.677 525.495 516.713 456.164 450.329 616.959 408.736 391.274 367.535 1851.6 398.419 345.091 343.381 332.896 332.553 342.19 330.046 326.735 377.676 1225.79
threshold=1.0000000180025095e-35 1.0000000180025095e-35 -0.99151620426150078 1.6171502049646207 124.50000000000001 152.50000000000003 1.5000000000000002 1.0000000180025095e-35 1.0000000180025095e-35 0.14559479463193667 -1.731353167948195 10.500000000000002 150.50000000000003 158.50000000000003 2.0000000000000004 161.50000000000003 41.500000000000007 153.50000000000003 17.500000000000004 41.500000000000007 158.50000000000003 11.500000000000002 0.23014021506561042 1.5000000000000002 -0.18884961680730963 1.0000000180025095e-35 -0.59018291053440519 161.50000000000003 159.50000000000003 156.50000000000003 -0.79084955739795304 161.50000000000003 30.500000000000004 152.50000000000003 124.50000000000001 1.5000000000000002 0.21248367691978595 158.50000000000003 161.50000000000003
decision_type=2 2 2 2 2 2 2 2 2 2 2 2 2 2 2 2 2 2 2 2 2 2 2 2 2 2 2 2 2 2 2 2 2 2 2 2 2 2 2
left_child=1 17 13 4 7 9 10 8 26 18 27 35 -11 33 -9 -15 21 -1 -6 -20 -19 -13 -5 24 30 -24 -4 28 29 -7 -16 -22 -27 34 -3 -10 37 -12 -39
right_child=-2 2 3 22 5 6 -8 14 11 12 36 16 -14 15 23 -17 -18 20 19 -21 31 -23 25 -25 -26 32 -28 -29 -30 -31 -32 -33 -34 -35 -36 -37 -38 38 -40
leaf_value=-0.16032999970925924 -0.30000216091035137 0.038220622556226623 0.18774809354204464 -0.028524769577716283 -0.053928915343881015 0.043077207502913079 -0.13664560685316371 -0.31096292499975492 -0.089435888387481816 -0.018484225062914146 0.1176917083362593 0.15635935542238366 -0.23220994369042167 -0.13798961026162751 0.065308691373155675 0.12265003115131655 0.011141871192708187 0.016605723847710366 0.040538186516389747 -0.076839519428767974 -0.18757869205564834 0.057606770081749012 0.0065356150106353943 0.097235677322774439 0.42159050200171744 0.13448610524605548 0.088317836322970272 0.14304387075189887 -0.15666289276634088 0.10359969845830209 0.1580453741210191 0.35726925058736303 0.01128952473780861 0.071829060311355372 -0.038416902533521882 0.014760897516917743 0.16028600557776351 -0.18325694212111412 0.13587175301005736
leaf_weight=21675.048437278718 144523.75152242929 6173.5522771328688 3611.3723521232605 21809.091058261693 14756.249267466366 26095.460513152182 4632.6244209557772 364.5771012455225 2812.1619466096163 3268.3834853693843 17654.362789794803 4659.2465318068862 3518.31182526052 8871.1968644335866 4347.6016463562846 1042.3306697010994 29435.04666569829 3870.7517251968384 24479.773928120732 6076.7354777157307 2134.9718503952026 239540.08955015987 21382.817293711007 47718.672199033201 688.66233313083649 4694.913139924407 62560.145399421453 3738.328592851758 3537.3481584787369 14650.86093609035 17007.648707292974 104.42294096946716 3169.7241349965334 3435.4795297384262 27002.160276815295 38722.771760091186 10948.003394886851 1608.571346513927 2926.3225130960345
leaf_count=418228 3965728 44054 17719 174291 121438 144967 28732 1997 18379 18703 83819 25197 21324 137798 26144 7764 167530 42834 183793 50344 39041 1247624 175617 237716 3401 30618 293052 18794 29294 77714 76306 1747 23164 29089 282374 209465 60848 12291 14025
internal_value=0 0.0401627 0.0472812 0.0532938 0.0575969 0.0346437 0.0690625 0.0646074 0.056063 -0.0220328 0.0808053 0.0481512 -0.129292 -0.0354825 0.111069 -0.11058 0.0542904 -0.135827 -0.00596684 0.0171938 -0.048897 0.0594912 0.00362144 0.113276 0.147997 0.0275934 0.0937455 0.0546119 0.0471452 0.0648402 0.139168 -0.162125 0.0848399 -0.0151463 -0.0241544 0.00770484 0.118763 0.0982723 0.0226622
internal_weight=0 714726 686941 640416 589359 137891 85791.9 451468 381341 52099.5 81159.3 315169 6786.7 46524.7 70127.2 9913.53 273634 27785.2 45312.8 30556.5 6110.15 244199 51056.5 69762.6 22043.9 29247.5 66171.5 48022 44283.7 40746.3 21355.3 2239.39 7864.64 36611.2 33175.7 41534.9 33137.3 22189.3 4534.89
internal_count=8562963 4597235 4095385 3594306 3190616 866086 470484 2324530 1978966 395602 441752 1668195 40027 501079 345564 145562 1440351 501850 355575 234137 83622 1272821 403690 343567 105851 229399 310771 270769 251975 222681 102450 40788 53782 355517 326428 227844 170983 110135 26316
is_linear=0
shrinkage=0.293686


Tree=5
num_leaves=40
num_cat=0
split_feature=4 1 1 9 0 8 8 5 5 9 9 1 9 9 9 9 8 3 1 9 9 9 9 9 9 9 1 9 9 9 0 1 9 7 9 9 9 3 9
split_gain=114630 2811.79 1285.96 897.044 804.51 770.95 1627.17 676.958 662.461 651.264 829.682 623.042 603.771 1241.59 600.382 720.345 575.419 563.749 467.484 408.052 511.457 540.039 566.959 378.719 378.02 413.887 370.515 364.065 361.656 522.236 348.647 329.586 326.379 311.502 306.186 753.384 413.448 299.349 278.603
threshold=1.0000000180025095e-35 -0.85773843968580232 0.68070585293473096 1.0077729402750684 1.0000000180025095e-35 150.50000000000003 152.50000000000003 1.0000000180025095e-35 1.5000000000000002 0.42012353187714241 0.64518075211464598 -0.12196073451946034 -1.2302960831978826 -1.0427483996666298 0.73270300442923064 0.74520618333131416 2.0000000000000004 1.5000000000000002 -1.1921828511250487 -0.58013078028953957 -0.19253223432495034 -0.20503541322703381 -0.21753859212911733 -0.99273568405829604 0.78271572003756473 0.77021254113548121 1.0000000180025095e-35 -0.28005448663953497 -1.6303978080645556 -1.6178946291624718 1.0000000180025095e-35 -1.1921828511250487 1.0202761191771519 1.0709192800162575 -0.017487729695780947 0.020021807010469555 -0.067500445304115045 46.500000000000007 -1.2553024410020499
decision_type=2 2 2 2 2 2 2 2 2 2 2 2 2 2 2 2 2 2 2 2 2 2 2 2 2 2 2 2 2 2 2 2 2 2 2 2 2 2 2
left_child=1 4 5 9 31 7 11 17 -8 12 -11 30 28 -14 -12 -16 -9 -3 -6 23 21 22 27 -15 25 -17 33 -21 -4 -30 -7 -1 -5 -19 36 -36 -22 -20 -31
right_child=-2 2 3 32 18 6 8 16 -10 10 14 -13 13 19 15 24 -18 26 37 20 34 -23 -24 -25 -26 -27 -28 -29 29 38 -32 -33 -34 -35 35 -37 -38 -39 -40
leaf_value=-0.15864597243126061 -0.29530530139108285 -0.1021830533712032 0.01210843629718468 -0.17896646193897903 -0.12284801876989924 -0.054815358234341471 0.050306649986575559 -0.167208651372692 -0.10730482149676464 0.10664628429548484 -0.060319839471959499 -0.1527344795663037 -0.089717146661024538 0.067163038864865673 0.271205175552024 0.082368721802154335 0.089841213887923557 0.072806303736866543 0.022451689933980504 0.044464746206253153 0.0079501671470974186 0.30259618595012266 -0.16046317474061805 -0.025707056440920882 0.04823016064199194 -0.19064034740965413 0.04025057895220141 0.13536539711049833 0.24427624228587169 0.048803578595264671 0.013689157753814742 -0.046890813207603979 -0.017407069249797406 0.013725719155587615 0.16814386586614696 0.0091229478563002973 -0.10543634436160124 -0.073168393024507061 0.15982488292642585
leaf_weight=2419.8365336060524 109200.14345050976 2211.6227229461074 13180.315833210945 1106.321299649775 2285.7561614438891 13044.321231253445 69726.307638287544 764.52156740427017 2378.2497091367841 17308.80062649399 5736.360793158412 3532.0156173408031 10714.037914283574 4414.9141646400094 1169.1262459382415 775.54161345213652 42003.467200234532 60120.919415786862 32546.461818851531 19964.025907382369 8086.6790592819452 769.01173315942287 1031.2570382729173 26629.289000719786 16504.444219537079 1251.2065504342318 198520.36251793057 4694.4796358346939 1450.777152121067 17004.590275481343 12593.415471024811 38382.471724405885 42687.358438976109 8829.4171242117882 2834.4029355868697 27498.834345556796 4221.1678080633283 3091.8292450606823 2202.3727868646383
leaf_count=40343 3965728 17295 84636 8128 36117 109276 371446 13295 15307 103668 38752 26300 74584 26914 6308 4914 191363 294690 335043 125785 51880 4757 6527 175492 103451 8137 1036342 29250 8536 106094 99761 451094 280625 42518 17473 175926 27262 35079 12867
internal_value=0 0.0274985 0.0338943 0.0163528 -0.0248981 0.0436983 0.0214296 0.0509161 0.0451073 0.0251946 0.057045 -0.0370977 0.0157851 0.00530357 0.023291 0.0476392 0.0852445 0.0454719 0.00589563 0.01547 0.0280357 0.0601116 0.0528491 -0.0124981 0.0335295 -0.0861566 0.046693 0.0617729 0.0501229 0.0743752 -0.0211642 -0.0535203 -0.0214901 0.0652414 0.0081315 0.0239845 -0.0309356 0.0141547 0.0615374
internal_weight=0 723686 644960 231235 78726.4 413725 101274 312450 72104.6 187442 42745.5 29169.8 144696 110858 25436.7 19700.3 42768 269682 37924 100144 69099.9 26458.8 25689.8 31044.2 18531.2 2026.75 267471 24658.5 33838.1 20657.7 25637.7 40802.3 43793.7 68950.3 42641.1 30333.2 12307.8 35638.3 19207
internal_count=8562963 4597235 3699559 1481966 897676 2217593 622090 1595503 386753 1193213 265230 235337 927983 715850 161562 122810 204658 1390845 406239 641266 438860 166319 161562 202406 116502 13051 1373550 155035 212133 127497 209037 491437 288753 337208 272541 193399 79142 370122 118961
is_linear=0
shrinkage=0.293686


Tree=6
num_leaves=40
num_cat=0
split_feature=4 6 1 15 15 15 15 15 15 15 15 15 15 15 15 15 15 15 15 15 15 15 15 15 15 15 15 15 15 15 15 15 15 15 15 8 15 15 15
split_gain=82485.8 5082.42 1206.45 1010.41 1076.08 1576.38 830.338 2064.53 1004.17 803.68 908.13 786.767 708.296 1082.52 698.408 813.406 697.323 1385.78 1078.33 1618.17 859.021 2496.94 913.117 689.464 641.11 640.42 1081.61 623.1 884.286 597.109 612.13 922.415 957.191 570.117 470.191 452.044 412.957 705.886 546.219
threshold=1.0000000180025095e-35 1.0000000180025095e-35 -1.0584050865493502 1.0077729402750684 0.42012353187714241 0.62017439431047894 -1.1802833675895488 -0.75517528491870889 0.32009810066047423 -0.76767846382079241 -1.0427483996666298 1.1453079081979871 -1.6303978080645556 -1.6178946291624718 0.5451553208979778 0.50764578419172712 0.19506631163963886 0.070034522618803663 0.2825885639542236 0.29509174285630718 -0.017487729695780947 -0.080003624206198595 0.007518628108386001 0.94525704576465064 -1.8304486704978919 -0.93021978954787843 -0.80518800052704298 0.27008538505214014 0.24507902724797301 0.34510445846464127 0.3576076373667248 0.37011081626880832 0.38261399517089184 1.2078238027084047 0.95776022466673416 152.50000000000003 0.4701362474854765 0.48263942638756002 0.45763306858339298
decision_type=2 2 2 2 2 2 2 2 2 2 2 2 2 2 2 2 2 2 2 2 2 2 2 2 2 2 2 2 2 2 2 2 2 2 2 2 2 2 2
left_child=1 35 -3 4 6 14 12 9 16 10 -8 -5 24 -14 15 36 17 20 27 -20 21 -9 -22 -7 -4 -12 -27 28 -18 -10 -31 -32 -33 -13 -25 -1 38 -38 -6
right_child=-2 2 3 11 5 23 7 8 29 -11 25 33 13 -15 -16 -17 18 -19 19 -21 22 -23 -24 34 -26 26 -28 -29 -30 30 31 32 -34 -35 -36 -37 37 -39 -40
leaf_value=-0.1344821393697295 -0.29086131843817498 -0.0346961634007837 0.07311638562204259 -0.04118935625097167 0.10178083396804005 0.017112920728188263 -0.063824929438371189 0.045042540568753529 -0.12266824691892825 -0.158888912711632 0.046226168656581385 0.071927234782875812 0.20270138567278559 0.055244748107194278 0.1426499821541688 -0.02338086243973465 0.1439810594889 -0.041170782597042696 -0.1021719044064561 0.11553147837481589 0.22724196836684848 -0.078182835509275905 0.064673457950189778 0.17605879872377603 -0.0087015862864910885 -0.055259260587673033 0.07250751780514926 0.2407834781689184 -0.035748192369288875 0.1453082384568444 -0.15353488262919557 0.11678593734792821 -0.046543692135223476 0.0061221758775363436 0.058146795782897283 -0.041615046999800648 0.24918562512536407 0.072601271208279791 -0.062590275893655012
leaf_weight=18704.433343138546 82469.537029460073 29360.328104134649 11783.885291464627 27726.189286954701 6379.2189706787467 62312.417737074196 24709.016893193126 136627.39255421609 4541.8100911825895 3656.9281300529838 19681.104093842208 13064.073811002076 4609.4295130074024 62787.647152192891 19421.715893685818 6252.0264232680202 9546.8040097281337 20782.809198118746 5579.7658667936921 6235.475444175303 3878.2316521331668 15825.718904994428 12871.380982384086 3701.1342255845666 27622.884971305728 22002.993052914739 7719.4530963972211 3420.8321092799306 3136.4642092213035 2101.9019698649645 3649.0876487717032 4873.8521144613624 8477.474372535944 86841.109043940902 13775.621097736061 5963.8521942682564 3450.9421909376979 4498.8879051879048 2399.2051351666451
leaf_count=417623 3965728 361422 64007 164023 33089 342260 156539 742993 26683 23361 106116 74763 22335 332534 93911 34064 51105 115067 30242 33983 20539 88262 69395 18237 151256 131267 43912 18754 17279 11832 20968 27048 48533 494681 71679 84227 16267 23919 13060
internal_value=0 0.0190008 0.0235838 0.0261153 0.0315936 0.05589 0.0246264 0.0171286 0.030528 -0.024489 -0.0178563 0.00258011 0.0470428 0.0653308 0.101649 0.0669942 0.0367656 0.0303964 0.0801048 0.0127176 0.0391871 0.0322505 0.102319 0.0315719 0.0157639 0.00513412 -0.0220744 0.129542 0.0995328 -0.0269563 -0.00419651 -0.0226848 0.0130773 0.0147277 0.0831215 -0.112032 0.100773 0.149264 0.0568524
internal_weight=0 729973 705305 675945 548314 122191 426122 319318 241549 77769.5 74112.6 127631 106804 67397.1 42402 22980.3 217905 189986 27919.3 11815.2 169203 152453 16749.6 79789.2 39406.8 49403.6 29722.4 16104.1 12683.3 23644.1 19102.3 17000.4 13351.3 99905.2 17476.8 24668.3 16728.3 7949.83 8778.42
internal_count=8562963 4597235 4095385 3733963 3000496 646486 2354010 1783878 1322683 461195 437834 733467 570132 354869 214310 120399 1187619 1036256 151363 64225 921189 831255 89934 432176 215263 281295 175179 87138 68384 135064 108381 96549 75581 569444 89916 501850 86335 40186 46149
is_linear=0
shrinkage=0.293686


Tree=7
num_leaves=40
num_cat=0
split_feature=4 3 3 3 7 3 5 3 8 8 3 3 3 3 3 3 3 7 3 3 3 5 7 16 5 0 1 7 3 1 1 1 3 5 7 8 8 8 1
split_gain=59660 1269.57 1326.24 996.576 654.396 561.416 900.567 692.538 736.064 558.89 547.436 985.811 501.591 940.707 549.577 1716.45 450.803 448.913 427.657 738.569 518.578 594.682 401.024 386.425 380.384 339.956 337.727 328.345 315.245 313.855 306.35 304.137 298.582 274.475 247.364 233.849 227.365 219.418 237.9
threshold=1.0000000180025095e-35 46.500000000000007 27.500000000000004 24.500000000000004 0.59271225442667974 30.500000000000004 1.0000000180025095e-35 28.500000000000004 36.500000000000007 113.50000000000001 40.500000000000007 41.500000000000007 2.5000000000000004 6.5000000000000009 10.500000000000002 11.500000000000002 44.500000000000007 0.23899415644938443 17.500000000000004 18.500000000000004 14.500000000000002 1.0000000180025095e-35 -0.59167508890702392 -0.63129473566496375 1.0000000180025095e-35 1.0000000180025095e-35 0.41315032378333377 0.84746714941938095 31.500000000000004 -0.72396067511010376 -0.25573849909515889 -0.72396067511010376 29.500000000000004 1.5000000000000002 0.075416019536397719 22.500000000000004 156.50000000000003 152.50000000000003 -0.18884961680730963
decision_type=2 2 2 2 2 2 2 2 2 2 2 2 2 2 2 2 2 2 2 2 2 2 2 2 2 2 2 2 2 2 2 2 2 2 2 2 2 2 2
left_child=1 2 3 4 12 6 7 8 17 -10 24 27 -1 30 31 29 -13 -4 20 -20 -17 -22 -21 -6 28 33 -11 -12 -7 -16 -14 -15 -9 -8 -30 -18 -28 -27 -39
right_child=-2 -3 5 -5 23 10 25 32 9 26 11 16 13 14 15 18 35 -19 19 22 21 -23 -24 -25 -26 37 36 -29 34 -31 -32 -33 -34 -35 -36 -37 -38 38 -40
leaf_value=-0.05264574681260998 -0.28627648467537758 -0.041207497956757953 0.0011433996938780384 -0.092441311392755993 -0.11139345128467903 -0.084655021448828069 0.063661823566411077 0.10028135463117906 -0.074722978070341187 0.021371762929518954 0.080484616508407228 -0.075358682379850245 0.10746725800383126 -0.078161987923079795 0.24720138823027685 0.018629215426948266 -0.078170533439788137 0.043627339970585606 0.10315501385998564 -0.041442191551077041 -0.0098101684964736566 -0.10980632622474154 0.036140276268180088 -0.0238726881641055 -0.04067546735282522 0.081305215052577151 -0.01439597420069917 -0.014807375162728238 0.028094007892351197 0.10356677561150719 0.039866702274327821 -0.012976215890521824 0.028058672694082989 0.0088168201496767636 -0.016681423776780165 0.016649360815107987 0.071456702419086068 0.054945131724494257 -0.10264231122274482
leaf_weight=10978.880972139537 62322.730993412435 35418.35330170393 27535.945726312697 10484.256040398031 5282.216487750411 3155.8400477729738 15118.609647199512 13311.008454158902 7595.5552008934319 66712.275297619402 25290.77368522808 6062.936033282429 9067.6351096406579 7312.6288639195263 1515.2581575028598 15356.339913666248 2391.1345503553748 97131.949387311935 7740.3105863034725 11224.660681616515 12047.095469854772 8934.4820698350668 11774.305024422705 24695.811543535441 23104.204344589263 40970.024492513388 50937.431130833924 3556.6635148562491 28428.141097761691 9812.1617337875068 15966.151833545417 39641.376366641372 7851.1396285966039 16419.898048382252 17008.120721105486 36234.326191764325 2806.9261293783784 2859.2586142085493 1161.7734220772982
leaf_count=90176 3965728 276512 153248 89029 62917 19107 112923 73641 45251 332772 150244 43550 75750 90038 15925 106643 16511 507777 46072 70900 69867 104050 74015 143198 226308 224606 316888 21468 158214 53551 90741 229671 43257 84009 94461 237551 16087 22256 8051
internal_value=0 0.0130347 0.0157892 -0.00427922 0.000551187 0.0239614 0.0303248 0.0224544 0.0181806 0.00254146 0.00860788 0.026412 0.00795389 0.0123781 0.00199806 0.0170466 -0.000907653 0.034244 -0.000809957 0.0246857 -0.0223785 -0.0523935 -0.00172232 -0.039296 -0.00965252 0.0584907 0.0074139 0.0687346 0.00509738 0.122788 0.0643549 -0.0231294 0.0734891 0.0351093 0.0113324 0.0107781 -0.00991116 0.0748798 0.0094021
internal_weight=0 732896 697478 201834 191349 495644 350412 273882 252720 128052 145232 73535.8 161371 150392 125359 78404.6 44688.4 124668 67077.2 30739.3 36337.9 20981.6 22999 29978 71696.3 76529.6 120457 28847.4 48592.1 11327.4 25033.8 46954 21162.1 31538.5 45436.3 38625.5 53744.4 44991.1 4021.03
internal_count=8562963 4597235 4320723 1412543 1323514 2908180 1940766 1488921 1372023 710998 967414 469324 1117399 1027223 860732 541023 297612 661025 471547 190987 280560 173917 144915 206115 498090 451845 665747 171712 271782 69476 166491 319709 116898 196932 252675 254062 332975 254913 30307
is_linear=0
shrinkage=0.293686


Tree=8
num_leaves=40
num_cat=0
split_feature=4 6 10 6 9 9 9 9 9 9 9 9 9 9 9 13 9 9 9 9 9 9 9 9 9 9 9 9 9 9 3 13 11 9 9 9 9 9 9
split_gain=43287.7 2571.66 687.516 619.203 461.444 518.897 510.487 1057.55 528.496 1161.76 1790.47 734.112 686.662 516.874 659.061 442.444 432.539 407.538 996.965 361.77 340.276 1231.14 1184.06 801.779 699.685 618.972 380.862 336.697 335.105 712.321 298.04 277.781 274.974 268.829 266.773 1064.03 245.513 1281.71 789.409
threshold=1.0000000180025095e-35 1.0000000180025095e-35 -0.80433891947036507 1.0000000180025095e-35 1.0077729402750684 1.0202761191771519 -0.58013078028953957 -1.1802833675895488 -0.50511170687703844 -0.45509899126870429 -0.44259581236662077 -0.48010534907287139 -0.51761488577912196 -0.59263395919162309 -0.60513713809370662 1.2827057935253745 -1.0427483996666298 -1.7054168814770567 -1.7179200603791402 -0.46760217017078781 -0.21753859212911733 -0.20503541322703381 -0.19253223432495034 -0.28005448663953497 -0.017487729695780947 -0.24254494993328443 -0.25504812883536787 -0.99273568405829604 -0.3175640233457856 -0.36757673895411969 46.500000000000007 -0.65707179282225447 0.89227483727846169 -1.9054677439103931 -0.61764031699579014 -0.63014349589787366 1.5829191697709104 1.5454096330646598 1.6079255275750775
decision_type=2 2 2 2 2 2 2 2 2 2 2 2 2 2 2 2 2 2 2 2 2 2 2 2 2 2 2 2 2 2 2 2 2 2 2 2 2 2 2
left_child=1 15 -3 -2 6 -6 7 17 12 11 -11 -10 -8 14 16 30 32 18 33 -13 23 -22 -23 28 -24 26 -25 -18 29 -12 -1 -7 -9 -4 35 -29 37 -33 -38
right_child=3 2 4 -5 5 31 8 13 9 10 20 19 -14 -15 -16 -17 27 -19 -20 -21 21 22 24 25 -26 -27 -28 34 -30 -31 -32 36 -34 -35 -36 -37 38 -39 -40
leaf_value=-0.064839379268708308 -0.28944402656118018 -0.015372341690081984 0.081989988994711591 -0.1430290108328075 -0.12871853432100316 -0.03504646040495641 0.047078842859824076 -0.036394247160312518 0.046143703845882858 0.24062679521911359 0.0028048833111309428 -0.19866498257117124 0.20632129196532184 -0.11631227807257254 0.14969843557202639 -0.20867947696998337 0.042167769415317115 0.040098796492372558 -0.16851660024830264 -0.053796187369120209 -0.16971206776269629 0.23147739925520242 -0.01932838962190931 0.10047839269437667 0.026804812789408442 0.039196151722281435 0.23241262968035395 -0.015910886320464803 -0.044752243080814082 0.10358344262200173 -0.20204578211706425 0.0040067420190864561 -0.1380218864987659 0.0024591584558294154 -0.088198934179155364 0.14053897575694868 -0.13143437690487955 0.14879862759768053 0.011850407060265102
leaf_weight=18354.306193811819 44548.437857688405 71306.758534934372 4494.4811620078981 2640.6457908367738 2696.9926151148975 15520.915263175964 10045.304958671331 19944.496926777065 2702.4006297364831 3345.0215710438788 18688.662368472666 3534.270961817354 3043.3758324980736 4003.9010905660689 2214.8988096751273 2395.6770105287433 12540.890225246549 75165.589024789631 2779.4675774239004 2568.1276673860848 2913.3581488281488 2312.5367011763155 33007.537786923349 3974.7104692868888 201162.68499321118 6421.6644199602306 3596.642988845706 58295.457442101091 5368.7922470569611 8944.9390202835202 1475.4633114598691 79139.022436358035 2595.4050138778985 19884.472899664193 3588.2144709043205 4006.9659476317465 4445.7522035315633 5649.4015789479017 13052.024522952735
leaf_count=409280 3758765 469967 23980 207495 18845 152117 55204 123549 15236 16949 101141 21145 15619 23575 11944 55783 65369 399556 18383 14696 17416 11830 187634 21060 1104113 34619 18927 348554 29819 48250 36598 421072 28698 111625 19940 21679 23572 29469 69011
internal_value=0 0.00891802 0.0119849 -0.281252 0.0150252 -0.00135295 0.0188124 0.007602 0.0263492 0.0238166 0.0270104 -0.081276 0.0841114 -0.012784 -0.00876628 -0.0894595 -0.012243 0.0289579 -0.00187523 -0.137709 0.0245151 0.0200295 0.0223673 0.0473637 0.0203019 0.106275 0.163161 -0.00193798 0.0223835 0.0354286 -0.0750523 0.00156278 -0.0480992 0.0171235 -0.0103332 -0.00584781 0.00711829 0.0136549 -0.0245537
internal_weight=0 735181 712955 47189.1 641648 120504 521144 209514 311630 298541 289737 8804.8 13088.7 107190 103186 22225.4 100971 102324 27158.4 6102.4 286392 239396 236483 46995.4 234170 13993 7571.35 78431.5 33002.4 27633.6 19829.8 117807 22539.9 24379 65890.6 62302.4 102286 84788.4 17497.8
internal_count=8562484 4596224 4094563 3966260 3624596 714086 2910510 1196852 1713658 1642835 1591758 51077 70823 643308 619733 501661 607789 553544 153988 35841 1574809 1320993 1303577 253816 1291747 74606 39987 455542 179210 149391 445878 695241 152247 135605 390173 370233 543124 450541 92583
is_linear=0
shrinkage=0.293686


Tree=9
num_leaves=40
num_cat=0
split_feature=4 6 6 8 8 1 1 9 9 9 9 9 1 9 9 9 9 9 9 9 8 1 5 9 9 3 9 3 9 7 8 1 8 3 5 3 9 9 9
split_gain=31385.4 1413.85 691.469 536.811 2251.92 583.74 466.685 359.358 1089.92 599.979 560.537 549.412 349.336 333.951 408.963 845.461 507.077 347.581 292.377 261.272 235.255 269.866 185.797 174.663 153.329 144.153 133.769 129.566 125.824 118.1 148.354 305.605 224.297 106.833 106.21 97.7374 85.8128 101.397 90.3188
threshold=1.0000000180025095e-35 1.0000000180025095e-35 1.0000000180025095e-35 161.50000000000003 158.50000000000003 -0.32262738138300812 2.4198167924188123 1.5704159908688269 1.5454096330646598 1.4828937385542422 1.4703905596521587 1.6079255275750775 1.4833724403889224 1.0077729402750684 0.42012353187714241 0.64518075211464598 0.32009810066047423 1.0202761191771519 1.5204032752604928 1.5954223486729939 152.50000000000003 -1.1252939688371992 1.0000000180025095e-35 1.1453079081979871 1.5329064541625763 46.500000000000007 1.6829446009875788 2.5000000000000004 1.5579128119667434 0.65732718835507253 150.50000000000003 1.0000000180025095e-35 120.50000000000001 28.500000000000004 1.0000000180025095e-35 6.5000000000000009 1.6454350642813285 1.620428706477161 1.6704414220854953
decision_type=2 2 2 2 2 2 2 2 2 2 2 2 2 2 2 2 2 2 2 2 2 2 2 2 2 2 2 2 2 2 2 2 2 2 2 2 2 2 2
left_child=1 12 -2 4 6 35 7 8 9 10 13 19 20 14 16 -16 -3 -15 -11 -9 25 -22 -8 -19 -20 27 36 -1 -10 30 31 32 -29 -5 -34 -6 37 -13 -38
right_child=2 3 -4 33 5 -7 22 11 28 18 -12 26 -14 17 15 -17 -18 23 24 -21 21 -23 -24 -25 -26 -27 -28 29 -30 -31 -32 -33 34 -35 -36 -37 38 -39 -40
leaf_value=-0.22325225026802467 -0.28598972524768806 0.011358030598059716 -0.11937497940055505 0.048856822846784984 -0.0029640085209270543 -0.26386580843891055 -0.10808070575237694 -0.036037994648578812 0.10237247673625548 -0.092315857867894868 0.10418439859807205 -0.022983536278476279 -0.20532892488116686 -0.11104907378936339 0.056761002306432405 0.0078098626474949898 -0.032704828419336786 -0.023975463663337037 0.085654701817250808 -0.15249423194401884 -0.14708176446779556 0.02538081178012901 0.013911375495589979 0.0056931256797033199 -0.044161112091095252 -0.18745673040376001 0.086387001542592198 -0.019769518967733896 0.19099348338549155 -0.1266401607365219 -0.088691649609412115 -0.061251244134289506 0.17576272600282142 0.10775989793897059 0.56587509634721067 -0.098884924671170035 -0.056477853400649279 0.053051268393975955 0.0041253094207936965
leaf_weight=463.83909058198333 33554.5257404726 408027.63546362147 2296.6369496174157 6641.7356679290533 1017.4413566663861 1971.2476910427213 4047.1603295281529 3174.4007513485849 3312.2615983784199 7226.2397392690182 5569.7991407699883 2621.2898769155145 1521.2577631995082 2662.7968579679728 51728.771382652223 73924.378111571074 23842.321470052004 24469.658344630152 1435.7551964595914 3489.2687902785838 957.19942008145154 4284.6876469459385 1466.3994764313102 56937.334946285933 1729.9425870850682 985.72019274719059 1509.7462415844202 716.52301368862391 2376.0823689252138 2209.6888827122748 4852.6088779885322 3800.123603746295 669.38277692720294 4430.2557513490319 66.126364240422845 9283.923571370542 4026.213744148612 3575.0640734434128 4479.9923400394619
leaf_count=13616 3758765 2252885 207495 32178 16212 12833 43036 18982 17475 41842 32136 15923 43130 19834 259051 399638 139284 147609 8137 21736 24970 56756 12136 327386 9974 31807 8943 19524 12576 58948 135408 99402 16459 22284 1641 153267 22773 20470 25963
internal_value=0 0.00608511 -0.275318 0.00826694 0.00725761 -0.117443 0.00947043 0.0101544 0.0114026 0.0102953 0.0114195 -0.0260354 -0.0699074 0.0106141 0.0132159 0.0279624 0.00892534 -0.00664028 -0.0597109 -0.0970259 -0.059064 -0.00610948 -0.0756294 -0.00322437 0.014705 -0.0792281 0.00314206 -0.0708735 0.139403 -0.0651272 -0.0516696 -0.0174548 0.097132 0.0724308 0.211039 -0.0894149 -0.00540463 0.02088 -0.0245561
internal_weight=0 735504 35851.2 714977 703905 12272.6 691633 686119 663243 657555 647163 22876 20527.2 641593 557523 125653 431870 84069.8 10391.9 6663.67 19005.9 5241.89 5513.56 81407 3165.7 13764 16212.3 12778.3 5688.34 12314.5 10104.8 5252.16 1452.03 11072 735.509 10301.4 14702.6 6196.35 8506.21
internal_count=8562484 4596224 3966260 4094563 4040101 182312 3857789 3802617 3667827 3637776 3577823 134790 501661 3545687 3050858 658689 2392169 494829 59953 40718 458531 81726 55172 474995 18111 376805 94072 344998 30051 331382 272434 137026 37624 54462 18100 169479 85129 36393 48736
is_linear=0
shrinkage=0.293686


Tree=10
num_leaves=40
num_cat=0
split_feature=4 6 6 3 3 3 7 1 1 1 1 3 7 5 0 1 3 5 3 3 3 1 3 3 3 3 3 7 3 3 5 10 5 7 0 1 5 1 3
split_gain=22679.9 788.161 749.717 410.33 381.671 419.613 326.949 270.257 233.218 248.711 226.454 294.908 390.432 250.929 192.034 173.353 163.478 320.577 217.181 223.569 496.206 192.514 244.25 189.747 181.892 168.822 158.244 153.183 220.317 344.686 212.408 269.917 216.305 182.557 170.275 152.836 145.334 138.83 132.429
threshold=1.0000000180025095e-35 1.0000000180025095e-35 1.0000000180025095e-35 47.500000000000007 27.500000000000004 24.500000000000004 0.83898997149874621 0.94826138208612798 -0.72396067511010376 0.14559479463193667 -0.12196073451946034 30.500000000000004 1.3187354478961431 1.0000000180025095e-35 1.0000000180025095e-35 2.5535945569945109 1.0000000180025095e-35 1.5000000000000002 6.5000000000000009 9.5000000000000018 11.500000000000002 -0.65707179282225447 8.5000000000000018 22.500000000000004 2.5000000000000004 10.500000000000002 21.500000000000004 0.23014021506561042 28.500000000000004 29.500000000000004 1.0000000180025095e-35 0.69913963221444975 1.5000000000000002 -0.020281900100988594 1.0000000180025095e-35 -0.65707179282225447 1.0000000180025095e-35 -0.32262738138300812 34.500000000000007
decision_type=2 2 2 2 2 2 2 2 2 2 2 2 2 2 2 2 2 2 2 2 2 2 2 2 2 2 2 2 2 2 2 2 2 2 2 2 2 2 2
left_child=1 7 -2 4 5 6 16 8 -1 -10 11 12 -6 -13 -15 27 17 -3 24 21 25 36 -23 26 35 -21 -22 28 33 -30 31 -29 -32 -12 -34 -18 -20 -26 -31
right_child=2 3 -4 -5 10 -7 -8 -9 9 -11 15 13 -14 14 -16 -17 18 -19 19 20 23 22 -24 -25 37 -27 -28 30 29 38 32 -33 34 -35 -36 -37 -38 -39 -40
leaf_value=-0.08212151758765221 -0.28195559777333684 -0.10644482914443716 -0.096983228114133499 -0.033879880851081394 0.044558009025999844 -0.064963342667266194 -0.035294666157302583 -0.14098045418824717 0.032973286791722588 -0.060791604959121934 -0.00055345528861155133 0.032974855566165175 -0.025063840649190278 -0.030996571859758987 0.0129364405843193 -0.073158674469010115 -0.082546784413659272 0.14160012584453696 0.068004153532781664 0.001907409452840227 -0.0062911504027200766 -0.0023760547989045244 -0.083435957846851649 0.03805276839035477 0.068499772040591961 0.072382345535442649 -0.099946159289484179 0.016632083381346589 0.071610251323862423 -0.019248316113367549 0.26138426103920209 -0.0063244468984347199 0.0041195271481466473 -0.033454564240156019 0.045311280913097211 0.012354058616467522 -0.080586724089211415 0.022434808165327936 0.011329754324443832
leaf_weight=6828.0234896093607 25321.864549627062 2574.5686259493232 2043.370140010491 21874.69613481313 56199.891343183815 9307.0114417932928 21256.237217333168 2679.5479342136532 5155.41914925538 4631.6184424050152 41041.754954498261 19629.431530643255 7926.4894338808954 16873.351411916316 17460.970789827406 2268.6210773177445 2075.529493842274 544.12806465476751 631.91882539913058 3885.3961098194122 55435.709178902209 35666.758897140622 3522.7932267710567 8525.4273979440331 8443.0109819769859 11958.161029614508 1600.8936712555587 132759.39304950833 7335.6509668081999 15516.341725170612 353.87608820199966 66202.904137149453 13387.777586728334 22533.49303355813 24498.394112899899 4962.5189464539289 5556.3184096962214 17027.430752329528 57421.430541332811
leaf_count=197494 3758765 19306 207495 152858 300295 72441 136334 81256 108193 114718 217447 92172 42966 167299 148474 23604 23528 3252 3793 27428 353040 190167 18730 48312 61867 63547 11018 632038 36571 82956 1535 381687 65616 115204 117435 28735 65598 87871 301439
internal_value=0 0.00414616 -0.268146 0.00572407 0.00697175 -0.00412689 -0.00104383 -0.0544267 -0.0404642 -0.0113966 0.0112433 0.0224882 0.0359516 0.00648854 -0.0086531 0.00777892 0.00343872 -0.0631492 0.00474272 -0.000748176 0.00845923 -0.0172666 -0.00966398 -0.00281192 0.0261583 0.055102 -0.00892085 0.00826092 0.000699236 0.010928 0.0128465 0.00899332 0.0328931 -0.0122155 0.0307565 -0.0156287 -0.0654054 0.0377064 0.00482422
internal_weight=0 735553 27365.2 716258 694384 192974 183667 19294.6 16615.1 9787.04 501410 118090 64126.4 53963.8 34334.3 383320 162411 3118.7 159292 126783 81405.6 45377.8 39189.6 65562 32508.5 15843.6 57036.6 381051 143849 80273.4 237202 198962 38240 63575.2 37886.2 7038.05 6188.24 25470.4 72937.8
internal_count=8562484 4596224 3966260 4094563 3941705 1214967 1142526 501661 420405 222911 2726738 751206 343261 407945 315773 1975532 1006192 22558 983634 781633 503345 278288 208897 412370 202001 90975 364058 1951928 753617 420966 1198311 1013725 184586 332651 183051 52263 69391 149738 384395
is_linear=0
shrinkage=0.293686


Tree=11
num_leaves=40
num_cat=0
split_feature=4 6 6 8 8 8 8 7 1 3 1 8 8 1 8 5 5 1 9 3 1 7 3 1 3 3 8 8 8 5 8 3 8 3 3 3 3 1 1
split_gain=16290.2 787.269 424.653 293.766 368.812 294.238 417.304 382.548 291.611 280.893 274.576 270.064 1091.74 411.247 288.241 483.637 235.694 216.469 213.346 183.21 182.662 216.057 173.297 165.818 141.295 405.681 134.06 135.647 129.529 121.6 121.343 113.309 107.151 104.423 110.504 182.015 173.275 101.007 154.712
threshold=1.0000000180025095e-35 1.0000000180025095e-35 1.0000000180025095e-35 2.0000000000000004 3.5000000000000004 23.500000000000004 27.500000000000004 1.0709192800162575 2.0853723809795661 30.500000000000004 0.81448361751042953 161.50000000000003 158.50000000000003 -0.32262738138300812 156.50000000000003 1.5000000000000002 1.5000000000000002 1.6171502049646207 -1.2302960831978826 41.500000000000007 -0.12196073451946034 0.23014021506561042 40.500000000000007 -0.99151620426150078 34.500000000000007 35.500000000000007 154.50000000000003 158.50000000000003 7.5000000000000009 1.0000000180025095e-35 161.50000000000003 40.500000000000007 156.50000000000003 2.5000000000000004 6.5000000000000009 9.5000000000000018 11.500000000000002 0.74759473522258024 -0.99151620426150078
decision_type=2 2 2 2 2 2 2 2 2 2 2 2 2 2 2 2 2 2 2 2 2 2 2 2 2 2 2 2 2 2 2 2 2 2 2 2 2 2 2
left_child=2 -2 17 -4 -5 10 9 8 11 20 16 12 14 -14 18 -16 28 19 -8 22 23 -22 26 -7 -11 -26 33 32 -6 -12 -29 -27 -28 -1 -35 -36 -37 38 -3
right_child=1 37 3 4 5 6 7 -9 -10 24 29 -13 13 -15 15 -17 -18 -19 -20 -21 21 -23 -24 -25 25 31 27 30 -30 -31 -32 -33 -34 34 35 36 -38 -39 -40
leaf_value=-0.19884977505641968 -0.27704948312672784 -0.17078399984776671 -0.26945040541240917 0.14131471918534222 0.048432752993843899 -0.036375311177321193 0.020201924319947155 -0.023861602593351735 -0.065159158637193335 -0.052970928994844853 -0.088116296394277191 0.049596821031229858 -0.065943482436227968 -0.22673842045812806 0.047324093438102878 -0.10774507285308196 0.13998068110902306 -0.18185896425890807 -0.00031552603968620262 -0.11017637655371761 0.0011093831406817926 0.022971679793530292 0.11868159829623814 0.058630739568802596 0.110216683123131 -0.039154367047359598 0.015563740511174306 -0.093283393237310136 -0.029544560307617793 0.002491270934710404 0.23316624541785783 0.00010290019631506606 0.14599544965411679 0.087197920362743084 -0.14697680449076642 0.16121057073456688 -0.040429159305443226 -0.18502420832935676 0.039742045081731459
leaf_weight=369.92551316134632 19164.283227787819 461.2237436408177 338.53891298174858 1685.478798545897 2286.0875599458814 1772.2750879079103 51412.128413125873 53326.692629531026 5396.6794775351882 5110.6682374179363 6896.1276627033949 10697.564489506185 9057.2757245711982 1617.0380005314946 22883.026969097555 1876.7098553106189 922.4496850296855 898.03531842492521 291839.95432252809 2356.7274964395911 55544.780324555933 130838.11496284977 717.68307895213366 14909.971466489136 2633.6373734250665 8348.2395206131041 1626.3285200856626 1051.5852578654885 9352.8976396992803 1567.0105168819427 108.06759209185839 26371.462493333966 816.13777904585004 556.54566427320242 1361.1556758675724 384.72853137925267 8124.3205390591174 530.97832564823329 865.72856484353542
leaf_count=13915 3758765 51567 2312 9352 12085 13646 285719 312579 51340 26764 49400 50891 160520 12348 113318 13531 4650 35376 1732728 71392 288418 634228 16152 66968 13094 42831 18707 29991 49517 9087 1458 139237 9287 14855 42111 10513 237904 59794 96134
internal_value=0 -0.259353 0.00284463 0.00397485 0.0041042 0.00378051 0.00481804 -0.000514053 0.00263964 0.0145496 -0.0304473 0.00357943 0.00227935 -0.0903096 0.00496508 0.035568 -0.00289555 -0.0412444 0.00275747 -0.0340133 0.0190921 0.0164566 -0.0221353 0.048535 -0.00717219 -0.000904774 -0.0291583 0.0198947 -0.0142248 -0.0713356 -0.0627928 -0.0093355 0.0591709 -0.0455274 -0.0400803 -0.0472625 -0.0313041 -0.0767835 -0.0334205
internal_weight=0 21022.2 735056 716685 716346 714661 693636 448107 394780 245529 21024.6 389384 378686 10674.3 368012 24759.7 12561.4 18371.2 343252 17473.2 203065 186383 15116.5 16682.2 42464 37353.3 14398.8 3602.12 11639 8463.14 1159.65 34719.7 2442.47 10796.7 10426.8 9870.2 8509.05 1857.93 1326.95
internal_count=8562484 3966260 4596224 4094563 4092251 4082899 3958160 2732974 2420395 1225186 124739 2369055 2318164 172868 2145296 126849 66252 501661 2018447 466285 1003260 922646 394893 80614 221926 195162 378741 59443 61602 58487 31449 182068 27994 319298 305383 290528 248417 207495 147701
is_linear=0
shrinkage=0.293686


Tree=12
num_leaves=40
num_cat=0
split_feature=4 6 1 12 9 9 12 9 9 9 9 9 9 9 9 9 9 9 9 9 9 9 9 9 9 9 9 9 9 9 12 9 9 9 9 12 9 7 9
split_gain=11604.6 800.368 256.563 251.687 255.169 745.548 554.656 428.285 400.321 785.753 653.461 384.231 384.118 325.714 881.577 1101.38 527.313 360.692 316.249 311.101 854.893 809.177 585.253 763.072 496.419 797.377 665.922 457.671 346.559 321.721 281.985 270.921 259.642 253.749 249.476 318.213 247.31 240.908 219.546
threshold=1.0000000180025095e-35 1.0000000180025095e-35 -1.1921828511250487 -1.677418956360776 -0.58013078028953957 -1.1427738308832984 1.3716546005909001 -0.59263395919162309 -0.21753859212911733 -0.20503541322703381 -0.19253223432495034 -0.60513713809370662 -0.28005448663953497 -0.50511170687703844 -0.45509899126870429 -0.44259581236662077 -0.48010534907287139 -0.51761488577912196 -0.24254494993328443 -0.017487729695780947 0.020021807010469555 -0.067500445304115045 -0.13001633981453267 -0.10500998201036564 0.18256313273755539 0.2825885639542236 0.29509174285630718 -0.15502269761869972 0.095040880422970667 0.27008538505214014 0.20191640193277496 -1.1177674730791312 -1.1302706519812149 -0.46760217017078781 -1.0427483996666298 1.6513918378224048 -0.53011806468120548 0.83898997149874621 -0.30506084444370202
decision_type=2 2 2 2 2 2 2 2 2 2 2 2 2 2 2 2 2 2 2 2 2 2 2 2 2 2 2 2 2 2 2 2 2 2 2 2 2 2 2
left_child=2 -2 -1 -4 5 -5 7 11 12 -10 -11 31 13 17 16 30 -15 36 -14 21 -21 22 27 -24 28 29 -27 -12 -22 -26 -16 32 37 -18 -8 -36 -6 -7 -17
right_child=1 -3 3 4 8 6 34 -9 9 10 19 -13 18 14 15 38 33 -19 -20 20 24 -23 23 -25 25 26 -28 -29 -30 -31 -32 -33 -34 -35 35 -37 -38 -39 -40
leaf_value=-0.077252977955909394 -0.27114983875137649 -0.060005419551078416 -0.017577766846095168 0.013441365377197777 0.044245584000450491 -0.060197544572048359 -0.13409314666657784 -0.10396002418105886 -0.14372796036791868 0.14674805781530825 0.0045018402741193227 0.10278181414016035 0.10376209734916096 0.024692001218888981 0.14029200325323812 0.016557810129891572 -0.17173890029716943 0.13532166921791255 0.02156822270614309 0.090668941349230328 0.0042535168606774301 -0.08627805495229271 0.16370273972772437 0.003361015246739357 0.045235529922931048 -0.095027313782610451 0.0055497124797088057 -0.10871291318758831 -0.060688228784071707 0.13760530123211442 0.36214177104108403 -0.0086197875740842093 -0.17344435282344625 -0.055468938857864074 -0.091190264956681144 0.015435978986841816 -0.090216705792015739 0.20362201289791931 -0.054087389130315279
leaf_weight=3517.35690029338 14562.469683925388 1733.3589273313992 51324.095872368664 104077.65634191595 10294.214122144505 2351.1760517954826 4291.8270549625158 4285.1738366354257 3095.5887785712257 2777.8481883388013 9229.2267287578434 2577.9341786336154 8926.2371684685349 3135.1145864892751 3214.126380847767 33242.129181902856 3753.127681562677 3591.3155370820314 7374.6607217025012 10117.439628005028 12436.729263667017 11542.368513457477 3816.9755842275918 7774.3537722099572 16206.128119299188 5799.2062355224043 271045.64149444364 4621.4473718814552 16474.93490704149 4069.603200385347 584.28096750564873 88278.182455491275 1694.6761691458523 2849.5176196619868 6191.2008236013353 3956.0215654987842 1332.1567590516061 341.71025590412319 4282.7548748012632
leaf_count=76410 3758641 207586 329436 621357 60398 18054 33607 28767 22082 14406 54868 14516 48245 19181 16434 194328 27357 19029 42595 56300 75795 76994 22850 50009 95549 37020 1668649 27935 106284 23042 3303 573439 13600 17832 44983 24748 8840 2688 26396
internal_value=0 -0.248694 0.00187221 0.00225303 0.00375066 -0.0045289 -0.02094 -0.0131358 0.00766186 0.00362461 0.00483822 -0.00904885 0.0261907 0.0162565 0.00501618 0.0237496 -0.0744763 0.0539688 0.0665799 0.00378157 0.00659449 -0.0217839 0.00747446 0.0561661 0.00398532 0.00756019 0.00344267 -0.0332721 -0.0327516 0.0637784 0.174446 -0.0121606 -0.0833894 -0.121569 -0.0747311 -0.0496176 0.0288343 -0.0266934 0.00849375
internal_weight=0 16295.8 734474 730957 679633 218046 113968 99528.9 461587 379007 375912 95243.7 82579.6 66278.7 51061.1 41323.3 9737.76 15217.7 16300.9 373134 336150 36984.4 25442 11591.3 326032 297121 276845 13850.7 28911.7 20275.7 3798.41 92665.7 4387.56 6602.65 14439 10147.2 11626.4 2692.89 37524.9
internal_count=8563553 3966227 4597326 4520916 4191480 1375759 754402 651064 2815721 2331783 2309701 622297 483938 393098 304831 240461 64370 88267 90840 2295295 2062639 232656 155662 72859 2006339 1824260 1705669 82803 182079 118591 19737 607781 34342 45189 103338 69731 69238 20742 220724
is_linear=0
shrinkage=0.293686


Tree=13
num_leaves=40
num_cat=0
split_feature=8 8 5 8 8 1 5 1 7 8 0 8 0 1 1 1 3 3 8 8 8 8 8 3 3 1 3 3 3 3 3 3 10 3 8 1 1 1 8
split_gain=543.843 1714.7 604.896 585.731 921.605 533.142 448.856 541.734 443.25 439.349 382.763 345.979 316.928 281.407 258.967 221.018 197.611 372.747 173.479 213.905 170.402 190.387 184.627 160.943 156.463 155.609 138.759 134.564 179.042 192.775 222.103 167.743 133.736 126.805 118.124 117.855 115.981 113.78 106.138
threshold=124.50000000000001 152.50000000000003 1.5000000000000002 158.50000000000003 161.50000000000003 0.21248367691978595 1.0000000180025095e-35 0.61381697064688168 -1.731353167948195 150.50000000000003 1.0000000180025095e-35 154.50000000000003 1.0000000180025095e-35 1.9515946164038673 -0.32262738138300812 -0.59018291053440519 27.500000000000004 41.500000000000007 24.500000000000004 5.5000000000000009 155.50000000000003 154.50000000000003 156.50000000000003 29.500000000000004 40.500000000000007 0.61381697064688168 45.500000000000007 17.500000000000004 14.500000000000002 9.5000000000000018 6.5000000000000009 19.500000000000004 1.3180798702385779 2.5000000000000004 142.50000000000003 -0.72396067511010376 2.5535945569945109 0.81448361751042953 157.50000000000003
decision_type=2 2 2 2 2 2 2 2 2 2 2 2 2 2 2 2 2 2 2 2 2 2 2 2 2 2 2 2 2 2 2 2 2 2 2 2 2 2 2
left_child=6 5 3 8 14 10 7 15 20 34 16 -10 -8 18 32 -1 -2 23 19 -9 21 -3 -22 -18 -25 35 27 28 29 30 33 -29 -5 -12 -7 -13 -15 -24 -4
right_child=1 2 38 4 -6 9 12 13 11 -11 26 25 -14 36 -16 -17 17 -19 -20 -21 22 -23 37 24 -26 -27 -28 31 -30 -31 -32 -33 -34 -35 -36 -37 -38 -39 -40
leaf_value=0.061821835094649051 -0.081349697801491427 0.031919101090006854 -0.10706483077583635 -0.084379255186694868 0.032835347662061753 -0.087043048972745909 -0.0018026887685639093 0.059347273961424175 0.019202212695546488 -0.19915712942474176 -0.079971846041801839 0.14020443967644428 0.033760787648989633 -0.040584635079435098 -0.19533509723823966 0.0055186688335414347 0.015915732737525196 -0.10393991171939672 -0.0079555612626890215 -0.068657409456971741 -0.014489611426954966 0.17741943536036131 0.012533311420536894 -0.058669453815041336 0.028520838960435294 0.13631358365792659 -0.067456032838062119 0.13542472070396225 -0.095591657803233213 0.043813135307230335 -0.095022593278545966 -0.0037599801986417827 -0.0054998788963168434 0.047423715758656421 0.026016649397649132 0.056241605532665433 -0.11612814490205559 0.070959654496681665 0.031545992700873965
leaf_weight=6158.806776933372 18625.153064417886 5309.3876379956491 4399.9460024684668 8418.2156196720898 11335.706056927098 2789.2177406516857 34315.779512129258 1319.298067757627 15107.856967776315 3400.1925588508602 945.37035210453905 1637.0492475719657 58378.436869411729 15747.19160196255 1551.5120826109778 254837.72672174568 6781.4336063810624 6073.8208400388248 163695.16871955735 7668.5992226970848 26287.931893525412 908.4494994324632 14804.331603335682 8973.2683925991878 2212.1834435805213 3409.3116223970428 4493.9987283204682 772.8415505788289 3295.1502506567631 3124.9776357994415 3561.4433698987123 22023.427497488447 2378.8142872161698 2344.6778576713987 1115.186713391915 12143.852063115453 1973.1742978033144 3568.2586860349402 533.79983491031453
leaf_count=46092 791677 37380 33033 352344 61568 30264 211763 8934 95764 88491 23656 13936 321757 272080 29526 1767385 262173 254544 1441960 95020 181488 5852 85239 342390 118910 21899 160319 23367 93943 128842 150620 686921 96347 80748 10129 62058 48365 23214 3555
internal_value=0 -0.0158539 0.00847589 0.0131181 -0.0276278 -0.045898 0.00198005 -0.00184236 0.0247209 -0.121974 -0.0392204 0.0516293 0.0205947 -0.0137542 -0.0831343 0.00684746 -0.05864 -0.0410439 -0.0101371 -0.049863 0.00763835 0.0531885 0.0012956 -0.0197784 -0.041422 0.0801255 -0.0187923 -0.0127275 -0.0362376 -0.0166281 -0.0442013 0.000958265 -0.0670043 0.0108035 -0.0547415 0.0662203 -0.0489998 0.0238834 -0.0920598
internal_weight=0 202327 111794 106861 23684.2 90532.3 544094 451400 83176.4 7304.6 83227.7 32298.1 92694.2 190403 12348.5 260997 42665.9 24040.7 172683 8987.9 50878.4 6217.84 44660.5 17966.9 11185.5 17190.2 40561.9 36067.9 13271.6 9976.47 6851.49 22796.3 10797 3290.05 3904.4 13780.9 17720.4 18372.6 4933.75
internal_count=8563553 4350197 1103203 1066615 539785 3246994 4213356 3679836 526830 128884 3118110 193657 533520 1866359 478217 1813477 1769694 978017 1545914 103954 333173 43232 289941 723473 461300 97893 1348416 1188097 477809 383866 255024 710288 448691 104404 40393 75994 320445 108453 36588
is_linear=0
shrinkage=0.293686


Tree=14
num_leaves=40
num_cat=0
split_feature=4 6 15 15 15 15 15 15 15 15 15 15 15 15 3 1 15 15 8 8 15 15 5 7 8 15 15 6 15 8 8 15 3 15 15 8 15 8 1
split_gain=7829.63 794.41 214.076 543.871 326.033 306.227 287.465 237.296 199.652 309.682 674.364 338.427 175.549 165.809 145.726 176.868 214.295 213.864 165.877 237.362 162.842 149.504 130.834 154.537 127.283 126.9 122.764 112.198 103.952 99.452 101.663 98.8901 94.5034 88.9132 105.65 83.3332 81.2906 74.2291 101.226
threshold=1.0000000180025095e-35 1.0000000180025095e-35 1.5704159908688269 1.5454096330646598 1.4828937385542422 1.6079255275750775 1.4703905596521587 1.5079000963584093 1.2828428761209059 1.3703651284354905 1.3453587706313235 1.3203524128271564 1.2453333394146553 1.5954223486729939 46.500000000000007 -0.32262738138300812 1.0077729402750684 0.94525704576465064 45.500000000000007 120.50000000000001 -0.45509899126870429 0.64518075211464598 1.5000000000000002 1.2905723790264789 30.500000000000004 1.382868307337574 0.95776022466673416 1.0000000180025095e-35 1.6829446009875788 153.50000000000003 157.50000000000003 1.2578365183167388 50.500000000000007 1.4078746651417411 1.4578873807500752 161.50000000000003 1.0202761191771519 123.00000000000001 -0.72396067511010376
decision_type=2 2 2 2 2 2 2 2 2 2 2 2 2 2 2 2 2 2 2 2 2 2 2 2 2 2 2 2 2 2 2 2 2 2 2 2 2 2 2
left_child=2 -2 3 4 6 13 8 -6 12 10 11 -10 14 -4 15 16 17 21 22 -20 -21 -1 24 -24 -17 -11 -19 -16 -7 32 -31 -14 -29 -27 -35 -32 -18 -3 -39
right_child=1 37 5 -5 7 28 -8 -9 9 25 -12 -13 31 -15 27 18 36 26 19 20 -22 -23 23 -25 -26 33 -28 29 -30 30 35 -33 -34 34 -36 -37 -38 38 -40
leaf_value=0.018716598877811338 -0.26251654481177394 -0.13289149060558572 -0.031131283379997939 0.08891790178155845 -0.089501926949306268 -0.012105615447127481 0.065680825555150354 -0.0016581800208783114 -0.053098293963884373 0.085103511258788442 -0.13671469274025289 0.03857730506219105 0.10945464480645116 -0.12265789875496227 -0.12317305900438531 0.0032959027872933697 -0.13172662543608871 0.23221706295363237 -0.048460503847825694 -0.010969867495159411 0.0041950509697636154 -0.015455900356603323 0.013293293166464418 0.060833583328699099 0.074208866073424681 -0.034193990220922142 0.068597861642446523 -0.025107302762164625 0.064761470214379335 0.042359582377579072 -0.11364964828320705 0.024837299423245824 0.1656709846965381 0.038978771047793605 -0.033775243994397505 0.028097674897903636 -0.020330994362728096 -0.083094453976598467 0.096013786528564599
leaf_weight=102454.14691327512 10771.370683246059 515.18960956623778 3331.6878680558875 6253.6117395833135 5753.7927661957219 15613.680888749659 6196.8753246637061 4922.2114539314061 7639.0412448365241 1814.7683596536517 5037.4393604174256 6368.0844268063083 1964.3495539166033 3504.3703736010939 840.94523234851658 188438.74077755678 599.21010409854352 465.54929159767926 9858.9601976629347 103375.92811586242 149242.24688342679 12374.999894758686 26519.140717915259 7585.416608357802 2208.602738654241 3990.2731707207859 2636.9065491817892 22191.510201442987 1680.5334664173424 4352.3669164478779 768.8102240152657 3030.5836446573958 225.97905431687832 6221.5990359866992 2379.4576247818768 668.12965928018093 9899.7285813335329 570.20420022541657 520.28570041432977
leaf_count=887125 3758641 66917 23418 34824 39110 103224 38428 32053 50447 12342 35593 40213 12119 27681 35868 1028653 6741 3025 60608 589264 822620 107703 122865 33707 12187 27547 21740 159290 10972 25929 16433 19897 1398 41079 16682 3472 93069 77648 63021
internal_value=0 -0.233789 0.00176457 0.00269397 0.00192361 -0.0254365 0.00271243 -0.0490055 0.00214117 -0.0199853 -0.0445624 -0.0114171 0.00328044 -0.0780584 0.00285544 0.00381458 0.0135101 0.0170897 0.00125881 -0.00375546 -0.00201057 0.0150335 0.00711491 0.0238684 0.00411769 0.0125027 0.0931764 -0.0174718 -0.00463336 -0.0143182 0.0199936 0.0581253 -0.023181 0.0020347 0.0188469 -0.0477216 -0.0266948 -0.0410463 0.00232833
internal_weight=0 12377.1 730410 706279 700026 24130.3 689350 10676 683153 33450.7 19044.6 14007.1 649702 6836.06 644707 615660 128431 117932 487229 262477 252618 114829 224752 34104.6 190647 14406.1 3102.46 29047.7 17294.2 28206.8 5789.31 4994.93 22417.5 12591.3 8601.06 1436.94 10498.9 1605.68 1090.49
internal_count=8563553 3966227 4597326 4432031 4397207 165295 4326044 71163 4287616 223903 126253 90660 4063713 51099 4031697 3789307 1119403 1019593 2669904 1472492 1411884 994828 1197412 156572 1040840 97650 24765 242390 114196 206522 45834 32016 160688 85308 57761 19905 99810 207586 140669
is_linear=0
shrinkage=0.293686


Tree=15
num_leaves=40
num_cat=0
split_feature=4 8 8 10 9 9 9 9 9 9 9 9 9 9 9 9 9 9 9 9 9 9 9 9 9 9 9 9 8 12 8 9 1 9 9 9 9 1 5
split_gain=5409.86 311.178 531.89 166.371 126.241 221.561 561.244 419.117 281.024 607.576 577.488 321.495 409.38 388.632 307.61 442.202 240.337 237.071 1072.15 707.977 157.38 148.359 287.696 143.36 132.453 127.084 432.768 299.738 115.772 115.708 104.527 95.872 89.5484 74.9884 148.044 133.367 154.989 89.7136 70.2289
threshold=1.0000000180025095e-35 153.50000000000003 158.50000000000003 -2.790248010403376 -1.9054677439103931 -1.7054168814770567 -1.7179200603791402 -1.4303469456312192 -0.75517528491870889 -0.76767846382079241 -0.71766574821245832 -0.63014349589787366 -0.61764031699579014 -0.64264667479995718 -0.80518800052704298 -0.88020707393954423 -0.60513713809370662 0.64518075211464598 0.69519346772298007 0.5451553208979778 -0.74267210601662537 -0.85520071613537718 -0.8176911794291265 -0.89271025284162775 -0.7051625693103748 -1.1427738308832984 -1.0427483996666298 -1.2553024410020499 161.50000000000003 0.044894904280409147 124.50000000000001 -0.78018164272287593 0.14559479463193667 -1.5553787346520545 -1.6178946291624718 -1.6303978080645556 -1.6679073447708059 -0.85773843968580232 1.5000000000000002
decision_type=2 2 2 2 2 2 2 2 2 2 2 2 2 2 2 2 2 2 2 2 2 2 2 2 2 2 2 2 2 2 2 2 2 2 2 2 2 2 2
left_child=3 30 -3 -1 -5 6 -6 29 9 14 20 13 -13 24 15 23 -14 19 -19 -18 -10 -17 -23 25 -12 27 -27 -9 -4 33 32 -16 -2 34 35 36 -7 -37 -11
right_child=1 2 28 4 5 7 -8 8 10 38 11 12 16 -15 31 21 17 18 -20 -21 -22 22 -24 -25 -26 26 -28 -29 -30 -31 -32 -33 -34 -35 -36 37 -38 -39 -40
leaf_value=-0.035125581310177657 -0.10455920057248738 0.23910509959449758 -0.23782925528439716 0.047696562727974047 -0.0096879914842074154 0.053561547629072379 -0.14607777685371573 -0.014821870769520303 -0.00014530034067400282 -0.14818433425852623 -0.073185952963826711 0.090510877236680887 -0.070755418809074849 -0.12786186501536972 0.074099605782889377 -0.094798787387870329 0.003944156248506147 -0.095277762896023493 0.00076179382720884296 0.052081908427566916 0.10883273208505999 0.002407957199672761 -0.11745774259793171 0.084814370559031294 -0.00062129287339268702 -0.050991478546297452 0.0060546905889830365 0.033718405661642317 0.3169074067472239 0.050637291075060084 -0.26091466794967233 0.010319500145231218 -0.22053689132006143 0.037246979826765628 -0.031150449892721144 0.30613017553554894 -0.032264457901957769 0.064528720447260352 -0.024493882361616457
leaf_weight=10721.825949451886 739.56593376840465 334.23790937731974 667.79641715472098 5116.2698899218813 22205.810478895903 3171.6678102388978 2947.6505271587521 28304.210130487569 1432.3210155898705 3077.3291274681687 2727.7773224366829 4635.5098769832402 3798.7909575430676 3313.2991874124855 4619.6206942964345 6254.8747844872996 251520.37691937573 10552.131951313466 200940.94717779849 29436.237252529711 5644.5557658942416 5597.6824166104198 2497.1029587900266 1491.529645212926 10604.437896074727 19635.453522980213 27579.926807042211 17918.26459520217 33.871321982936934 15457.486464264803 5469.8241348202573 3632.8140926901251 2599.2379043707624 11550.078876396641 5860.3990564560518 137.9438737295568 4241.2606422379613 3346.164961559698 455.32805660367012
leaf_count=97438 265175 72190 256942 28769 137505 17765 23303 164109 9627 25817 16899 25814 23898 21041 28803 45004 1536564 70420 1298638 154827 36023 40240 18761 10311 68079 156588 172335 112244 7512 93531 2386000 22703 978408 63601 33146 1274 24379 15056 2814
internal_value=0 -0.217982 -0.0656567 0.0011881 0.00172915 0.00139997 -0.0256736 0.00238778 0.000502502 -0.0122518 0.0034459 0.00230637 0.00364083 -0.0378466 -0.00864429 -0.0127734 0.00282926 0.003397 -0.00402987 0.00898779 0.0867716 -0.0608245 -0.0345661 -0.00550944 -0.0154718 -0.00695185 -0.0176684 0.00399416 -0.21091 0.0302006 -0.235889 0.0460284 -0.194866 0.0190394 0.00648733 0.0267324 0.00445222 0.0741229 -0.132255
internal_weight=0 9844.53 1035.91 730427 719705 714589 25153.5 689436 645671 121064 524606 517530 500884 16645.5 117531 109279 496248 492450 211493 280957 7076.88 14349.7 8094.79 94929.4 13332.2 93437.9 47215.4 46222.5 701.668 43765 8808.63 8252.43 3338.8 28307.5 16757.4 10897 7412.93 3484.11 3532.66
internal_count=8563553 3966227 336644 4597326 4499888 4471119 160808 4310311 4061559 799729 3261830 3216180 3110161 106019 771098 719592 3084347 3060449 1369058 1691391 45650 104005 59001 615587 84978 605276 328923 276353 264454 248752 3629583 51506 1243583 155221 91620 58474 42144 16330 28631
is_linear=0
shrinkage=0.293686


Tree=16
num_leaves=40
num_cat=0
split_feature=4 6 6 8 14 8 11 10 3 3 3 8 1 1 3 3 8 14 8 14 3 3 8 8 1 3 3 8 8 8 10 8 1 8 1 0 1 9 3
split_gain=3685.17 801.942 145.376 192.777 154.953 128.194 111.549 109.86 100.95 226.86 207.101 145.546 124.732 123.951 120.051 110.485 107.755 141.351 126.604 136.952 108.573 120.159 96.9312 278.646 87.5265 85.9995 76.8523 73.0562 70.6607 222.88 66.306 66.0832 66.0206 63.7911 58.8699 55.1318 52.8193 51.8535 51.7686
threshold=1.0000000180025095e-35 1.0000000180025095e-35 1.0000000180025095e-35 2.0000000000000004 0.43315292778717895 3.5000000000000004 1.9595873934546006 -0.34449062461544783 9.5000000000000018 7.5000000000000009 11.500000000000002 25.500000000000004 -0.72396067511010376 -0.65707179282225447 1.5000000000000002 8.5000000000000018 27.500000000000004 0.57845803673790874 120.50000000000001 -1.731353167948195 17.500000000000004 30.500000000000004 153.50000000000003 158.50000000000003 -0.72396067511010376 10.500000000000002 34.500000000000007 2.0000000000000004 36.500000000000007 123.00000000000001 0.55803121237592601 18.500000000000004 1.0000000180025095e-35 59.500000000000007 0.74759473522258024 1.0000000180025095e-35 1.6840390872524702 1.0077729402750684 30.500000000000004
decision_type=2 2 2 2 2 2 2 2 2 2 2 2 2 2 2 2 2 2 2 2 2 2 2 2 2 2 2 2 2 2 2 2 2 2 2 2 2 2 2
left_child=2 22 4 -4 7 -5 8 -1 9 14 12 -12 -10 35 28 31 20 18 33 -20 -13 32 27 -24 38 -14 -23 -2 -7 -30 34 -15 -22 -18 -3 -11 37 -26 -9
right_child=1 30 3 5 -6 6 -8 24 10 13 11 16 25 15 -16 -17 17 -19 19 -21 21 26 23 -25 36 -27 -28 -29 29 -31 -32 -33 -34 -35 -36 -37 -38 -39 -40
leaf_value=-0.067030858156224712 0.57687550593953218 0.086478673056513133 -0.23952715088384449 0.079388493901696472 -0.080066419082618911 0.0065947079799683617 -0.024363821587358857 -0.0050649553256933485 0.090046375113285226 -0.082360775118213075 -0.021215257923495278 -0.025776219041222747 -0.022289120556744087 0.035370632385395569 0.01496846030319684 -0.063846879050513797 -0.011912848437403534 -0.0095665803188433908 -0.0051968209690265409 0.0094771134251267174 0.03114095677892971 -0.039125279582530169 0.23335692563411695 -0.24811422012510173 0.040052679965696746 0.035562538624476746 0.00050704684533444365 -0.2541083222022949 -0.21048160474708377 -0.017500373515915227 -0.092657767336583041 -0.013046718767827876 0.011674936688693491 -0.061753506119282764 -0.091315356327692068 -0.029765348703152214 -0.14735978872087058 -0.024502733294888151 -0.068867949458461739
leaf_weight=2513.228019923903 8.919577493099494 743.0094771203585 285.89501158520579 1822.063096832484 3589.0944279814139 2120.4910183884203 14212.033564083278 2779.2155949044973 2983.5609201211482 3502.1344630904496 21670.180740557611 7568.8600811511278 2784.3186658583581 2588.9354666024446 36761.836572816595 3575.8828881196678 6469.1191033385694 93412.418124513701 79284.817211665213 178040.92616168782 16872.095128193498 4787.1894492506981 140.02546432288364 397.08227808633819 5121.1436489224434 10848.960619132966 35600.104287810624 6059.8693840178894 681.92907303571701 2124.0913232024759 415.25646814610809 39822.476825144142 137687.19049718603 3370.00864334777 204.54764296906069 3382.5050088502467 153.99447481427342 1356.7998274834827 1813.3144994713366
leaf_count=73396 4441 104377 2315 9389 119983 14720 118939 87992 27419 48437 125281 39118 14725 15480 223210 19546 34882 528253 475269 1109876 76366 25241 47194 233944 116966 51425 184013 3473743 5449 15376 66431 211454 659961 18922 36576 39297 7688 31196 64695
internal_value=0 -0.199954 0.000849122 0.00149577 -0.0257304 0.00159267 0.001393 -0.0115309 0.00191904 -0.00700095 0.00332168 0.00240288 0.0356524 -0.0197744 0.00919834 -0.0142712 0.00331188 0.000267092 0.00370551 0.00495577 0.00873292 0.010073 -0.24227 -0.122482 0.00089358 0.0237446 -0.00418992 -0.252861 -0.0338498 -0.0644249 0.0051391 -0.0100901 0.0138002 -0.0289885 0.0480477 -0.0565271 0.0224777 0.0265255 -0.030267
internal_weight=0 7968.71 729587 712260 17326.8 711974 710152 13737.7 695940 94560.3 601380 584763 16616.8 52871.9 41688.3 45987.3 563093 360577 267165 257326 202515 194947 6605.9 537.108 11224.5 13633.3 40387.3 6068.79 4926.51 2806.02 1362.81 42411.4 154559 9839.13 947.557 6884.64 6631.94 6477.94 4592.53
internal_count=8562985 3966706 4596279 4094363 501916 4092048 4082659 381933 3963720 592969 3370751 3277182 93569 334214 258755 246480 3151901 2167202 1638949 1585145 984699 945581 3759322 281138 308537 66150 209254 3478184 35545 20825 207384 226934 736327 53804 140953 87734 155850 148162 152687
is_linear=0
shrinkage=0.293686


Tree=17
num_leaves=40
num_cat=0
split_feature=6 5 1 7 1 10 1 1 7 11 5 3 9 9 9 9 9 9 9 11 9 9 9 9 9 3 3 3 3 3 9 3 10 3 3 3 3 3 3
split_gain=1194.31 243.692 398.742 245.454 151.496 82.4891 82.5632 81.3055 167.447 99.2436 95.6344 81.7797 69.8701 189.306 114.001 96.4907 193 195.28 93.474 92.6002 74.6217 90.033 73.1802 284.81 72.4654 58.9312 97.6854 106.785 80.5088 60.0249 57.396 54.3424 114.573 85.5921 72.1144 238.592 111.182 144.81 152.733
threshold=1.0000000180025095e-35 1.0000000180025095e-35 1.0000000180025095e-35 -0.62121962380819873 1.6171502049646207 -3.4293021380312831 -1.1921828511250487 -0.12196073451946034 1.0709192800162575 -0.65995396091000613 1.5000000000000002 1.0000000180025095e-35 -0.63014349589787366 -1.1802833675895488 -1.0427483996666298 -0.080003624206198595 -0.017487729695780947 0.007518628108386001 -0.65514985370204071 0.89227483727846169 -0.13001633981453267 -0.15502269761869972 -1.6303978080645556 -1.6178946291624718 -0.067500445304115045 26.500000000000004 19.500000000000004 20.500000000000004 24.500000000000004 17.500000000000004 -0.10500998201036564 42.500000000000007 0.69913963221444975 44.500000000000007 40.500000000000007 38.500000000000007 37.500000000000007 36.500000000000007 34.500000000000007
decision_type=2 2 2 2 2 2 2 2 2 2 2 2 2 2 2 2 2 2 2 2 2 2 2 2 2 2 2 2 2 2 2 2 2 2 2 2 2 2 2
left_child=1 2 -1 -3 -4 -2 -7 8 9 -8 11 -11 13 22 19 20 24 -18 -16 -15 21 -14 -13 -24 -17 26 29 -28 -29 -9 -22 34 33 -33 35 36 37 38 -27
right_child=5 3 4 -5 -6 6 7 25 -10 10 -12 12 15 14 18 16 17 -19 -20 -21 30 -23 23 -25 -26 31 27 28 -30 -31 -32 32 -34 -35 -36 -37 -38 -39 -40
leaf_value=0.040492894726347921 -0.039298853494934435 -0.028862707396566944 -0.061015286100468483 -0.13015487533160991 -0.18397938061519292 -0.047881745187255097 -0.0072701595772781055 -0.0050004462178508619 -0.020526823009731947 -0.14768982763673483 -0.063750493534282499 0.0020420521671534798 0.031368593974191832 -0.020865236765285934 0.0028279256970039678 0.0098185543886123699 0.13657195870543176 0.013223322760217256 -0.08081491371290106 -0.097145081450900644 0.14347418828809635 -0.058608315551048999 0.20169636153209855 0.025130700559045229 -0.084687968105720768 0.0014430849463930875 -0.077066392068683029 -0.0011382879433305712 -0.054973123735381962 0.02117436714596941 0.036915804541328388 -0.052296388537057842 -0.062422591313962515 -0.00081176040698450027 0.019689226050682344 -0.04887319170325307 0.051817128800959664 -0.060038103948455102 0.033744165801206358
leaf_weight=3689.4518910788465 4347.3287143697962 2875.1720680099679 7271.2446743245237 7318.6642482002499 981.12399578979239 2934.1683456269093 25967.095888374839 96135.129808973987 17704.802643761039 271.84651676053181 1407.3894506176002 9894.9969869679771 27660.516406190116 3668.1790953744203 17787.86461059982 992.24342539766803 1128.196115644183 58630.328136864584 1231.9769745068625 2194.9881197875366 882.4514766773209 993.18346774205565 829.26725264452398 15780.582128650974 2368.4202076178044 299420.49865052383 3071.1844294196926 8830.6632211571559 3288.6815498536453 8200.7574873398989 864.24147404683754 2979.3789582536556 3110.5501351547427 42701.761643717531 20026.764463373926 7903.1107231019996 3938.8831057348289 3194.67861158913 13181.847116042394
leaf_count=279062 46677 282636 1011628 2411241 276671 73693 263353 545990 116719 2001 7234 71094 191314 22897 135467 7867 7404 367619 9211 30204 5781 7268 4392 106194 19879 1571262 17728 48450 20496 43129 6620 17106 23741 254110 103829 42754 21305 18266 70693
internal_value=0 -0.068236 -0.0397596 -0.10159 -0.0756433 0.00103127 0.00127857 0.00148288 0.00667222 0.00946321 0.0124277 0.0131665 0.0134688 0.00476806 -0.013628 0.0182493 0.0117014 0.0155531 -0.00258879 -0.0494308 0.031843 0.0282481 0.0220398 0.0339506 -0.0567748 -0.000430522 -0.00614673 -0.0281506 -0.0157506 -0.00294272 0.0907825 0.00129274 -0.00788535 -0.00417069 0.00258092 0.00153505 0.00278117 0.0021694 0.0028053
internal_weight=0 22135.7 11941.8 10193.8 8252.37 713524 709177 706242 190259 172554 146587 145179 144907 51387.9 24883 93519.6 63119.2 59758.5 19019.8 5863.17 30400.4 28653.7 26504.8 16609.8 3360.66 515984 119526 15190.5 12119.3 104336 1746.69 396457 48791.7 45681.1 347666 327639 319736 315797 312602
internal_count=8562985 4261238 1567361 2693877 1288299 4301747 4255070 4181377 1382518 1265799 1002446 995212 993211 379459 197779 613752 402769 375023 144678 53101 210983 198582 181680 110586 27746 2798859 675793 86674 68946 589119 12401 2123066 294957 271216 1828109 1724280 1681526 1660221 1641955
is_linear=0
shrinkage=0.293686


Tree=18
num_leaves=40
num_cat=0
split_feature=6 8 8 1 8 8 1 8 8 8 8 8 10 8 7 5 8 8 3 8 3 10 8 8 3 8 1 8 5 1 1 5 1 7 10 10 10 1 9
split_gain=665.152 321.235 185.417 184.573 130.019 119.301 108.821 97.3652 81.5761 74.1205 123.778 114.511 85.9612 77.2639 118.066 128.112 177.111 135.165 99.3263 108.78 93.6281 86.4684 84.2207 130.567 77.4166 70.3596 68.049 66.2965 65.4726 64.9569 77.4999 83.1867 102.803 68.6208 63.8662 62.4402 61.9734 85.9927 75.8541
threshold=1.0000000180025095e-35 153.50000000000003 124.50000000000001 0.078705912344087373 158.50000000000003 2.0000000000000004 1.5502613226767716 161.50000000000003 123.00000000000001 7.5000000000000009 22.500000000000004 16.500000000000004 0.69913963221444975 27.500000000000004 0.86705884950262535 1.5000000000000002 30.500000000000004 138.50000000000003 1.5000000000000002 123.00000000000001 8.5000000000000018 2.8180233442975058 36.500000000000007 120.50000000000001 6.5000000000000009 156.50000000000003 -0.055071852231611089 59.500000000000007 1.5000000000000002 -0.99151620426150078 1.0000000180025095e-35 1.0000000180025095e-35 -0.45640514595870668 -1.731353167948195 1.515184113029526 1.3177624633922134 0.31022552867178843 0.68070585293473096 0.87023797235214939
decision_type=2 2 2 2 2 2 2 2 2 2 2 2 2 2 2 2 2 2 2 2 2 2 2 2 2 2 2 2 2 2 2 2 2 2 2 2 2 2 2
left_child=1 2 3 8 25 -2 -5 35 -1 -7 11 12 28 21 15 16 26 27 19 -18 -16 29 -20 -24 -25 -3 -15 -17 -11 -12 31 32 -31 -34 -4 -6 38 -38 -32
right_child=5 4 34 6 7 9 -8 -9 -10 10 13 -13 -14 14 20 17 18 -19 22 -21 -22 -23 23 24 -26 -27 -28 -29 -30 30 36 -33 33 -35 -36 -37 37 -39 -40
leaf_value=-0.030941133250294534 -0.20491746956187282 0.012123337639848386 -0.11771942921122561 -0.056698306389488105 -0.14208014574148869 0.03377021370462012 -0.17207726219390318 0.15069806419095494 0.074548406001169867 -0.015972668042545188 -0.041395632326030496 -0.11595847595552708 -0.067997707161599225 -0.20270905569408143 -0.041102710605028715 0.0666874325343738 -0.17086130402643376 -0.068382166724363258 0.068712192045668405 -0.022408559354118937 -0.0081144871403863138 0.042345129574972849 -0.036070083538969712 0.020432291263660671 0.0026519767482418798 0.099064731954742163 -0.053346800400164984 -0.01408372280456362 0.05195389595077652 0.095308381069341794 -0.0057900174498980075 -0.0050047948623620784 -0.01653098897202868 0.031365979954438704 -0.023150941165226705 -0.010249567288563027 0.021113977233482517 0.00245734055366493 0.012457536205584653
leaf_weight=1260.1353235322167 243.09021074231714 2740.6556943845935 6478.3963933091145 4909.543452266138 806.26862261752831 5821.8372682956979 823.74722250713967 160.58581827394664 1268.0446224129992 10358.656485654879 2638.9974163575098 1120.8445680041332 2492.4538869909011 289.99301397847012 8312.9461951330304 929.98546066414565 552.71252371184528 4235.6283456059173 1691.3169545102865 1854.7067949366756 69209.070568890311 5300.3953808364458 7214.4681243072264 22667.846952047432 309746.707522457 1136.0539253104944 2846.4887382991146 15147.824686378706 1387.5085222283378 1872.7052548099309 87534.744730606442 8432.3952318830416 3126.9125443934463 14720.784283435903 681.89116241777083 504.33881047257455 31256.620181484614 66971.387481660116 25335.063723329222
leaf_count=151196 2559 68282 2438831 829310 211993 34195 278033 6561 118700 67059 22009 7624 19235 1414 65297 5079 5431 33716 8471 14529 410111 37425 42977 155976 2037322 21900 19901 82445 7510 8570 449091 40493 14969 65751 80350 56082 139011 365451 138126
internal_value=0 -0.0526178 -0.0741261 -0.0441371 0.00939919 0.000698367 -0.0732879 -0.0649205 0.0219558 0.000768575 0.000496854 -0.0255793 -0.0184606 0.00107579 -0.00123799 0.000960721 0.00228838 -0.0217078 0.00292243 -0.0565188 -0.0116525 0.00523847 0.00334183 0.00301614 0.00386457 0.0376147 -0.0671811 -0.00940857 -0.00794494 0.00442519 0.00493079 0.019405 0.0298443 0.0229723 -0.10872 -0.0913881 0.00300027 0.00839438 -0.00169378
internal_weight=0 20769.7 15421.8 8261.47 5347.9 713314 5733.29 1471.19 2528.18 713071 707249 15359.5 14238.6 691890 444700 367178 346864 20313.4 343728 2407.42 77522 247190 341320 339629 332415 3876.71 3136.48 16077.8 11746.2 241890 239251 28152.8 19720.4 17847.7 7160.29 1310.61 211098 98228 112870
internal_count=8562985 4261238 3896420 1377239 364818 4301747 1107343 274636 269896 4299188 4264993 101428 93804 4163565 2882669 2407261 2286021 121240 2264706 19960 475408 1280896 2244746 2236275 2193298 90182 21315 87524 74569 1243471 1221462 129783 89290 80720 2519181 268075 1091679 504462 587217
is_linear=0
shrinkage=0.293686


Tree=19
num_leaves=40
num_cat=0
split_feature=4 6 8 8 9 9 9 9 9 9 9 18 9 9 9 9 9 9 9 9 9 9 9 9 9 9 9 7 9 9 9 9 9 9 9 9 9 9 6
split_gain=1735.71 569.387 99.3614 143.313 78.5418 621.403 680.7 399.266 202.4 337.362 293.696 268.212 200.192 155.974 214.853 184.089 162.055 179.283 368.798 581.616 294.034 176.336 169.152 262.175 131.847 269.681 171.853 165.654 154.569 134.962 266.037 112.193 169.529 107.911 259.18 217.504 101.15 98.6727 97.7888
threshold=1.0000000180025095e-35 1.0000000180025095e-35 153.50000000000003 158.50000000000003 -1.2928119777083005 -1.2553024410020499 -1.2427992620999664 -1.3428246933166343 -0.75517528491870889 -0.76767846382079241 -0.71766574821245832 1.3716546005909001 -1.3678310511208016 -0.63014349589787366 -0.61764031699579014 -0.64264667479995718 -0.58013078028953957 -0.50511170687703844 -0.45509899126870429 -0.44259581236662077 -0.48010534907287139 -0.51761488577912196 -0.59263395919162309 -0.60513713809370662 -1.6303978080645556 -1.6178946291624718 -1.8304486704978919 -0.020281900100988594 -1.5553787346520545 -1.4303469456312192 -1.3803342300228851 -0.80518800052704298 -0.88020707393954423 -1.7054168814770567 -1.7179200603791402 -1.6554041658687226 -0.53011806468120548 -1.2678056199041334 1.0000000180025095e-35
decision_type=2 2 2 2 2 2 2 2 2 2 2 2 2 2 2 2 2 2 2 2 2 2 2 2 2 2 2 2 2 2 2 2 2 2 2 2 2 2 2
left_child=4 2 -2 -4 7 37 -7 12 9 11 -10 31 24 15 -15 -12 22 21 20 -20 -19 36 23 -16 26 27 -1 38 -27 -30 -31 32 -8 34 -28 -35 -18 -6 -26
right_child=1 -3 3 -5 5 6 8 -9 10 -11 13 -13 -14 14 16 -17 17 18 19 -21 -22 -23 -24 -25 25 28 33 -29 29 30 -32 -33 -34 35 -36 -37 -38 -39 -40
leaf_value=0.022304207721822455 -0.22944738851322438 0.0023976282025009264 0.12136937618144966 -0.22212506174227192 -0.041292755162255411 0.12662714931274199 0.001315056428167035 0.071015754819798285 0.059793033082286895 -0.10517731178230913 -0.01210561975004292 -0.043113565989512846 -0.056869795742906251 0.0632149511033957 -0.055291406128578649 -0.091131658054460912 0.024999475763642833 0.015730142455714444 0.11514488477762656 0.0012513944526049696 -0.094228009362718343 0.088951590192400828 -0.081627504507961551 0.065101770682889165 0.67791168234128873 -0.024402479441371375 -0.017381031452821119 0.043907763430903829 0.034318712561407991 -0.040405457059164748 0.066169066217577358 0.030729904219609718 -0.038759556072262752 0.027888069939315946 -0.11592863948993133 -0.060580824703264639 -0.062882829154482553 -0.11923171750050708 0.14619560093251413
leaf_weight=13115.126240780577 3885.1535638204659 1374.9660359637346 177.67963267629966 254.40786198392743 2125.5263400813565 3660.7544337643776 49782.260686563328 8056.7424223443959 7424.0609002990532 3320.9615556758363 13417.957096053287 16753.657218864188 4606.5221748715267 4878.9975821442786 3743.0000881589949 3137.133386271249 10507.031449276023 3181.3009930830449 3899.67197679932 462689.42107757711 6153.6230417091283 3713.9248267562944 4074.3023909574258 2674.7045083818957 30.229607168585062 9128.0798254599795 14473.694190980867 3529.0297695696354 18430.305892671458 6761.4231958249584 2880.7009438276291 8122.9574480410665 11142.164017662406 8617.1124172816053 2737.3184415968135 3320.2396312439814 1265.2932919682935 4121.8535022123251 1655.8949746824801
leaf_count=77842 3478184 207384 47194 233944 13757 19277 340744 45707 46600 29603 87246 127543 27469 26635 24512 21544 61272 19594 19927 2906154 45689 19203 29521 14669 700 53936 91895 16206 104300 40024 16588 49841 82385 50153 23892 20567 8988 24548 7748
internal_value=0 -0.162166 -0.214583 -0.0808001 0.000638252 -0.00056169 0.000361661 0.00840206 -0.000383991 -0.0133347 0.00179054 -0.00977916 0.00275151 0.000967619 0.00188407 -0.027084 0.00128777 0.00205895 0.00104697 0.00220343 -0.0567513 0.0331564 -0.0348275 -0.00510892 0.00599546 0.0175634 -0.00561327 0.080107 0.00879397 0.0195896 -0.00856044 -0.00169026 -0.00601349 -0.0181759 -0.0330579 0.00327771 0.0155498 -0.092723 0.155834
internal_weight=0 5692.21 4317.24 432.087 727133 629791 623543 97342.4 619882 89122 530760 85801 89285.7 523336 506781 16555.1 501902 491410 475924 466589 9334.92 15486.2 10492 6417.7 84679.2 42415.7 42263.5 5215.15 37200.5 28072.4 9642.12 69047.4 60924.4 29148.4 17211 11937.4 11772.3 6247.38 1686.12
internal_count=8562985 3966706 3759322 281138 4596279 4019252 3980947 577027 3961670 630116 3331554 600513 531320 3284954 3176164 108790 3149529 3080827 2991364 2926081 65283 89463 68702 39181 503851 239502 264349 24654 214848 160912 56612 472970 423129 186507 115787 70720 70260 38305 8448
is_linear=0
shrinkage=0.293686


Tree=20
num_leaves=40
num_cat=0
split_feature=4 6 8 8 15 15 15 15 15 15 15 15 15 15 15 15 15 15 15 15 1 15 15 15 15 15 15 15 15 15 15 15 15 15 15 15 5 15 15
split_gain=1090.33 440.899 102.007 98.9253 90.0555 282.648 167.089 161.397 144.048 119.667 104.267 100.715 267.782 373.416 1756.48 1378.83 735.365 606.353 637.652 386.749 325.695 288.794 756.619 700.752 275.99 198.772 291.115 190.544 437.307 137.279 180.902 144.959 199.708 109.178 146.011 109.285 99.595 95.4944 92.1813
threshold=1.0000000180025095e-35 1.0000000180025095e-35 153.50000000000003 158.50000000000003 1.5704159908688269 1.5454096330646598 1.6079255275750775 1.4828937385542422 1.4703905596521587 1.5079000963584093 1.5954223486729939 1.0077729402750684 0.87023797235214939 0.77021254113548121 0.73270300442923064 0.78271572003756473 0.72019982552714712 0.79521889893964826 0.80772207784173178 0.74520618333131416 -0.79084955739795304 0.69519346772298007 0.7076966466250636 0.68269028882089655 0.88274115125423291 1.1453079081979871 1.2078238027084047 1.1703142660021542 1.1578110871000706 0.94525704576465064 0.95776022466673416 0.99526976137298473 0.9827665824709011 1.0202761191771519 1.1077983714917365 1.095295192589653 1.5000000000000002 0.93275386686256712 1.3703651284354905
decision_type=2 2 2 2 2 2 2 2 2 2 2 2 2 2 2 2 2 2 2 2 2 2 2 2 2 2 2 2 2 2 2 2 2 2 2 2 2 2 2
left_child=4 2 -2 -4 5 7 10 8 11 -9 -6 12 13 14 16 -15 21 -17 -19 20 -16 23 -23 -1 -14 33 27 28 -27 37 -31 32 -32 -13 35 -35 -22 -26 -28
right_child=1 -3 3 -5 6 -7 -8 9 -10 -11 -12 25 24 15 19 17 -18 18 -20 -21 36 22 -24 -25 29 26 38 -29 -30 30 31 -33 -34 34 -36 -37 -38 -39 -40
leaf_value=0.0012678160255952539 -0.21268985274650595 0.001551829280344132 0.090144484774286493 -0.19992912986666159 -0.020583448070484272 0.062119165187137088 -0.002306468426097778 -0.065852656317440916 0.04495459921673077 -0.0026313692452285234 -0.094959393385393678 -0.085568373600132974 0.11914729795712929 -0.20465215686548188 0.53962121019279885 0.089688827412935226 -0.14451315865717082 -0.15014892017740017 -0.004479470506761226 0.075986299312595609 0.21679878349260942 0.21307481818165766 -0.044184328598299322 -0.13993903736833091 0.0042485899645984971 0.06199526479972594 -0.019619871575945358 0.076513163123530209 -0.076289944183622796 0.088479000711131919 0.021461536986753443 0.072530843757576222 -0.078025102380550604 -0.019684433503962564 -0.064354487970382943 0.044895286453830292 0.062262130004625015 -0.074899377337325226 0.0087723621193011077
leaf_weight=520240.64914252423 3090.8977613789611 1378.8461266641971 201.18850387679413 203.85875161847798 3268.7301783086732 6444.243519090116 17112.13150203228 5477.2676057005301 6336.3952589007095 4888.1009249277413 3237.5218011243269 2670.2599642816931 2667.2893170807511 3534.6955182123929 258.35460291709751 4459.7400971595198 3010.6201177565381 3197.1213131919503 13690.407978922129 2832.1248835353181 2776.3753953548148 1908.4627762781456 2039.4072533873841 3048.7837787335739 6345.6022149315104 5068.8957938840613 31345.508570677601 6115.3619190864265 3228.4765048269182 4083.5667927898467 9488.0973946992308 3353.0213991273195 2130.9892652053386 17318.122604489326 5758.7279172381386 2598.8943913895637 414.28052546456456 1658.001390424557 14389.059398642741
leaf_count=3247060 3478969 207397 47382 233977 23492 34878 113937 39201 38296 31977 27639 24675 15902 24497 3005 25813 19977 21801 83933 17262 12903 12318 14238 22505 41062 33193 209759 38729 21880 20592 54200 19159 12711 121193 41726 17302 1886 10153 97451
internal_value=0 -0.139059 -0.194526 -0.0557853 0.00029689 0.000896413 -0.0175405 0.000329753 0.000879431 -0.036043 -0.0576006 0.000468437 0.00185175 0.000413344 0.00204453 -0.0347581 0.000215538 -0.0066235 -0.0320611 0.156435 0.222476 0.00104209 0.0801742 0.000444991 0.0290159 -0.00877172 0.000782992 0.0371795 0.00818397 0.0201292 0.0336864 0.0187385 0.00321099 -0.029047 -0.0231667 -0.0112554 0.196751 -0.0121444 -0.0106863
internal_weight=0 4874.79 3495.95 405.047 726395 702777 23618.4 696333 685967 10365.4 6506.25 679631 591138 561411 536529 24882 530248 21347.3 16887.5 6281.14 3449.01 527237 3947.87 523289 29726.6 88493.3 60147.3 14412.7 8297.37 27059.3 19055.7 14972.1 11619.1 28346 25675.7 19917 3190.66 8003.6 45734.6
internal_count=8564030 3967725 3760328 281359 4596305 4431237 165068 4396359 4325181 71178 51131 4286885 3680977 3507198 3351154 156044 3316098 131547 105734 35056 17794 3296121 26556 3269565 173779 605908 401012 93802 55073 157877 106662 86070 66911 204896 180221 138495 14789 51215 307210
is_linear=0
shrinkage=0.293686


Tree=21
num_leaves=40
num_cat=0
split_feature=4 6 5 8 7 7 7 7 7 7 7 7 7 7 7 7 7 7 7 7 7 7 7 7 7 7 7 7 9 9 9 3 3 3 9 7 7 3 13
split_gain=674.694 330.247 90.4182 89.8655 81.6647 299.09 201.456 391.338 258.206 198.37 236.952 342.488 308.216 154.019 136.551 273.89 413.457 358.893 227.256 225.523 208.231 187.174 147.221 135.268 166.6 445.713 134.705 124.656 122.674 140.946 116.881 110.845 202.062 108.41 100.492 97.3333 93.9975 89.4501 86.6287
threshold=1.0000000180025095e-35 1.0000000180025095e-35 1.0000000180025095e-35 153.50000000000003 -0.020281900100988594 -0.041757417499929693 0.23014021506561042 0.29123869000470304 0.29971586792533766 0.30282416649623695 0.34241572708112683 0.32150535487689474 0.41801959535108307 -1.731353167948195 0.075416019536397719 0.13054907297578441 0.14216594642258004 0.14901048266961095 0.11729955785538511 0.038430406238221457 0.09293552057237596 0.13638890665444384 0.20307603963010282 0.50065638159963999 0.54323065293438277 0.53060907691921566 0.25349954978024808 -0.45205282885864545 -1.2928119777083005 -0.80518800052704298 1.5704159908688269 28.500000000000004 29.500000000000004 7.5000000000000009 -1.6303978080645556 0.081193059304533924 0.54900769270251881 32.500000000000007 -0.85773843968580232
decision_type=2 2 2 2 2 2 2 2 2 2 2 2 2 2 2 2 2 2 2 2 2 2 2 2 2 2 2 2 2 2 2 2 2 2 2 2 2 2 2
left_child=4 2 3 -2 5 13 14 26 -9 -10 11 -11 -12 28 19 18 21 -18 20 -6 35 -17 -19 -14 25 -25 -8 -15 34 -30 -31 33 38 -29 -1 -16 -26 -38 -33
right_child=1 -3 -4 -5 6 -7 7 8 9 10 12 -13 23 27 15 16 17 22 -20 -21 -22 -23 -24 24 36 -27 -28 31 29 30 -32 32 -34 -35 -36 -37 37 -39 -40
leaf_value=-0.0061520064797904441 -0.14765651735608593 0.0010941273400708561 -0.21724961084693176 0.068033958311584097 -0.017259049052097131 0.059423575526364084 0.014199779692971148 -0.095085906809308909 0.068563839798724366 0.00053971189320837338 0.031531020778702887 -0.078394691532792438 -0.020880623506512461 0.049726841189420973 -0.022020610208173287 0.018802991795044303 -0.12420974238522288 0.0017409880064577265 -0.1102319986303557 0.032071934757837373 0.00035562573801231265 0.13761195968515269 -0.044965540145033449 0.0015304795225827737 -0.052907451551848145 0.11478947156458016 0.060150939093797574 0.029627298048127068 -0.031300233062064302 -0.0012529478915289701 -0.047483939447361623 0.25683648503456297 0.014232470516414891 -0.0037640161010715541 0.036503968477091087 -0.0955971891700413 0.00017885547957631945 -0.020159874613469127 0.078749076055065009
