tree
version=v4
num_class=1
num_tree_per_iteration=1
label_index=0
max_feature_idx=9
objective=binary sigmoid:1
feature_names=Gender Age Driving_License Region_Code Previously_Insured Vehicle_Age Vehicle_Damage Annual_Premium Policy_Sales_Channel Vintage
feature_infos=[0:1] [20:83] [0:1] [0:52] [0:1] [0:2] [0:1] [2630:489663] [1:163] [10:299]
tree_sizes=4412 4450 4465 4487 4479 4523 4510 4497 4513 4516 4495 4518 4567 4536 4513 4563 4525 4548 4522 4535 4521 4554 4531 4560 4517 4565 4527 4535 4551 4541 4536 4539 4525 4513 4536 4505 4560 4536 4525 4549 4563 4498 4480 4486 4552 4533 4503 4521 4546 4505 4546 4472 4527 4426 4445 4452 4548 4528 4548 4482 4522 4489 4465 4499 4515 4484 4551 4525 4545 4515 4412 4426 4529 4520 4367 4500 4537 4503 4486 4484 4458 4520 4498 4373 4345 4489 4400 4519 4381 4494 4395 4288 4410 4519 4513 4541 4514 4545 4490 4346

Tree=0
num_leaves=40
num_cat=0
split_feature=6 8 5 5 8 7 7 8 8 8 9 9 9 8 9 9 3 9 9 5 3 3 9 8 8 5 7 9 0 8 8 8 9 9 9 9 9 9 9
split_gain=1.11329e+06 119412 82186.8 12199.6 11584.4 8260.48 7936.39 6258.38 6651.98 5818.13 5004.27 4717.37 5288.24 4553.51 3462.2 7735.72 2979.04 2931.07 5508.23 2709.4 2657.23 2492.7 2377.97 1913.71 1926.77 9339.61 3270.43 1880.78 1838.85 1752.93 3983.92 1732.92 1718.41 1655.46 1584.1 1845.84 2152.52 1505.37 2110.56
threshold=1.0000000180025095e-35 124.50000000000001 1.0000000180025095e-35 1.0000000180025095e-35 153.50000000000003 2772.0000000000005 2772.0000000000005 158.50000000000003 161.50000000000003 25.500000000000004 244.50000000000003 197.50000000000003 215.50000000000003 152.50000000000003 65.500000000000014 103.50000000000001 46.500000000000007 222.50000000000003 223.50000000000003 1.5000000000000002 1.5000000000000002 47.500000000000007 63.500000000000007 2.0000000000000004 27.000000000000004 1.5000000000000002 34346.500000000007 189.50000000000003 1.0000000180025095e-35 161.50000000000003 158.50000000000003 156.50000000000003 239.50000000000003 245.50000000000003 60.500000000000007 27.500000000000004 26.500000000000004 102.50000000000001 80.500000000000014
decision_type=2 2 2 2 2 2 2 2 2 2 2 2 2 2 2 2 2 2 2 2 2 2 2 2 2 2 2 2 2 2 2 2 2 2 2 2 2 2 2
left_child=-1 3 4 5 -3 20 29 13 -9 -7 11 14 -13 28 22 37 23 -14 -19 -15 -2 -22 34 -5 26 -26 -25 -17 -4 30 31 -6 -20 -12 35 36 -11 38 -16
right_child=1 2 7 16 6 9 -8 8 -10 10 33 12 17 19 15 27 -18 18 32 -21 21 -23 -24 24 25 -27 -28 -29 -30 -31 -32 -33 -34 -35 -36 -37 -38 -39 -40
leaf_value=-2.2878550988360922 -1.9559895906792177 -1.8677454076827262 -2.0350517202707539 -2.184130790945586 -1.6468236214370886 -1.7296709662381615 -1.3399974606936815 -2.1852393958382317 -1.6016554453990397 -1.5089254844724693 -1.9758676727430413 -1.2775519272507938 -1.7005317853056865 -1.6685741990407112 -1.7806226264056992 -1.4930880706044756 -1.7159574792973851 -0.68511613200423804 -1.5518282076148455 -1.983011360460335 -1.6387036397907111 -1.8843935076383527 -1.1349774582779104 -1.4711359471546426 -1.2056059050663159 -1.5977601987760472 -1.2477640351455357 -1.6499456595124846 -1.9400038251275764 -1.3207940039191766 -2.1618910673894982 -1.4871014727362555 -1.3469006543790885 -1.611793539280949 -1.7237061914635774 -1.3956959547943444 -1.9742341205853895 -2.0020963864641632 -1.6093308806599433
leaf_weight=461092.1785986051 2980.9583527967334 8741.4837341755629 38777.268444187939 258.45399722456932 16311.942178755999 13289.022805541754 17027.760511636734 21236.914695985615 1829.565211571753 7726.4369420707226 1107.2747418656945 14745.46932913363 5088.2861031219363 6526.9342504441738 10312.27134168148 64610.478975623846 2508.384495601058 782.37347323447466 10565.763367339969 3704.9747256562114 30835.740821622312 4027.5028774514794 1977.2378001362085 8749.8975120484829 8541.7104441672564 13547.368933819234 15995.778294838965 7346.0910346359015 32078.822567872703 1897.7383861318231 1093.3596476912498 9147.9339268058538 5303.8082594051957 39409.488343074918 1949.1918738931417 17997.825952805579 964.34838697314262 1293.9958892762661 15582.10088275373
leaf_count=4274559 27635 81038 359485 2396 151220 123196 157856 196877 16961 71628 10265 136698 47171 60508 95600 598972 23254 7253 97950 34347 285863 37337 18330 81116 79186 125591 148289 68102 297387 17593 10136 84806 49169 365346 18070 166849 8940 11996 144454
internal_value=-1.96435 -1.64414 -1.85132 -1.53744 -1.5581 -1.56309 -1.49859 -2.00397 -2.13895 -1.54129 -1.52919 -1.50663 -1.41332 -1.96557 -1.53287 -1.55953 -1.40405 -1.50542 -1.44581 -1.78243 -1.68984 -1.66708 -1.44653 -1.38743 -1.38304 -1.44611 -1.32674 -1.5091 -1.99202 -1.59351 -1.613 -1.58943 -1.48333 -1.62174 -1.46805 -1.44938 -1.56056 -1.69299 -1.67754
internal_weight=0 465872 158375 307497 54220.2 257896 45478.7 104154 23066.5 220051 206762 166246 36485.7 81088 129760 99144.9 49601.6 21740.2 16651.9 10231.9 37844.2 34863.2 30615 47093.2 46834.8 22089.1 24745.7 71956.6 70856.1 28451 26553.2 25459.9 15869.6 40516.8 28637.8 26688.6 8690.79 27188.4 25894.4
internal_count=8593429 4318870 1468214 2850656 502649 2390824 421611 965565 213838 2039989 1916793 1541182 338241 751727 1202941 919124 459832 201543 154372 94855 350835 323200 283817 436578 434182 204777 229405 667074 656872 263755 246162 236026 147119 375611 265487 247417 80568 252050 240054
is_linear=0
shrinkage=1


Tree=1
num_leaves=40
num_cat=0
split_feature=4 6 5 5 3 3 3 2 3 9 9 9 9 9 9 9 0 7 9 3 3 3 3 3 0 3 9 9 9 9 3 9 9 9 9 3 3 3 3
split_gain=588361 70432.4 17831 13886.8 3419.43 9418.76 3406.8 2402.31 1891.46 1397.47 1624.67 3744.33 3105.19 1766.28 1881.7 1468.21 1061.23 1044.35 1020.09 975.24 1170.35 782.404 766.86 1103.47 740.112 668.785 549.387 1147.42 779.697 540.276 528.608 503.268 1576.48 1002.68 482.187 458.237 504.837 421.139 858.37
threshold=1.0000000180025095e-35 1.0000000180025095e-35 1.0000000180025095e-35 1.5000000000000002 27.500000000000004 30.500000000000004 46.500000000000007 1.0000000180025095e-35 10.500000000000002 244.50000000000003 127.50000000000001 128.50000000000003 69.500000000000014 80.500000000000014 84.500000000000014 125.50000000000001 1.0000000180025095e-35 24360.500000000004 255.50000000000003 1.0000000180025095e-35 7.5000000000000009 46.500000000000007 37.500000000000007 41.500000000000007 1.0000000180025095e-35 40.500000000000007 33.500000000000007 34.500000000000007 16.500000000000004 260.50000000000006 11.500000000000002 146.50000000000003 162.50000000000003 141.50000000000003 244.50000000000003 35.500000000000007 34.500000000000007 24.500000000000004 17.500000000000004
decision_type=2 2 2 2 2 2 2 2 2 2 2 2 2 2 2 2 2 2 2 2 2 2 2 2 2 2 2 2 2 2 2 2 2 2 2 2 2 2 2
left_child=1 -1 6 4 16 34 7 -3 19 10 12 -12 26 -14 -15 -16 -4 -5 -11 -9 -21 22 35 25 -19 -24 28 -28 -10 -20 -13 33 -33 -32 -6 36 -7 38 -18
right_child=-2 2 3 17 5 21 -8 8 9 18 11 30 13 14 15 -17 37 24 29 20 -22 -23 23 -25 -26 -27 27 -29 -30 -31 31 32 -34 -35 -36 -37 -38 -39 -40
leaf_value=-0.20748193436481027 -0.32322671867384867 -0.18415396871843961 -0.057039788958627553 0.14412101816832576 0.24637060681933892 -0.014915040161979169 0.096762813487295637 -0.020402527493811655 0.33122663626895277 0.12389362822273169 0.72340182989310797 0.38544936714733347 0.072917330990295209 0.35645037653489853 0.19353460193250357 -0.014091128792406092 0.020546780706126016 0.195890019735591 0.29768453790928978 0.24007887576961551 0.15144520813105555 -0.079336271483986712 0.032718110738336352 -0.0061865223637573505 0.27691516206750411 0.21528524469378324 0.49463688619413804 0.28053408091641197 0.19684163577798408 0.20371560321250304 0.25757789869129877 0.17380018906457792 0.26577293447511596 0.3921881844771577 0.14548209995331388 -0.073777884096831309 0.17673995323974021 -0.10208340146424097 0.19890590983659881
leaf_weight=42134.077077627182 341722.47258630395 1228.527301825583 24210.027898050845 10173.300578303635 20968.879243545234 5017.206426165998 18503.018098525703 2065.9932337477803 5089.3888617455959 13362.485042527318 1526.7365879118443 2888.3024928122759 11664.06088065356 5837.8520513698459 44081.088545918465 3146.9529371783137 17824.527191653848 14900.511128373444 6068.7058307528496 20735.119031317532 33804.895972408354 8581.0520496740937 2737.9011761024594 8623.0882390663028 28025.136395171285 4706.780662484467 2322.3808024153113 30819.113008081913 13898.879414632916 40630.95242767781 15609.366775982082 19203.805948682129 98780.370078496635 6879.3040026202798 5078.8435349464417 8185.0732319504023 1551.8361394554377 1860.4030666947365 2676.7145023867488
leaf_count=503724 3979175 8657 228433 76822 161235 44952 136912 18838 34935 97993 10366 19563 90929 41879 309859 21415 156976 96925 43767 146337 235885 80745 23734 77841 182102 39911 14979 204029 95700 292597 106119 130824 663362 46706 39169 76977 13586 17116 22355
internal_value=0 0.158775 0.186173 0.105033 0.0463947 0.089677 0.219823 0.225821 0.227152 0.235861 0.245132 0.265914 0.219366 0.176401 0.199146 0.179699 -0.0144325 0.228739 0.195454 0.177641 0.185144 -0.00090452 0.0209307 0.0653214 0.248791 0.148151 0.272714 0.295541 0.232866 0.215929 0.261041 0.258482 0.250804 0.29876 0.226702 -0.0274102 0.0303591 0.031695 0.0438376
internal_weight=0 605403 563269 165121 112022 65450.7 398147 379644 378416 321810 261748 144888 116860 64730 53065.9 47228 46571.7 53098.9 60062.1 56606 54540 39402.9 30821.9 16067.8 42925.6 7444.68 52129.8 33141.5 18988.3 46699.7 143361 140473 117984 22488.7 26047.7 14754.1 6569.04 22361.6 20501.2
internal_count=8593429 4614254 4110530 1338879 983030 558150 2771651 2634739 2626082 2225022 1790665 976940 813725 464082 373153 331274 424880 355849 434357 401060 382222 357746 277001 141486 279027 63645 349643 219008 130635 336364 966574 947011 794186 152825 200404 135515 58538 196447 179331
is_linear=0
shrinkage=0.293686


Tree=2
num_leaves=40
num_cat=0
split_feature=4 1 1 1 8 8 1 8 1 1 8 8 1 1 5 8 1 5 7 7 5 0 8 5 5 8 1 1 7 7 1 8 1 1 8 1 8 8 3
split_gain=368526 41858.3 59195.1 14272.9 5172.79 4103.47 5868.92 3899.88 3625.74 3055.12 2802.36 2382.25 1535.15 1431.58 1347.66 1230.63 1066.1 1037.57 1026.07 981.971 902.04 829.034 644.747 643.918 591.464 537.835 491.044 478.037 475.519 450.728 439.29 413.233 412.353 369.642 368.886 361.841 359.324 1265.2 357.927
threshold=1.0000000180025095e-35 59.500000000000007 26.500000000000004 48.500000000000007 27.000000000000004 27.000000000000004 38.500000000000007 150.50000000000003 68.500000000000014 21.500000000000004 153.50000000000003 23.500000000000004 36.500000000000007 54.500000000000007 1.0000000180025095e-35 2.0000000000000004 35.500000000000007 1.5000000000000002 34146.500000000007 2772.0000000000005 1.5000000000000002 1.0000000180025095e-35 24.500000000000004 1.0000000180025095e-35 1.5000000000000002 158.50000000000003 41.500000000000007 74.500000000000014 2772.0000000000005 47349.500000000007 54.500000000000007 153.50000000000003 27.500000000000004 22.500000000000004 161.50000000000003 65.500000000000014 159.50000000000003 161.50000000000003 31.500000000000004
decision_type=2 2 2 2 2 2 2 2 2 2 2 2 2 2 2 2 2 2 2 2 2 2 2 2 2 2 2 2 2 2 2 2 2 2 2 2 2 2 2
left_child=1 2 9 5 13 11 7 16 17 25 28 15 -13 20 -11 -4 29 31 -14 36 22 -16 -5 27 -15 -1 -8 -10 -9 -7 -6 35 -30 -23 -27 -3 -12 -38 -20
right_child=-2 8 3 4 30 6 26 10 23 14 19 12 18 24 21 -17 -18 -19 38 -21 -22 33 -24 -25 -26 34 -28 -29 32 -31 -32 -33 -34 -35 -36 -37 37 -39 -40
leaf_value=-0.11994256625885863 -0.3138483727670478 -0.05393152316449059 -0.19690669769290395 0.03967204953313868 0.053088698668603815 0.34727759522808999 0.1661629170290537 -0.0022779716561023445 -0.15959435780477282 0.10136661644444302 0.2043068055088661 0.3609421124102602 0.20997321115652537 0.071051659429286762 -0.086019894236738226 0.15043142746690288 0.24371417348712149 0.033965610513539329 0.28412068600843526 0.28870298606408595 0.26961826033135727 -0.07720711061143043 0.1723606921476514 -0.084454017303100773 0.18061325845729229 -0.21774123539035087 0.12596579712327771 -0.24768249583838503 0.01292689446991239 0.23848619611731303 0.0039787780451086352 0.020696469103925093 0.13769302396324304 -0.0057129896034184375 0.0042727321826722944 -0.11295728930466953 -0.080931372111185576 0.28421588791970254 0.19699016422033905
leaf_weight=12226.629813030362 261181.0638602674 31891.351212747395 971.1318299472332 3469.4519885107875 44484.151839219034 24031.847600601614 38349.090781971812 4171.6863153278828 17708.649607725441 4998.7915275245905 17094.173304982483 12813.845408663154 31622.264276891947 21001.30379062891 38178.806151211262 9330.3953807875514 20173.994747065008 12208.202431462705 48594.87991784513 13805.678029313684 7859.4327933415771 8224.4009750708938 35347.60188498348 6837.7310660108924 5329.0096951723099 12183.460378363729 82906.036247134209 7596.8541191369295 2905.8841011449695 3809.9056383743882 24290.031812615693 4741.3857379034162 10701.291368998587 25821.71381945163 681.2602297514677 12459.866020187736 1669.1601586937904 1605.2778745219111 4443.3906259015203
leaf_count=106362 3979175 209070 13105 25927 285556 147414 244418 40965 116627 31784 116976 79605 204019 135525 380151 66030 128599 71530 291469 83659 41864 74638 222759 40048 28407 139556 528783 50289 28898 22177 156516 29539 99231 231962 4563 81681 17971 9213 27368
internal_value=0 0.0977192 0.127437 0.171439 0.0935422 0.205009 0.182114 0.234797 -0.0845432 -0.075028 0.179029 0.252001 0.266196 0.147988 -0.0460994 0.117681 0.295137 -0.0426515 0.251854 0.228227 0.178877 -0.0563066 0.160502 -0.164434 0.0932286 -0.164059 0.138679 -0.186042 0.084458 0.332394 0.0357444 -0.0617052 0.111052 -0.022985 -0.205982 -0.0705153 0.187232 0.0980759 0.276823
internal_weight=0 666540 573096 470781 141781 329000 221224 99968.9 93444 102315 51953.2 107776 97474.4 73006.8 77223.7 10301.5 48015.7 61300.8 84660.5 34174.3 46676.5 72224.9 38817.1 32143.2 26330.3 25091.4 121255 25305.5 17778.9 27841.8 68774.2 49092.6 13607.2 34046.1 12864.7 44351.2 20368.6 3274.44 53038.3
internal_count=8593429 4614254 4015470 3046454 896554 2149900 1468304 695103 598784 969016 396913 681596 602461 454482 718535 79135 298190 391820 522856 227819 290550 686751 248686 206964 163932 250481 773201 166916 169094 169591 442072 320290 128129 306600 144119 290751 144160 27184 318837
is_linear=0
shrinkage=0.293686


Tree=3
num_leaves=40
num_cat=0
split_feature=4 6 1 1 1 1 1 8 1 8 8 8 8 1 1 8 8 8 1 1 3 5 3 8 8 8 1 5 5 5 5 8 8 8 1 7 3 3 8
split_gain=245372 27895.3 20545.6 21602.3 4181.43 3183.19 2131.83 1971.46 2486.28 1712.36 1281.83 1250.71 1104.05 825.373 800.51 669.613 608.244 568.843 541.302 490.214 488.201 436.178 414.379 400.912 382.751 375.231 334.359 320.103 312.678 302.648 273.621 266.424 244.155 243.804 242.372 276.956 235.556 320.898 233.605
threshold=1.0000000180025095e-35 1.0000000180025095e-35 57.500000000000007 25.500000000000004 50.500000000000007 65.500000000000014 22.500000000000004 27.000000000000004 39.500000000000007 152.50000000000003 27.000000000000004 150.50000000000003 158.50000000000003 27.500000000000004 70.500000000000014 158.50000000000003 161.50000000000003 27.000000000000004 36.500000000000007 35.500000000000007 42.500000000000007 1.0000000180025095e-35 27.500000000000004 123.00000000000001 24.500000000000004 153.50000000000003 47.500000000000007 1.0000000180025095e-35 1.0000000180025095e-35 1.0000000180025095e-35 1.0000000180025095e-35 25.500000000000004 5.5000000000000009 156.50000000000003 38.500000000000007 38106.500000000007 17.500000000000004 41.500000000000007 161.50000000000003
decision_type=2 2 2 2 2 2 2 2 2 2 2 2 2 2 2 2 2 2 2 2 2 2 2 2 2 2 2 2 2 2 2 2 2 2 2 2 2 2 2
left_child=1 9 3 6 7 17 15 20 11 -1 24 18 -11 -13 -7 -3 -17 21 23 -15 22 -4 -5 -9 32 -21 -10 34 -16 -26 -8 -22 -6 -12 -24 -36 -32 -38 -14
right_child=-2 2 5 4 10 14 30 8 26 12 33 13 38 19 28 16 -18 -19 -20 25 31 -23 27 -25 29 -27 -28 -29 -30 -31 36 -33 -34 -35 35 -37 37 -39 -40
leaf_value=-0.21437533091584393 -0.30677309758606641 -0.070346166634179474 0.008974708349705646 0.13716181853593395 0.1835721226179417 -0.068177025157791671 0.088658100672353773 0.11782376246967524 0.099072675432564872 0.065691640025418815 0.021133439137891567 0.042225243928725058 -0.2092342996830617 0.15269600359000052 -0.1687623619890439 -0.17932984522029513 0.05894944565042206 -0.028934836335246929 0.14432542756345276 -0.033184569473305073 0.034608567430710821 0.09032904184459975 0.21027122346594365 0.21071522770672049 0.094040920979935397 0.10721472344927727 0.06203857420491584 0.21730506165624178 -0.080081265041183958 0.15548966679891382 -0.037828095250301737 0.13348151838736924 -0.021562623615983097 0.097634338830071665 0.14333410728869184 0.18026982855231816 0.027308239380081069 -0.053296938459757991 0.18751574509037824
leaf_weight=30668.228229422122 198509.98532193899 25072.127032019198 24056.450581371784 27560.981907390058 590.33165784925222 24862.190037928522 2837.4813122451305 4537.539562754333 103744.22412404418 3444.6587772294879 38723.999311536551 9955.3557743281126 2442.3213573545218 36797.757671147585 14690.555712938309 9980.0369017645717 1017.9216948002577 28745.646580003202 24669.20702111721 1884.3101854026318 3218.2433927804232 7443.1432209163904 11548.304675035179 34485.641011349857 35238.979894086719 12735.153632551432 26381.551119454205 15079.603217035532 4476.681550770998 8604.3582236766815 13129.162544004619 8731.913814984262 3279.0052661895752 3960.8798284083605 30729.331117831171 40772.833645291626 20419.741646483541 5382.5427053943276 134.82263869047165
leaf_count=419235 3979175 225641 150112 151554 3708 161082 16044 22763 584671 43726 234163 84383 39039 236041 103454 129906 6677 180242 133355 12998 21035 38510 59382 173470 197925 67834 154463 71372 27406 41205 126535 48725 20924 23319 165007 212159 171401 53064 1724
internal_value=0 0.0630358 0.0767832 0.0990317 0.12216 -0.0429284 -0.0445509 0.135265 0.119985 -0.186261 0.0652093 0.149555 -0.0430699 0.119633 -0.102951 -0.096852 -0.157272 0.000937763 0.178386 0.134619 0.163595 0.0281998 0.168989 0.199916 0.0982876 0.0891158 0.0915648 0.177928 -0.148053 0.106102 0.000613776 0.106859 0.00973286 0.0282335 0.170777 0.164397 -0.00580275 0.0104917 -0.18845
internal_weight=0 702033 665343 561069 483230 104275 77839 392832 255191 36690 90397.6 125065 6021.8 61372.6 44029.4 36070.1 10998 60245.2 63692.4 51417.2 137641 31499.6 125691 39023.2 47712.7 14619.5 130126 98130.1 19167.2 43843.3 41768.9 11950.2 3869.34 42684.9 83050.5 71502.2 38931.4 25802.3 2577.14
internal_count=8593429 4614254 4110530 3449724 2720456 660806 729268 2199212 1469978 503724 521244 730844 84489 401256 291942 362224 136583 368864 329588 316873 729234 188622 659474 196233 263762 80832 739134 507920 130860 239130 367044 69760 24632 257482 436548 377166 351000 224465 40763
is_linear=0
shrinkage=0.293686


Tree=4
num_leaves=40
num_cat=0
split_feature=4 6 9 9 9 9 9 9 9 9 9 9 9 9 9 9 9 9 9 9 9 9 9 9 9 9 9 9 9 9 9 9 5 9 9 9 9 9 9
split_gain=169975 15404.8 1774.55 1761.37 3669.34 1233.77 1317.11 1155.8 2156.13 1062.64 1392.62 1049.88 1140.17 959.909 946.459 829.047 815.679 1413.33 746.235 4109.58 1721.26 3375.87 1094.21 1805.87 1676.76 1025.39 2213.43 974.086 748.829 671.693 1024.38 1025.57 661.163 656.923 1021.76 598.809 539.585 510.093 1018.35
threshold=1.0000000180025095e-35 1.0000000180025095e-35 244.50000000000003 117.50000000000001 65.500000000000014 123.50000000000001 122.50000000000001 127.50000000000001 128.50000000000003 80.500000000000014 84.500000000000014 99.500000000000014 116.50000000000001 245.50000000000003 125.50000000000001 115.50000000000001 27.500000000000004 26.500000000000004 201.50000000000003 202.50000000000003 213.50000000000003 207.50000000000003 186.50000000000003 179.50000000000003 169.50000000000003 222.50000000000003 223.50000000000003 162.50000000000003 215.50000000000003 187.50000000000003 189.50000000000003 193.50000000000003 1.0000000180025095e-35 185.50000000000003 183.50000000000003 70.500000000000014 93.500000000000014 63.500000000000007 60.500000000000007
decision_type=2 2 2 2 2 2 2 2 2 2 2 2 2 2 2 2 2 2 2 2 2 2 2 2 2 2 2 2 2 2 2 2 2 2 2 2 2 2 2
left_child=1 -1 3 4 16 6 -5 14 -9 35 -11 36 15 -4 -7 -13 17 -3 22 -20 21 -21 23 24 27 28 -27 -10 -22 -24 -31 -32 -15 34 -25 -6 -12 38 -18
right_child=-2 2 13 5 9 7 -8 8 18 10 11 12 -14 32 -16 -17 37 -19 19 20 25 -23 29 33 -26 26 -28 -29 -30 30 31 -33 -34 -35 -36 -37 -38 -39 -40
leaf_value=-0.15918003752934559 -0.30117552581184787 0.059806536811279842 -0.14112396458294457 0.11001239996355898 0.036182762544781422 0.10659730404790496 0.33063679158870557 0.29692220149523696 0.061166758024792572 0.1096443110873644 0.0014014734585954683 0.036719315303161151 -0.1108045582135183 0.037397495444816471 -0.097464831829861473 0.21912167049990788 0.098632724829426657 -0.15175991333935115 0.41345275247449392 0.011373036353714889 0.080199635763850835 0.21379572986073012 -0.076838790320446396 0.1786465145708615 -0.016780617321276219 0.31214437198015427 0.063197113812867217 0.13797909642683892 -0.029609859023308621 0.13924433391591604 -0.064239407587868572 0.04596686221988884 -0.010093175978692772 0.27309389201617218 -0.010959923694003918 -0.064185417619076257 -0.077429541682839234 0.16935690740239212 -0.031440114152588718
leaf_weight=31345.914775636047 150360.99664388224 25720.839248210192 3093.4289822615683 10459.618072412908 6497.7478478178382 2839.5965769663453 3004.5891864858568 3617.9462318606675 90199.496715463698 12864.563617132604 15030.988209236413 42349.593772504479 4394.526401873678 92673.585945799947 6329.6745457500219 2264.0544649623334 61294.279289700091 3045.6644539535046 3243.039773453027 11375.0393483527 7894.1316986456513 18936.729635674506 5655.2930559441447 9697.5660147368908 21382.537145957351 3268.2555061988533 53586.687340307981 16910.459009572864 16660.108625944704 6372.277640093118 10698.028188489377 22814.266094673425 34769.956749580801 3563.8291996866465 3280.1084345541894 24293.616123661399 14923.846749681979 7304.2924001589417 5671.2650750055909
leaf_count=503393 3979528 152042 21750 62774 41543 17390 17560 18524 530655 73656 93074 257556 26597 528964 40870 13207 345039 21259 17692 63727 43420 101147 32794 55746 128195 16554 311121 100033 103434 37686 67178 134458 261903 21538 19789 164546 93045 38739 34458
internal_value=0 0.0421659 0.0513398 0.0585576 0.0385394 0.0721721 0.159253 0.0684886 0.0715364 0.00420931 0.0200412 0.00544243 0.031918 0.0205165 -0.0342646 0.0459777 0.0793936 0.0374046 0.0688672 0.0875548 0.0780936 0.137835 0.0575935 0.0700635 0.0583047 0.0558489 0.0775094 0.0732944 0.00569252 0.0178787 0.03131 0.0107848 0.0244405 0.1614 0.130721 -0.0430039 -0.0378721 0.0956563 0.0876163
internal_weight=0 719327 687982 557445 225655 331789 13464.2 318325 309156 122619 91827.6 78963 49008.2 130537 9169.27 44613.6 103036 28766.5 305538 114964 111721 30311.8 190574 145034 128492 81409.2 56854.9 107110 24554.2 45539.9 39884.6 33512.3 127444 16541.5 12977.7 30791.4 29954.8 74269.8 66965.5
internal_count=8592584 4613056 4109663 3297046 1354761 1942285 80334 1861951 1803691 763224 557135 483479 297360 812617 58260 270763 591537 173301 1785167 657095 639403 164874 1128072 855956 758883 474529 327675 630688 146854 272116 239322 201636 790867 97073 75535 206089 186119 418236 379497
is_linear=0
shrinkage=0.293686


Tree=5
num_leaves=40
num_cat=0
split_feature=4 1 1 1 1 1 3 8 1 8 8 8 5 8 5 0 3 1 1 5 3 1 8 8 5 5 3 3 3 3 3 8 5 8 8 8 8 8 1
split_gain=120421 9761.09 10313.7 2578.3 1223.96 1125.85 759.435 668.796 1063.26 695.652 701.724 585.247 441.039 405.59 439.566 402.703 391.381 390.399 372.119 357.737 343.568 326.713 303.514 537.736 324.977 304.476 303.246 281.375 271.675 358.566 345.208 246.463 242.397 229.514 1392.65 213.821 560.524 198.558 196.751
threshold=1.0000000180025095e-35 60.500000000000007 25.500000000000004 50.500000000000007 21.500000000000004 70.500000000000014 1.5000000000000002 46.000000000000007 40.500000000000007 150.50000000000003 153.50000000000003 27.000000000000004 1.0000000180025095e-35 2.0000000000000004 1.0000000180025095e-35 1.0000000180025095e-35 41.500000000000007 34.500000000000007 27.500000000000004 1.5000000000000002 27.500000000000004 20.500000000000004 153.50000000000003 150.50000000000003 1.0000000180025095e-35 1.5000000000000002 42.500000000000007 46.500000000000007 17.500000000000004 14.500000000000002 30.500000000000004 153.50000000000003 1.0000000180025095e-35 159.50000000000003 161.50000000000003 161.50000000000003 158.50000000000003 27.000000000000004 74.500000000000014
decision_type=2 2 2 2 2 2 2 2 2 2 2 2 2 2 2 2 2 2 2 2 2 2 2 2 2 2 2 2 2 2 2 2 2 2 2 2 2 2 2
left_child=1 2 4 6 21 12 -4 13 9 17 27 16 31 -8 26 -6 20 -9 -16 33 -5 -1 23 24 -13 -24 -15 28 29 -11 -30 37 38 -12 -35 36 -10 -3 -7
right_child=-2 5 3 11 15 32 7 8 35 10 19 22 -14 14 18 -17 -18 -19 -20 -21 -22 -23 25 -25 -26 -27 -28 -29 30 -31 -32 -33 -34 34 -36 -37 -38 -39 -40
leaf_value=-0.17764750079520439 -0.29635673815890101 -0.051790880959819978 -0.069736612637434331 0.0053202287508689839 -0.057648311024339663 -0.12154101033009705 -0.13897326928903039 0.12006461933259821 0.037140608086846369 0.016859213758114902 0.086576613525134405 -0.019442179263336256 -0.0021203900366554632 0.080874985618161227 -0.038626494536767204 -0.01144159981603241 -0.033454685576682353 0.077550118525733985 0.13041625049836877 -0.096430074591975806 0.056324598844034082 -0.094508825901698623 0.054519660492388829 -0.20221598941640578 0.051231146813881606 -0.095250763000256089 0.032277410881668508 -0.10416760119900907 0.085294051300029219 -0.12326261985586311 -0.001113729851643301 0.0027069163991425668 -0.071962791047602753 -0.12179073868764823 0.13003997674857828 0.12077369371618535 -0.26590850710165548 -0.091977714132618085 -0.19199035758420527
leaf_weight=5649.6561306789517 113643.73085275292 24011.235939782113 3560.3993359953165 15185.946441408247 33281.012401737273 8131.5602021552622 714.43064722791314 29211.971398290247 121375.83465363085 5486.0593941397965 40512.042311489582 38759.830039594322 13255.263158131391 122566.33187269792 1186.9064059630036 31829.131449565291 6274.3015168458223 51460.504844598472 20787.411595322192 1040.1085057780147 45603.336124911904 14664.528519570827 10610.078807987273 1280.0479866191745 6561.5303625427186 1315.6058351397514 12178.055902455002 1630.2411054000258 8304.3415480107069 2209.1490608528256 7670.3332359045744 4496.5825813785195 4369.162761092186 3100.3234706446528 4866.9976714029908 2610.6787880659103 528.47683691605926 19004.070849962533 5909.4782544746995
leaf_count=76875 3979528 164985 26286 88302 357260 65115 14184 138547 682234 50495 214219 240946 76572 625230 6414 290636 38656 267880 92904 6659 244410 173463 61640 10111 39019 9857 70448 16461 65712 21509 68077 28027 27412 29967 23085 12750 3878 132657 50174
internal_value=0 0.0286044 0.0404291 0.0547713 -0.0546977 -0.0687696 0.0653437 0.0664433 0.0578321 0.0740272 0.0536281 0.0176468 -0.0494923 0.0817586 0.0827652 -0.0350608 0.0363756 0.0929456 0.121284 0.0739579 0.0435837 -0.117634 -0.00381303 -0.0145124 -0.00920924 0.0379929 0.0764831 0.0138352 0.0219649 -0.0233646 0.0438031 -0.0627076 -0.132395 0.0776147 0.0320398 0.0376077 0.0358261 -0.0695466 -0.151196
internal_weight=0 731193 652016 566591 85424.3 79177.4 441001 437440 280007 155492 74819.6 125591 60767.2 157433 156719 65110.1 67063.6 80672.5 21974.3 49519.5 60789.3 20314.2 58527.1 46601.4 45321.4 11925.7 134744 25300.1 23669.9 7695.21 15974.7 47511.9 18410.2 48479.4 7967.32 124515 121904 43015.3 14041
internal_count=8592584 4613056 4068114 3169880 898234 544942 2436939 2410653 1601473 902611 496184 732941 402241 809180 794996 647896 371368 406427 99318 273930 332712 250338 361573 290076 279965 71497 695678 222254 205793 72004 133789 325669 142701 267271 53052 698862 686112 297642 115289
is_linear=0
shrinkage=0.293686


Tree=6
num_leaves=40
num_cat=0
split_feature=4 6 1 1 8 1 1 1 8 1 8 1 1 8 8 8 1 5 8 7 7 7 7 7 8 8 8 8 1 8 5 5 5 8 8 8 6 8 8
split_gain=86508.7 7659.18 5298.05 4409.74 1502.78 1382.3 636.264 864.364 560.492 549.886 521.447 497.539 338.975 307.313 263.296 638.335 382.238 331.631 311.858 260.182 214.081 207.454 339.889 207.268 192.591 262.826 183.44 224.225 176.628 168.075 165.381 194.17 164.552 152.125 200.203 158.43 150.411 148.687 227.243
threshold=1.0000000180025095e-35 1.0000000180025095e-35 62.500000000000007 23.500000000000004 152.50000000000003 51.500000000000007 27.500000000000004 33.500000000000007 46.000000000000007 74.500000000000014 158.50000000000003 20.500000000000004 45.500000000000007 27.000000000000004 150.50000000000003 153.50000000000003 39.500000000000007 1.5000000000000002 89.500000000000014 50320.500000000007 51335.500000000007 2772.0000000000005 31612.500000000004 37361.500000000007 106.50000000000001 150.50000000000003 24.500000000000004 7.5000000000000009 22.500000000000004 27.000000000000004 1.0000000180025095e-35 1.5000000000000002 1.0000000180025095e-35 161.50000000000003 159.50000000000003 153.50000000000003 1.0000000180025095e-35 24.500000000000004 5.5000000000000009
decision_type=2 2 2 2 2 2 2 2 2 2 2 2 2 2 2 2 2 2 2 2 2 2 2 2 2 2 2 2 2 2 2 2 2 2 2 2 2 2 2
left_child=1 4 3 11 -1 6 -5 21 26 20 -6 -3 14 19 18 16 -16 -17 -10 37 -4 -8 -23 -15 -13 -26 27 -9 33 -22 -28 -32 -20 34 35 -27 -2 38 -7
right_child=36 2 9 5 10 13 7 8 12 -11 -12 24 -14 23 15 17 -18 -19 32 -21 29 22 -24 -25 25 28 30 -29 -30 -31 31 -33 -34 -35 -36 -37 -38 -39 -40
leaf_value=-0.16605683655333639 -0.29564583696024788 -0.14572577907792941 -0.056584326792564289 0.011692748074970144 0.079367866241465398 0.11132759639463775 0.058608096913503063 0.095912548924629026 -0.034744435519746909 -0.13662665797954754 -0.1186520412290091 -0.11220912756769981 0.01640408007915739 0.010593374811291995 -0.020887326716197578 0.042236874377017224 -0.19181448520620722 -0.091874552928950692 0.049705755082875135 0.065909162079870118 0.027548332716915907 0.12673541997802568 0.072509951317536667 -0.025945771614348401 0.036348920047943566 -0.059880125591440604 0.057852835462236345 0.0063465762107084642 -0.016286773154042974 -0.056089332131071049 0.30108254863513312 0.084069512216733464 0.09750489143280236 0.06177167643701973 -0.11722001508313933 0.023710663446977118 -0.25162305412031111 0.022191048615374416 -0.057353025453152781
leaf_weight=22186.973525892943 78486.373790787533 4447.707988794893 43786.837115898728 40008.618554890156 3325.5988705381751 819.63283722102642 20968.933609575033 3098.1626587733626 3646.9882866293192 6869.1537764072418 1750.5262692831457 3183.440717831254 58909.227658465505 33701.058829255402 3843.6804109737277 36623.246248662472 1597.5892746448517 1662.1686125248671 106018.32853373885 11465.779176287353 5170.6102767661214 16760.697773493826 24625.684524334967 22216.391261816025 3799.1862362027168 16571.311429254711 127973.82361932099 10868.931068502367 12448.394625984132 3458.0288295522332 363.37198425829411 16589.833934381604 6600.5820231959224 863.51932573318481 4801.9820375628769 2216.5021638348699 7342.4971769955009 48722.368546627462 4308.2348503693938
leaf_count=418867 3771197 65042 297446 328291 43719 4676 113510 17223 18421 57426 40807 20586 316437 203671 24856 176979 9740 11101 524129 58252 32295 85976 120367 130603 21987 178997 604714 59153 118566 23437 1615 70880 33535 5555 74684 15886 208331 256485 27142
internal_value=0 0.0196769 0.0255508 0.0332195 -0.133076 0.0400785 0.0471535 0.0503767 0.0450891 -0.0584932 0.0110704 -0.0521266 0.035451 0.0120569 0.0424638 0.023035 -0.0710849 0.036413 0.0497705 0.0257382 -0.0482524 0.0824122 0.0944717 -0.00392326 -0.0426388 -0.0371958 0.0583668 0.0262178 -0.0447687 -0.00596671 0.0614648 0.0887268 0.0525078 -0.0592662 -0.0636989 -0.0500163 -0.291881 0.0171841 -0.0303806
internal_weight=0 736273 709010 649725 27263.1 601393 480160 440151 377796 59284.6 5076.13 48332 218902 121233 159993 43726.7 5441.27 38285.4 116266 65316 52415.5 62355.3 41386.4 55917.5 43884.3 40700.9 158894 13967.1 36901.7 8628.64 144927 16953.2 112619 24453.3 23589.8 18787.8 85828.9 53850.2 5127.87
internal_count=8592584 4613056 4109663 3699059 503393 3197756 2516927 2188636 1868783 410604 84526 501303 1115198 680829 798761 222676 34596 188080 576085 346555 353178 319853 206343 334274 436261 415675 753585 76376 393688 55732 677209 72495 557664 275122 269567 194883 3979528 288303 31818
is_linear=0
shrinkage=0.293686


Tree=7
num_leaves=40
num_cat=0
split_feature=4 6 1 1 1 9 9 9 9 9 9 9 9 9 1 9 9 9 9 9 9 9 9 9 9 9 9 9 9 9 9 9 9 9 9 9 9 9 9
split_gain=62585.9 4368.83 2694.71 2389.19 701.137 544.184 700.906 1221.91 454.228 422.003 1453.59 631.091 504.512 480.117 397.851 389.134 1128.97 565.432 936.901 599.77 496.706 830.676 430.55 444.824 767.646 506.491 417.426 339.376 336.661 806.565 677.465 470.904 426.353 754.347 367.188 456.636 559.251 338.835 315.021
threshold=1.0000000180025095e-35 1.0000000180025095e-35 57.500000000000007 24.500000000000004 67.500000000000014 244.50000000000003 117.50000000000001 65.500000000000014 255.50000000000003 289.50000000000006 287.50000000000006 292.50000000000006 282.50000000000006 281.50000000000006 21.500000000000004 144.50000000000003 143.50000000000003 197.50000000000003 213.50000000000003 239.50000000000003 207.50000000000003 204.50000000000003 194.50000000000003 193.50000000000003 192.50000000000003 191.50000000000003 198.50000000000003 240.50000000000003 103.50000000000001 102.50000000000001 106.50000000000001 99.500000000000014 89.500000000000014 80.500000000000014 116.50000000000001 113.50000000000001 114.50000000000001 112.50000000000001 266.50000000000006
decision_type=2 2 2 2 2 2 2 2 2 2 2 2 2 2 2 2 2 2 2 2 2 2 2 2 2 2 2 2 2 2 2 2 2 2 2 2 2 2 2
left_child=1 -1 3 14 -4 6 7 -5 -7 10 12 -11 13 38 -3 16 -8 22 20 -20 21 26 23 24 25 -17 -19 -21 29 31 -30 32 33 -9 35 37 -37 -32 -10
right_child=-2 2 4 5 -6 8 15 28 9 11 -12 -13 -14 -15 -16 17 -18 18 19 27 -22 -23 -24 -25 -26 -27 -28 -29 30 -31 34 -33 -34 -35 -36 36 -38 -39 -40
leaf_value=-0.10903095782754059 -0.28737698113172117 -0.069916493727445017 -0.011716471142377196 0.047210522873163248 -0.066571636578282453 -0.025223936921385522 0.056604105494727983 -0.030900595334834264 0.050129152708648733 -0.099877836362575939 0.19330630020656411 0.018505854421948468 -0.045604722771043917 0.12306701547621299 -0.01597963931630958 0.027153924738607307 0.23693277967854601 0.21360874895417079 0.019499564767662472 0.17115941165554563 0.13106919030804356 -0.039828818966697814 -0.046262771713087666 0.12460638507333902 -0.12673948854464606 0.18987439035083595 0.075994234601718572 0.063114477674647965 0.11908813752577299 -0.1661654772349383 0.0067726830587251912 0.069263729212422812 -0.051900273140193846 0.051387724624365479 -0.087558032758284082 0.16382437937172545 0.0092072695361159716 -0.11429293292058659 0.0012242106463072752
leaf_weight=24254.009317684919 64848.256017277017 15906.354114722461 71310.832418449223 84470.604280143976 27984.645996563137 22278.46984692663 52996.586828440428 23582.601739518344 20590.689854308963 5543.7656487599015 4554.0225117653608 12969.987263441086 8388.5550485029817 4559.3824465423822 45650.774636376649 95061.314789935946 3173.7772076129913 2279.4448128715158 51168.765248514712 3227.7673057243228 16444.906369291246 5112.9377813860774 6898.7464356273413 4075.3288437575102 2772.7860410511494 1678.9048608094454 11467.876561164856 11247.626702137291 5391.2068811431527 2827.6997320130467 10073.010895855725 6464.4715034738183 17945.178380846977 16215.111853070557 3269.3541513234377 3370.8136101812124 5027.371199965477 2485.697896502912 25346.500067830086
leaf_count=503393 3979528 212934 440965 411332 219560 123198 262944 139643 107181 29667 23536 68496 44185 23861 422555 476607 15139 10734 258839 15006 73299 25038 36042 20914 15284 9203 53538 53872 27666 16564 51601 33525 98971 81131 17901 16882 24779 12858 134213
internal_value=0 0.0135477 0.0177128 0.0249663 -0.0271769 0.0310762 0.0355165 0.0214076 0.0119594 0.022068 0.033453 -0.0169417 0.0210891 0.0321693 -0.0299177 0.0450657 0.0667947 0.0392929 0.0551818 0.0344317 0.0937619 0.0612292 0.0247752 0.0295066 0.0256113 0.0299787 0.0988177 0.0872114 -0.00114285 -0.0126644 0.0249331 -0.00590304 -0.014319 0.00262598 0.0039779 0.0182604 0.0712735 -0.017188 0.0231461
internal_weight=0 738068 713814 614518 99295.5 552961 448730 181123 104231 81952.9 63439.1 18513.8 58885.1 50496.6 61557.1 267607 56170.4 211436 100949 65644.2 35305.2 18860.3 110487 103588 99513 96740.2 13747.3 14475.4 96652.5 67035.1 29617.5 64207.4 57742.9 39797.7 24226.2 20956.9 8398.18 12558.7 45937.2
internal_count=8592584 4613056 4109663 3449138 660525 2813649 2259312 932853 554337 431139 332976 98163 309440 265255 635489 1326459 278083 1048376 490326 327717 162609 89310 558050 522008 501094 485810 64272 68878 521521 369834 151687 353270 319745 220774 124021 106120 41661 64459 241394
is_linear=0
shrinkage=0.293686


Tree=8
num_leaves=40
num_cat=0
split_feature=4 1 1 3 3 3 3 7 3 1 8 3 3 1 1 7 7 3 3 8 8 3 3 3 3 1 3 3 3 7 7 0 1 3 3 1 8 7 8
split_gain=45409.2 1457.54 1440.15 626.041 815.388 540.981 733.959 494.561 370.696 399.666 449.97 314.464 391.731 349.56 309.659 309.35 296.393 288.156 381.425 288.091 320.331 260.423 1138.02 224.881 241.483 223.098 211.483 374.429 199.29 174.676 173.891 177.492 158.242 155.027 139.731 137.105 128.654 127.383 113.746
threshold=1.0000000180025095e-35 62.500000000000007 23.500000000000004 41.500000000000007 40.500000000000007 27.500000000000004 24.500000000000004 37472.500000000007 35.500000000000007 36.500000000000007 44.500000000000007 2.5000000000000004 6.5000000000000009 35.500000000000007 74.500000000000014 51335.500000000007 43790.500000000007 28.500000000000004 29.500000000000004 158.50000000000003 161.50000000000003 10.500000000000002 11.500000000000002 44.500000000000007 46.500000000000007 49.500000000000007 34.500000000000007 30.500000000000004 30.500000000000004 34146.500000000007 43000.500000000007 1.0000000180025095e-35 41.500000000000007 34.500000000000007 34.500000000000007 27.500000000000004 123.00000000000001 49418.500000000007 25.500000000000004
decision_type=2 2 2 2 2 2 2 2 2 2 2 2 2 2 2 2 2 2 2 2 2 2 2 2 2 2 2 2 2 2 2 2 2 2 2 2 2 2 2
left_child=1 2 19 4 5 6 7 11 9 15 26 -4 13 -13 37 28 36 25 -19 30 -21 35 -23 -5 32 -12 27 29 38 -11 31 -1 -25 -20 -30 -14 -6 -3 -7
right_child=-2 14 3 23 16 8 -8 -9 -10 10 17 12 21 -15 -16 -17 -18 18 33 20 -22 22 -24 24 -26 -27 -28 -29 34 -31 -32 -33 -34 -35 -36 -37 -38 -39 -40
leaf_value=-0.036679297325115566 -0.2823601836835678 -0.035630703770428915 -0.03725067663348635 -0.069984204631091215 0.053564939687266402 -0.061853533043858683 -0.082888974783748057 -0.023061434765061825 -0.0068382929576279927 0.014805158787393441 0.011673815837255706 0.1087630125407902 -0.069497416624083139 0.029422838615924519 -0.098378458751091413 -0.01195503750037988 -0.015445166749330115 0.10062830001522316 -0.001038105886870548 -0.10143342096310433 0.060871198929870682 0.11812938618668083 0.0073998216370605857 0.033483274648039886 -0.025134160684589239 -0.017670326515346373 0.11581476432337696 -0.051166832460537333 -0.010725155883707637 0.040062627507920466 -0.067875280824780351 0.0067469656005407748 -0.0071386469516227747 0.065369667833814191 0.067497657811225201 -0.0021732105997197397 0.09989911860438612 0.00096716600051360532 0.063572840546554113
leaf_weight=16634.471077047288 49059.088771305978 40566.063283460215 8686.1688036173582 4990.1538696885109 8105.5352065283805 631.35829523578286 8000.1635535992682 34283.948125502095 30893.432018918917 30347.892405742779 78258.771363116801 7317.2842210866511 2842.8060420062393 13870.918978672475 6077.0058541223407 6741.4209963586181 2980.0190014187247 6371.7277844771743 12017.528287077323 8384.1694647241384 1198.3395523242652 9421.0574795398861 53278.178911643103 15500.365654727444 28223.552991036326 31277.764828454703 2626.734079727903 4550.1097837537527 6122.8093075565994 106562.90103214979 6570.9407167397439 15852.75281913206 17731.652307854965 4054.4630225710571 2903.1622309666127 31716.163858417422 14291.975775530562 10279.523668583483 48100.446851167828
leaf_count=201975 3978568 312320 64027 30171 42112 5083 55497 203851 194364 157651 404733 48625 30557 74981 62706 35243 16335 35170 68098 167142 8137 53114 326938 92482 193590 189115 13823 24162 44190 507767 62077 161655 99087 22221 17410 179646 82722 72305 252342
internal_value=0 0.00942579 0.0131976 0.0169414 0.020106 0.0176919 0.00393844 0.00824214 0.0239645 0.0267588 0.0218955 0.0166841 0.0206397 0.0568253 -0.0357208 0.0475735 0.071556 0.00950643 0.0398225 -0.0354991 -0.0811317 0.0127561 0.0240387 -0.0100267 -0.0051574 0.00329435 0.0332433 0.0317096 0.0545222 0.0344643 -0.0243023 -0.0154876 0.0118076 0.0157128 0.0144317 -0.00771273 0.0831334 -0.028231 0.0619468
internal_weight=0 738264 681341 632700 566255 540877 169417 161417 371461 340567 276068 127133 118446 21188.2 56922.6 64499.2 25377.5 131980 22443.7 48640.7 9582.51 97258.2 62699.2 66445.7 61455.6 109537 144088 141461 57757.8 136911 39058.2 32487.2 33232 16072 9025.97 34559 22397.5 50845.6 48731.8
internal_count=8591992 4613424 4166093 3565107 3149777 3008608 1037236 981739 1971372 1777008 1422740 777888 713861 123606 447331 354268 141169 719337 125489 600986 175279 590255 380052 415330 385159 593848 703403 689580 319025 665418 425707 363630 191569 90319 61600 210203 124834 384625 257425
is_linear=0
shrinkage=0.293686


Tree=9
num_leaves=40
num_cat=0
split_feature=6 8 8 1 1 1 8 1 1 1 9 8 3 3 7 7 9 9 8 3 7 3 3 8 3 3 3 3 8 8 8 8 8 8 7 8 8 8 8
split_gain=28027.7 1962.28 1398.93 884.846 801.882 380.047 342.538 332.823 291.501 281.911 228.637 214.048 204.753 223.33 196.772 257.449 195.745 182.138 180.63 175.326 166.319 167.087 162.249 174.06 161.104 441.457 350.971 485.327 155.528 148.512 146.785 315.922 152.645 217.989 172.285 143.043 338.056 139.07 131.795
threshold=1.0000000180025095e-35 153.50000000000003 158.50000000000003 54.500000000000007 27.500000000000004 38.500000000000007 150.50000000000003 39.500000000000007 70.500000000000014 20.500000000000004 244.50000000000003 161.50000000000003 27.500000000000004 42.500000000000007 2772.0000000000005 39721.500000000007 239.50000000000003 255.50000000000003 123.00000000000001 49.500000000000007 43000.500000000007 8.5000000000000018 40.500000000000007 46.000000000000007 2.5000000000000004 6.5000000000000009 9.5000000000000018 11.500000000000002 155.50000000000003 156.50000000000003 5.5000000000000009 24.500000000000004 27.000000000000004 120.50000000000001 49169.500000000007 153.50000000000003 150.50000000000003 154.50000000000003 3.5000000000000004
decision_type=2 2 2 2 2 2 2 2 2 2 2 2 2 2 2 2 2 2 2 2 2 2 2 2 2 2 2 2 2 2 2 2 2 2 2 2 2 2 2
left_child=1 6 29 4 9 14 7 -1 30 -2 16 -4 -7 22 28 -16 19 -12 38 20 24 -22 23 -14 -11 -26 -27 -28 37 -3 -5 -32 34 -34 -33 36 -35 -6 -10
right_child=3 2 11 8 5 12 -8 -9 18 10 17 -13 13 -15 15 -17 -18 -19 -20 -21 21 -23 -24 -25 25 26 27 -29 -30 -31 31 32 33 35 -36 -37 -38 -39 -40
leaf_value=-0.1322141335865793 -0.09348851993346767 0.026754439959379695 -0.21447542545243084 0.10265451876114325 0.028473852258971668 1.993694320173411e-05 -0.25006013410702477 -0.22029361657286631 0.27949332923836173 -0.091397750692411725 -0.1013863283411981 0.12817762285480311 0.025718520679200454 -0.0057229915680800528 0.046558532391610792 0.013835995629069999 0.099705353739926408 -0.024638007654788008 -0.10679099409643948 -0.11084614772749796 -0.11659269801110678 -0.018765959102621819 0.050576551963003438 0.009380084214669274 0.11139989749575308 -0.080341005188672446 0.14902972098289063 0.0012172502386042885 -0.0040151047615546807 0.16050238500065636 -0.078174568350088819 -0.0040331061826527634 -0.07791360497773353 -0.015549057013198732 0.034790346053226909 0.018141440021800556 -0.19452786476014775 0.21433316486832116 -0.036143671952146371
leaf_weight=4786.7894886955619 3584.6785763828084 2719.1836977694184 3285.8499852037057 1016.796110923402 20588.158617472276 84080.748619876802 27589.800988508388 16357.093957306817 115.14431840181351 1468.5271927192807 3380.4109460925683 164.8725629998371 116890.23274732754 33872.495633541606 74311.282834536396 28770.407535895705 1600.7733950540423 12647.753716786392 3894.082120610401 1303.796548246406 1840.2807400906458 8292.4824937731028 13878.248386099935 108408.12430103961 3286.2837015418336 4259.0599279170856 2006.931583063677 42168.136854257435 21334.657026654109 972.35748963523656 5489.7727135615423 44344.302408786491 4658.5945008229464 37514.203190633096 12676.62720361352 10958.621573546901 932.70158056169748 353.0627217553556 10304.137580825947
leaf_count=275488 74053 68617 268995 6328 109874 441659 2499385 1133290 1119 17054 37342 6569 539044 187151 356738 132943 15482 134981 38619 16361 21368 67050 68636 560261 34013 48315 20773 422737 116246 21864 40149 272193 33094 253858 70456 69469 8145 1731 100542
internal_value=0 -0.207427 -0.0636548 0.00849013 0.0133643 0.0178457 -0.228497 -0.200356 -0.0132497 -0.0128684 -0.0093543 -0.198086 0.0126927 0.0165949 0.0305059 0.037426 -0.00173633 -0.040828 -0.052822 -0.00424993 -0.00205416 -0.0365387 0.0197558 0.017857 0.00451474 0.00723912 0.000170525 0.00793409 0.0136315 0.0620011 -0.00843252 -0.00940195 -0.00600276 -0.0171833 0.00459739 -0.0114558 -0.019893 0.0316113 -0.0326464
internal_weight=0 55875.9 7142.26 720232 588327 502487 48733.7 21143.9 131905 85839.1 82254.4 3450.72 357130 273049 145358 103082 66226.3 16028.2 14313.4 64625.5 63321.7 10132.8 239177 225298 53188.9 51720.4 48434.1 44175.1 42275.9 3691.54 117592 116575 111085 54064.1 57020.9 49405.5 38446.9 20941.2 10419.3
internal_count=8591992 4274208 366045 4317784 3423812 2514283 3908163 1408778 893972 909529 835476 275564 1796751 1355092 717532 489681 663153 172323 140280 647671 631310 88418 1167941 1099305 542892 525838 491825 443510 227851 90481 753692 747364 707215 364566 342649 331472 262003 111605 101661
is_linear=0
shrinkage=0.293686


Tree=10
num_leaves=40
num_cat=0
split_feature=4 1 9 9 9 9 9 9 9 9 9 9 9 9 9 9 9 9 9 9 9 9 9 9 9 9 9 9 9 9 9 9 9 8 9 9 9 9 9
split_gain=25993.6 484.281 437.469 497.52 1092.43 552.414 434.516 416.449 596.667 769.079 426.191 672.57 524.734 470.182 483.091 543.63 459.898 1727.13 1425.64 534.006 1024.2 446.585 425.951 405.22 362.004 538.1 400.272 393.599 358.847 1442.03 451.311 356.435 1029.7 348.688 331.647 728.577 436.6 326.753 304.503
threshold=1.0000000180025095e-35 65.500000000000014 244.50000000000003 117.50000000000001 70.500000000000014 80.500000000000014 245.50000000000003 123.50000000000001 126.50000000000001 125.50000000000001 144.50000000000003 141.50000000000003 138.50000000000003 133.50000000000003 128.50000000000003 127.50000000000001 162.50000000000003 158.50000000000003 164.50000000000003 147.50000000000003 146.50000000000003 149.50000000000003 122.50000000000001 84.500000000000014 104.50000000000001 106.50000000000001 102.50000000000001 99.500000000000014 201.50000000000003 202.50000000000003 215.50000000000003 186.50000000000003 179.50000000000003 150.50000000000003 33.500000000000007 34.500000000000007 16.500000000000004 187.50000000000003 116.50000000000001
decision_type=2 2 2 2 2 2 2 2 2 2 2 2 2 2 2 2 2 2 2 2 2 2 2 2 2 2 2 2 2 2 2 2 2 2 2 2 2 2 2
left_child=1 2 3 4 34 33 -4 22 9 -9 11 12 13 14 15 -10 17 19 -18 20 -12 -21 -5 -7 26 -26 27 -25 31 -30 -31 32 -20 -6 36 -36 -1 -33 -27
right_child=-2 -3 6 7 5 23 -8 8 10 -11 16 -13 -14 -15 -16 -17 18 -19 28 21 -22 -23 -24 24 25 38 -28 -29 29 30 -32 37 -34 -35 35 -37 -38 -39 -40
leaf_value=0.048144887401920633 -0.2716656255048448 -0.027726788678434835 -0.12233992292560465 0.038313690762325332 -0.037162074650188413 0.037054948080312247 -0.0056705522720448499 0.035926588709666113 -0.01755709316916455 -0.16545493087914898 0.023406333386243653 0.1174235250459401 -0.054343279193094896 0.088964873981778173 -0.006648978945871604 0.1576557343043648 0.1902383258341184 -0.11178883485842867 -0.010783158414069736 0.11743262970866063 -0.17676581914107958 0.021254169210766404 0.15647772275674482 -0.041842795621392051 0.086442296280059117 -0.00047847575747978074 -0.1145081595178644 0.031062943778702525 0.2070958882752332 0.04566206273863322 0.0068551937587324266 -0.084282272616084744 0.076378494749065412 -0.11585884331897101 0.143891012697238 0.02475357400634642 -0.019485648616105761 -0.0077708432205132903 -0.08761150886823868
leaf_weight=11438.381935700774 30414.259552389383 36217.044150020927 2813.3725291658193 11076.709981694818 16437.242502925918 13560.129455849528 128647.19781489298 3051.650251140818 2554.0376647152007 3524.158189965412 7093.3483982309699 8499.2095055393875 5901.538178499788 11569.615349059924 18533.2135802228 3797.8171882722527 4087.1112116165459 11642.661619838327 34711.903277434409 5172.7208183668554 3198.5113190002739 21359.379776377231 3451.4407742023468 29243.332003513351 5703.2773939687759 26559.972498422489 4985.5539854746312 8170.9752673581243 3676.7254621870816 39461.736843848601 74931.006077105179 5468.8731160629541 17625.836031137034 6893.7812176216394 4740.4487285111099 67032.659904520959 29379.038378601894 40225.634629622102 3977.2985714953393
leaf_count=66832 3978568 317662 22932 65506 108852 75797 833723 18680 16893 25505 40728 46133 35815 67532 107264 18788 23594 72344 214319 30808 21092 129575 18086 199218 34808 161376 36499 49040 18313 213620 451519 34674 101772 65448 23003 386740 180650 250698 27586
internal_value=0 0.00538785 0.00710073 0.0106301 1.58628e-05 -0.0200469 -0.00816785 0.0177386 0.0155709 -0.0719956 0.0173733 0.0420266 0.0268961 0.0400489 0.0173047 0.0871998 0.0127063 -0.0131927 0.0184072 0.01798 -0.0388021 0.0400074 0.0663902 -0.00983078 -0.0179159 0.00363581 -0.0363377 -0.0259197 0.0151571 0.026062 0.0202427 0.00202278 0.0185698 -0.0604176 0.0206031 0.0326232 -0.000532293 -0.0169291 -0.0118288
internal_weight=0 736415 700198 568737 228122 115532 131461 340615 326087 6575.81 319511 50855.4 42356.2 36454.7 24885.1 6351.85 268655 48466.6 220189 36824 10291.9 26532.1 14528.2 92200.5 78640.4 36240.5 42399.9 37414.3 216102 118069 114393 98032.2 52337.7 23331 112591 71773.1 40817.4 45694.5 30537.3
internal_count=8591992 4613424 4295762 3439107 1415849 758624 856655 2023258 1939666 44185 1895481 292425 246292 210477 142945 35681 1603056 294547 1308509 222203 61820 160383 83592 584324 508527 223770 284757 248258 1284915 683452 665139 601463 316091 174300 657225 409743 247482 285372 188962
is_linear=0
shrinkage=0.293686


Tree=11
num_leaves=40
num_cat=0
split_feature=6 8 8 1 1 5 8 1 8 8 8 1 5 8 8 8 8 1 5 8 7 8 1 8 7 3 5 1 1 8 1 8 7 3 8 3 1 8 8
split_gain=12989.4 1625.41 734.707 353.658 392.72 525.743 349.852 318.015 296.537 513.68 294.755 259.617 206.628 188.918 185.667 223.967 706.086 300.543 240.607 258.275 191.829 301.954 182.676 254.232 167.468 155.14 153.316 464.011 262.099 156.671 148.998 146.618 144.771 142.732 146.171 229.453 133.369 130.404 189.155
threshold=1.0000000180025095e-35 153.50000000000003 158.50000000000003 22.500000000000004 48.500000000000007 1.0000000180025095e-35 150.50000000000003 40.500000000000007 153.50000000000003 150.50000000000003 153.50000000000003 76.500000000000014 1.5000000000000002 11.500000000000002 150.50000000000003 161.50000000000003 159.50000000000003 33.500000000000007 1.5000000000000002 156.50000000000003 2772.0000000000005 154.50000000000003 39.500000000000007 152.50000000000003 50918.500000000007 17.500000000000004 1.0000000180025095e-35 29.500000000000004 28.500000000000004 123.00000000000001 38.500000000000007 161.50000000000003 2772.0000000000005 41.500000000000007 27.000000000000004 28.500000000000004 61.500000000000007 152.50000000000003 155.50000000000003
decision_type=2 2 2 2 2 2 2 2 2 2 2 2 2 2 2 2 2 2 2 2 2 2 2 2 2 2 2 2 2 2 2 2 2 2 2 2 2 2 2
left_child=1 6 -3 -2 14 8 7 -1 9 11 12 33 13 -7 26 16 18 -18 19 20 37 22 25 -24 -14 -22 27 -5 29 -28 -29 -4 -8 34 -6 -36 -9 -16 -39
right_child=3 2 31 4 5 10 32 36 -10 -11 -12 -13 24 -15 15 -17 17 -19 -20 -21 21 -23 23 -25 -26 -27 28 30 -30 -31 -32 -33 -34 -35 35 -37 -38 38 -40
leaf_value=-0.094214897197445399 -0.027520354668921918 0.050252543956307814 -0.17598092848350272 0.10492379325120339 -0.0012381684649385109 -0.24226668567181339 -0.14681087349167549 -0.17161929884909843 0.024626631756224277 -0.17738798946054352 -0.071771200597700438 -0.11788793455218567 0.019089181331041767 0.30527931600695235 -0.051768650219557698 0.04871835051175756 -0.069741775176834275 -0.23951435232191612 -0.094591225808448143 0.037278557724252509 -0.01790702637219312 0.060743668998408308 -0.16340201696977932 -0.013673081977776195 0.065029334655057502 0.016173035523742944 -0.045781345466795922 0.022319248666388337 0.040523193618893241 0.026984093209817681 0.0063516753680813477 0.10446189921874043 -0.23161701377293442 -0.037785707997522844 -0.027872441194631056 0.019093891190689532 -0.2507295367560427 0.043611740749634725 -0.021998415525275008
leaf_weight=4316.8336112033576 28633.253733911552 3785.4016752922907 2276.045939235948 4545.707106301561 90255.616933897138 62.949614816345274 1954.1769410651177 8836.919292518869 18600.205361134373 1651.701063470915 2548.1939089363441 2004.741683489643 31858.998224595562 388.36841975990683 8216.8215631013736 8130.9710685238242 3804.3203868060373 1178.2101195612922 2141.4768647588789 17824.776120948605 16787.48137914855 8157.9833687683567 1325.2396509116516 3735.0586044350639 8718.0907498300076 36719.211033649743 5524.7965768659487 67013.137875580229 39327.196348160505 4742.3132025431842 203418.69483568612 172.7068919884041 15854.941912651062 16207.008493548259 51654.048800496385 10856.703644923866 2325.9659080840647 4743.3421719269827 18850.393914264627
leaf_count=316585 400938 90481 268995 22712 533720 532 184256 803594 107307 14602 20973 26323 172852 1906 76286 38083 47716 9107 14777 86622 154824 37938 8903 17495 44142 292966 34235 306865 172977 23662 996093 6569 2315129 115303 339723 68901 288599 24676 104625
internal_value=0 -0.168464 -0.0308297 0.00446251 0.00578787 -0.00397097 -0.194238 -0.16193 -0.0106049 -0.0144012 0.0251403 -0.0128263 0.0311605 0.228748 0.010811 0.00150642 -0.00160208 -0.109903 0.00295144 0.00474709 -0.00113745 0.00780931 0.000435085 -0.052898 0.0289607 0.00547985 0.0145839 0.0118729 0.0296142 -0.012168 0.0103086 -0.156179 -0.222315 -0.0115794 -0.00879892 -0.0197148 -0.188111 -0.019905 -0.00880615
internal_weight=0 39523 6234.15 719627 690994 234807 33288.8 15479.7 191230 172630 43576.6 170978 41028.4 451.318 456187 131615 123484 4982.53 118502 116360 98535.5 66725 58567 5060.3 40577.1 53506.7 324572 274978 49594.3 10267.1 270432 2448.75 17809.1 168973 152766 62510.8 11162.9 31810.6 23593.7
internal_count=8591992 4274208 366045 4317784 3916846 1446284 3908163 1408778 1205879 1098572 240405 1083970 219432 2438 2470562 914018 875935 56823 819112 804335 717713 512126 474188 26398 216994 447790 1556544 1325670 230874 57897 1302958 275564 2499385 1057647 942344 408624 1092193 205587 129301
is_linear=0
shrinkage=0.293686


Tree=12
num_leaves=40
num_cat=0
split_feature=1 1 0 5 5 0 8 1 9 9 9 9 9 9 8 3 9 3 3 3 3 3 3 9 5 1 3 1 8 8 3 8 3 3 8 8 8 8 3
split_gain=1085.29 370.336 369.387 367.628 222.654 196.525 195.631 203.612 176.854 504.873 403.975 209.443 232.056 183.939 172.188 153.027 146.405 143.869 155.381 150.425 259.628 217.389 190.579 135.315 135.291 327.279 159.387 140.223 129.71 149.032 124.768 109.56 99.8899 322.554 99.6582 100.199 797.876 107.72 91.1878
threshold=27.500000000000004 54.500000000000007 1.0000000180025095e-35 1.0000000180025095e-35 1.0000000180025095e-35 1.0000000180025095e-35 153.50000000000003 68.500000000000014 290.50000000000006 287.50000000000006 292.50000000000006 282.50000000000006 285.50000000000006 281.50000000000006 150.50000000000003 41.500000000000007 291.50000000000006 27.500000000000004 29.500000000000004 6.5000000000000009 8.5000000000000018 14.500000000000002 2.5000000000000004 286.50000000000006 1.0000000180025095e-35 30.500000000000004 1.0000000180025095e-35 36.500000000000007 150.50000000000003 123.00000000000001 49.500000000000007 123.00000000000001 17.500000000000004 24.500000000000004 156.50000000000003 150.50000000000003 153.50000000000003 142.50000000000003 36.500000000000007
decision_type=2 2 2 2 2 2 2 2 2 2 2 2 2 2 2 2 2 2 2 2 2 2 2 2 2 2 2 2 2 2 2 2 2 2 2 2 2 2 2
left_child=2 8 4 6 -1 -5 7 14 9 11 16 13 -13 24 -3 17 -10 19 -19 22 -21 -22 -6 -14 26 -26 -2 -28 29 -4 -30 -9 -23 -34 35 37 -37 -29 -20
right_child=1 3 28 5 15 -7 -8 31 10 -11 -12 12 23 -15 -16 -17 -18 18 38 20 21 32 -24 -25 25 -27 27 34 30 -31 -32 -33 33 -35 -36 36 -38 -39 -40
leaf_value=0.017866535685480307 -0.086215005263816438 -0.017783618073048058 -0.026634224642894042 -0.018282961791372981 -0.11617652384910028 0.034104812617663433 0.017355575218469626 -0.041129612795471532 -0.027617169022921391 0.093049947991653531 0.0007799634271594048 -0.077684234782256015 0.1091982847113874 0.064148985831103997 -0.15445013775227989 -0.097031709775024233 -0.14629573271706828 0.00047212088436365997 -0.075992949090247716 -0.14493848298015713 -0.0023120509532382387 -0.12002384070295459 0.033139483469687293 -0.031689769652496438 -0.017268101845690356 0.026752091483942544 0.014797280344303294 0.00044657396720271719 -0.018705577028340775 0.051910961116669485 -0.12499764237337598 -0.097081188303308891 0.028434166874232964 -0.14049182552668887 0.022434223832721652 -0.14047955124851211 0.0025131685733985119 0.10999703510496504 -0.022869340450596586
leaf_weight=3803.1417816053145 1743.9041981287301 78542.712666350883 3619.0098248943686 9201.321775556542 1055.655148644466 18780.806012726389 10341.131074933335 11381.514532258734 1349.4617481366731 5590.2413489967585 12171.338246561587 5338.3246151949279 1083.5513224354945 4501.0606113434769 803.14389492385089 6714.3932542027906 2676.7753889802843 7932.5157718798146 6463.9657512735575 3901.8410037318245 4042.3804401350208 3834.9982539340854 2442.7694081226364 1284.5621232893318 19423.383913819678 58255.103732460178 69247.717636353802 293650.63577415468 39763.588074719999 4909.0905926022679 975.82088042469695 4110.6099376808852 2015.4198859315366 1887.6006015674211 16671.568965345621 3921.085401635617 23750.282365063205 776.00465822545812 4903.8655744404532
leaf_count=28657 25932 838565 42009 57885 35002 108563 72403 209482 12457 39940 96371 42095 8504 33172 31605 278963 23877 239171 263997 188321 198210 130336 103271 10663 389317 404864 471754 2109885 1273002 32158 44336 84384 89478 58161 98472 95936 142069 6217 173639
internal_value=0 0.000783429 -0.0323162 -0.0130396 -0.050372 0.0168769 -0.020999 -0.0251816 0.00431355 0.00528204 -0.0258932 0.00429994 -0.04374 0.0050526 -0.0191678 -0.0561151 -0.106531 -0.0489742 -0.0310685 -0.0669892 -0.0792736 -0.0575191 -0.0119106 0.0327632 0.0045068 0.0157444 0.00237638 0.00275517 -0.0143581 0.0185751 -0.0212531 -0.0559791 -0.0863539 -0.0532565 0.000293526 -0.00085236 -0.0177488 0.000735515 -0.0530805
internal_weight=0 654596 98266.1 133161 48998.5 27982.1 105179 94838 521435 505237 16197.6 499647 7706.44 491941 79345.9 45195.4 4026.24 38481 19300.3 19180.7 15682.2 11780.4 3498.42 2368.11 487440 77678.5 409761 408017 49267.5 8528.1 40739.4 15492.1 7738.02 3903.02 338770 322098 27671.4 294427 11367.8
internal_count=8593123 5414412 3178711 1402887 1787206 166448 1236439 1164036 4011525 3878820 132705 3838880 61262 3777618 870170 1758549 36334 1479586 676807 802779 664506 476185 138273 19167 3744446 794181 2950265 2924333 1391505 74167 1317338 293866 277975 147639 2452579 2354107 238005 2116102 437636
is_linear=0
shrinkage=0.293686


Tree=13
num_leaves=40
num_cat=0
split_feature=4 6 3 3 3 7 3 3 7 7 5 3 3 3 3 3 3 3 6 3 1 3 8 6 3 3 8 3 7 3 6 3 3 1 6 6 5 8 7
split_gain=14592.2 464.642 253.357 341.026 218.738 216.837 203.431 753.086 195.784 160.783 160.313 203.094 392.789 395.842 367.045 401.488 307.425 292.244 359.668 289.618 282.34 213.855 201.893 192.068 150.092 167.176 222.373 159.006 149.889 148.547 147.741 147.575 140.828 126.586 205.834 126.493 125.947 124.519 139.443
threshold=1.0000000180025095e-35 1.0000000180025095e-35 41.500000000000007 40.500000000000007 38.500000000000007 34951.500000000007 28.500000000000004 29.500000000000004 31612.500000000004 43983.500000000007 1.0000000180025095e-35 6.5000000000000009 9.5000000000000018 11.500000000000002 17.500000000000004 14.500000000000002 2.5000000000000004 18.500000000000004 1.0000000180025095e-35 10.500000000000002 28.500000000000004 27.500000000000004 3.5000000000000004 1.0000000180025095e-35 34.500000000000007 35.500000000000007 152.50000000000003 33.500000000000007 23479.500000000004 44.500000000000007 1.0000000180025095e-35 37.500000000000007 32.500000000000007 47.500000000000007 1.0000000180025095e-35 1.0000000180025095e-35 1.0000000180025095e-35 153.50000000000003 31612.500000000004
decision_type=2 2 2 2 2 2 2 2 2 2 2 2 2 2 2 2 2 2 2 2 2 2 2 2 2 2 2 2 2 2 2 2 2 2 2 2 2 2 2
left_child=2 -2 3 4 6 29 10 37 24 35 22 16 20 19 15 -15 -12 18 -16 -14 -13 -19 -1 -21 27 26 -26 28 -9 -4 -31 32 -10 -24 -35 36 -5 38 -8
right_child=1 -3 5 9 -6 -7 7 8 31 -11 11 12 13 14 17 -17 -18 21 -20 23 -22 -23 33 -25 25 -27 -28 -29 -30 30 -32 -33 -34 34 -36 -37 -38 -39 -40
leaf_value=0.13687525494234312 -0.2740801820616845 -0.13891151131970503 -0.05482627127010558 0.087141896320044487 -0.03422763066121727 -0.040970328381024081 0.11823186759908973 -0.0134995417232387 0.027867334857474099 -0.022777958147241373 -0.022767414937926802 -0.075753359493345884 0.0069454727993716195 0.034672477406845724 0.86788458430513404 -0.07020087851212399 0.08270864913247572 -0.024212663858232224 0.10807261678500597 0.5473214978734009 0.0039721207037367121 0.021358085685840387 0.0040423526056828129 0.14149811619912672 0.10383510003533596 0.015233351874465109 -0.0073299998680485421 -0.093040716714405253 0.033837719111495919 -0.083696672593153679 0.0033485854793931947 0.070115398491410089 -0.033304033121544542 -0.091708772690619264 -0.0053736295322795481 0.041292656695090635 0.37388422353661488 0.028220605071138421 0.057632213367739507
leaf_weight=928.38122864812613 16549.22314374987 2530.7926114010625 4507.4483691519126 430.33139187470078 12376.449540556408 17206.906673972495 6442.1592163536698 13618.062816586345 3930.3475873870775 3471.2363664600998 3455.922008565627 7565.2382972668856 1835.3393291588873 4855.5628220997751 55.065025614574552 8953.2457452761009 7675.6407249569893 10155.004086522385 1955.4884576350451 104.26691353600472 7760.4557212479413 70810.808835851029 237979.61866298132 2776.1525795161724 5115.6409057416022 13763.773075497709 2227.1022515743971 1468.3900362309068 10009.285703893751 1736.0765604488552 53590.632881218567 1582.8074139971286 18625.894073977135 2418.9998404821381 154324.10339979455 25645.864601483569 190.89583297260106 4004.1825784109533 6670.4958425667137
leaf_count=5507 3769857 208369 34061 9156 80775 132811 37838 91841 28664 21013 39400 115935 19466 51176 1794 120068 70798 107745 13142 3699 43912 389748 1190352 20459 29947 107421 14330 13205 69100 56119 351802 8645 140966 81555 911427 135310 6470 21729 37511
internal_value=0 -0.256155 0.00401239 0.00589117 0.00442548 -0.011916 0.00520842 0.0183199 0.00487582 0.0366168 0.00301834 0.0120545 0.00844245 0.0150598 0.0110109 -0.0333218 0.0499593 0.0183892 0.12899 0.0981466 -0.0353809 0.0156419 9.58373e-05 0.15624 0.0160756 0.0343279 0.0701137 0.000722997 0.00655256 -0.00355993 0.000616245 -0.016559 -0.0226433 -0.000225845 -0.00670639 0.0444674 0.175411 0.0735653 0.0874087
internal_weight=0 19080 730223 653182 623444 77041.1 611067 87458.1 70341.3 29738.3 523609 127958 116827 101501 96785.2 13808.8 11131.6 82976.4 2010.55 4715.76 15325.7 80965.8 395651 2880.42 46202.3 21106.5 7342.74 25095.7 23627.3 59834.2 55326.7 24139 22556.2 394723 156743 26267.1 621.227 17116.8 13112.7
internal_count=8593123 3978226 4614897 4040104 3868155 574793 3787380 601197 504119 171949 3186183 997342 887144 727297 683673 171244 110198 512429 14936 43624 159847 497493 2188841 24158 325844 151698 44277 174146 160941 441982 407921 178275 169630 2183334 992982 150936 15626 97078 75349
is_linear=0
shrinkage=0.293686


Tree=14
num_leaves=40
num_cat=0
split_feature=4 6 9 9 9 9 9 9 9 9 9 9 9 9 9 9 9 9 9 7 9 9 9 9 9 9 7 9 9 7 9 9 9 9 9 9 9 9 7
split_gain=10300.6 502.469 233.063 350.489 316.854 241.481 220.875 766.89 469.555 390.832 318.134 699.545 686.029 1896.72 743.309 868.165 610.469 525.17 742.794 404.314 397.733 1009.18 916.174 556.008 617.148 520.754 307.502 303.484 288.865 263.998 246.781 236.357 222.369 222.272 218.469 338.713 209.701 206.357 245.575
threshold=1.0000000180025095e-35 1.0000000180025095e-35 244.50000000000003 239.50000000000003 248.50000000000003 240.50000000000003 113.50000000000001 70.500000000000014 114.50000000000001 115.50000000000001 215.50000000000003 219.50000000000003 225.50000000000003 226.50000000000003 222.50000000000003 221.50000000000003 207.50000000000003 227.50000000000003 228.50000000000003 23120.000000000004 157.50000000000003 162.50000000000003 165.50000000000003 154.50000000000003 155.50000000000003 151.50000000000003 2772.0000000000005 80.500000000000014 205.50000000000003 29894.500000000004 218.50000000000003 217.50000000000003 116.50000000000001 112.50000000000001 27.500000000000004 26.500000000000004 152.50000000000003 223.50000000000003 20247.500000000004
decision_type=2 2 2 2 2 2 2 2 2 2 2 2 2 2 2 2 2 2 2 2 2 2 2 2 2 2 2 2 2 2 2 2 2 2 2 2 2 2 2
left_child=2 -2 3 6 -4 -5 7 29 -8 -10 16 30 14 -14 15 -13 20 -15 -19 -18 23 -22 -23 25 -25 32 27 -9 -24 34 31 -12 -11 -28 35 -1 -27 38 -16
right_child=1 -3 4 5 -6 -7 8 26 9 10 11 12 13 17 37 -17 19 18 -20 -21 21 22 28 24 -26 36 33 -29 -30 -31 -32 -33 -34 -35 -36 -37 -38 -39 -40
leaf_value=0.0136189586560351 -0.26722313919004226 -0.11536964090752835 -0.060534959349190079 0.10827948017355309 -0.0043802478534747539 0.027310696626006339 0.10108505232452476 -0.11592759113427235 -0.084392170685708381 0.10543754514348952 -0.086391064752018965 0.085435354523265727 -0.21663242884692877 0.098739495142465245 0.32828735466383491 -0.125459183654824 0.12424797593418832 -0.14251379006798975 0.0077224185894080892 0.035933923321887919 -0.070947905511146131 0.091277859678601692 0.0021016190901578988 0.21290503061378885 0.019365812136850853 -0.1277949339922349 -0.010600091589926865 -0.033813122479770835 -0.067516849491487715 0.0022327118271558729 -0.14889688129338385 0.027262742851490527 0.018390056355641799 -0.097378374540789361 0.043507358964863463 -0.15027222435983265 -0.015232732239549312 0.074248582098544569 0.13999739785381463
leaf_weight=10476.245750826783 12608.993679986103 2210.2547946530394 9301.4238848304376 4030.8664109930396 127000.05871748738 15006.570557421073 4663.807632396929 5018.9747914932668 3965.5126102464274 2595.7644898453727 5002.5474126059562 3878.4271682426333 3701.1988952914253 4473.1736130351201 765.10870634764433 2974.6554581271484 5465.7475016247481 3211.0868012169376 24446.323300463147 24584.998399378732 16531.346746427938 10056.888280020095 107395.14609013032 2668.2048362903297 3041.1737863207236 2804.8422135002911 78947.875900020823 17147.762166729197 5398.7542464183643 74569.849820073694 3149.3012720616534 2304.8034240966663 101780.43390870281 2630.5909164045006 32050.224465907551 1213.4166702106595 2908.6658153189346 2806.5273443320766 2735.3379168631509
leaf_count=68926 3769857 208369 70965 20657 848832 86471 26815 40770 24566 14716 34558 26672 24619 26037 4331 20261 32492 21797 152006 126225 109281 57543 672277 16109 20287 17596 538548 121611 33266 425686 22635 15015 615458 17227 201762 10190 17858 17259 13573
internal_value=0 -0.244579 0.00274033 0.00525202 -0.00821269 0.0444575 0.00395472 -0.00330341 0.00851656 0.00727811 0.00833293 -0.0112105 0.0035071 -0.0175535 0.0608524 -0.00610137 0.0124063 0.00537901 -0.00971996 0.0519988 0.00774364 -0.00282438 0.00634243 0.0204642 0.109825 0.0158293 -0.0217344 -0.052408 -0.00123038 0.0128583 -0.0801679 -0.0505388 0.0205554 -0.0133991 0.0309723 -0.00339261 -0.0705003 0.133607 0.181181
internal_weight=0 14819.2 730704 594402 136301 19037.4 575365 222055 353310 348646 344680 59448.5 48991.8 35831.8 13160.1 6853.08 285232 32130.6 27657.4 30050.7 255181 139382 122851 115799 5709.38 110090 103745 22166.7 112794 118310 10456.7 7307.35 104376 81578.5 43739.9 11689.7 5713.51 6306.97 3500.45
internal_count=8593123 3978226 4614897 3695100 919797 107128 3587972 1424720 2163252 2136437 2111871 378763 306555 224459 82096 46933 1733108 199840 173803 158717 1574391 872367 763086 702024 36396 665628 718156 162381 705543 706564 72208 49573 630174 555775 280878 79116 35454 35163 17904
is_linear=0
shrinkage=0.293686


Tree=15
num_leaves=40
num_cat=0
split_feature=4 6 2 8 8 1 8 8 8 7 3 6 3 3 3 8 8 3 3 3 6 1 3 3 3 3 3 7 6 8 8 6 7 7 5 3 6 1 8
split_gain=7175.77 519.445 229.408 183.832 655.114 554.391 140.679 197.515 135.824 112.782 107.395 109.228 104.226 375.614 209.763 151.608 204.07 195.03 139.5 125.593 131.871 123.481 113.086 309.329 135.135 194.854 112.796 99.2888 97.6531 96.8556 189.059 88.819 88.5836 84.7211 79.0586 123.066 346.939 106.919 93.9267
threshold=1.0000000180025095e-35 1.0000000180025095e-35 1.0000000180025095e-35 161.50000000000003 159.50000000000003 33.500000000000007 24.500000000000004 7.5000000000000009 123.00000000000001 27215.500000000004 47.500000000000007 1.0000000180025095e-35 9.5000000000000018 11.500000000000002 6.5000000000000009 152.50000000000003 150.50000000000003 8.5000000000000018 10.500000000000002 2.5000000000000004 1.0000000180025095e-35 26.500000000000004 27.500000000000004 24.500000000000004 22.500000000000004 19.500000000000004 26.500000000000004 28496.500000000004 1.0000000180025095e-35 27.000000000000004 123.00000000000001 1.0000000180025095e-35 44347.500000000007 20247.500000000004 1.0000000180025095e-35 30.500000000000004 1.0000000180025095e-35 76.500000000000014 156.50000000000003
decision_type=2 2 2 2 2 2 2 2 2 2 2 2 2 2 2 2 2 2 2 2 2 2 2 2 2 2 2 2 2 2 2 2 2 2 2 2 2 2 2
left_child=2 -2 -1 4 6 9 7 27 -3 31 12 -12 14 18 19 16 17 32 -14 20 -8 -20 23 24 25 -15 -25 -4 -21 -22 -31 -6 -16 -17 37 36 -36 38 -24
right_child=1 8 3 -5 5 -7 10 -9 -10 -11 11 -13 13 22 15 33 -18 -19 21 28 29 -23 34 26 -26 -27 -28 -29 -30 30 -32 -33 -34 -35 35 -37 -38 -39 -40
leaf_value=-0.12569080816488573 -0.25863042689990695 -0.19286284659954481 -0.023261964644424385 0.038656858986177975 0.1170018024855185 -0.22674421353147747 -0.18547346738209003 -0.034544927140733477 -0.03365594095262249 -0.072188719753674691 -0.14862248908677705 -0.015301660037405516 0.00060483272126584894 0.0029975385897524926 -0.0010236568044015735 -0.0042903084321940736 -0.071928265989852538 -0.090961364901793768 0.13932791374135953 0.1325316827467003 0.038580195087204845 0.052923914954525884 0.0030116627092484634 -0.0867834992723822 0.034916728948923309 -0.04233532577102822 -0.016247033059509322 0.051997906568249298 0.020116566809941124 -0.16144587196835833 -0.0095499761313681923 -0.021914016778750801 -0.032035028041207551 0.055987312552207714 0.22754559726868745 -0.00086072029503940495 0.017509697056478403 -0.081588977858515543 0.027754244145697229
leaf_weight=1215.0309554068372 9667.683796006022 739.05705570941791 2367.312708328478 11622.014409881085 438.52266523521394 1637.2008040612563 382.66097885370255 18534.855560296215 1235.3979820813984 5064.5150477010757 547.28367730043828 16702.920912830159 3894.5533409845084 46361.019605129026 27651.222201503813 4962.0722778216004 6321.7364460146055 2743.4043842265382 1642.3004122488201 684.63932834658772 2575.6444459743798 10895.385852535255 353423.19042725861 5153.2821590034291 8408.3570732474327 9929.1258019739762 3153.435857812874 4181.3410471500829 25079.303510028869 810.00586211681366 5540.8056800272316 4167.3709453009069 11148.887823156081 3380.4128894675523 684.35195498540998 39246.706038767472 74722.40917449072 1264.796554280445 13748.249599967152
leaf_count=11704 3769857 67428 30053 56186 20618 14674 14259 122456 140941 118894 19659 115869 29288 332628 160056 29933 90919 15958 14270 17043 16893 57370 1910961 41744 50811 64666 30719 25117 139365 6690 42442 66877 64179 17461 20012 361602 396714 18287 68520
internal_value=0 -0.230593 0.00180391 0.00201648 0.00142287 -0.0687067 0.00254595 -0.0190535 -0.0932816 -0.0419427 0.00334152 -0.0195353 0.00393608 0.00540551 -0.00528003 -0.0164013 -0.0227694 -0.0152876 0.0491658 0.0125418 -0.0166925 0.064247 0.00411234 -0.00666071 0.000188683 -0.00499828 -0.0600117 0.0247862 0.0231063 -0.00944875 -0.0289339 -0.00867517 -0.0099356 0.0201308 0.00574045 0.0124755 0.019417 0.00364448 0.00393823
internal_weight=0 11642.1 730286 729071 717449 11307.6 706142 25083.5 1974.46 9670.41 681058 17250.2 663808 572527 91280.8 56207.7 47865.3 41543.5 16432.2 35073.1 9309.12 12537.7 556095 73005.2 64698.5 56290.1 8306.72 6548.65 25763.9 8926.46 6350.81 4605.89 38800.1 8342.49 483090 114653 75406.8 368436 367171
internal_count=8593123 3978226 4614897 4603193 4547007 221063 4325944 177626 208369 206389 4148318 135528 4012790 3397592 615198 378506 331112 240193 100928 236692 80284 71640 3296664 520568 448105 397294 72463 55170 156408 66025 49132 87495 224235 47394 2776096 778328 416726 1997768 1979481
is_linear=0
shrinkage=0.293686


Tree=16
num_leaves=40
num_cat=0
split_feature=4 6 9 9 9 9 9 9 9 9 9 9 9 9 9 9 7 9 9 9 9 9 9 9 9 9 9 5 8 9 9 9 8 8 9 9 9 8 9
split_gain=4914.54 501.581 203.239 785.491 353.67 254.022 261.781 240.459 226.716 168.044 164.33 198.007 393.02 316.375 274.852 557.886 237.791 213.036 177.698 215.812 181.226 130.305 326.305 242.585 117.102 143.119 122.407 108.963 93.5783 91.3129 90.81 137.472 83.7156 270.276 80.6698 183.908 104.14 76.6099 75.5798
threshold=1.0000000180025095e-35 1.0000000180025095e-35 289.50000000000006 287.50000000000006 292.50000000000006 282.50000000000006 284.50000000000006 281.50000000000006 291.50000000000006 298.50000000000006 11.500000000000002 27.500000000000004 26.500000000000004 49.500000000000007 103.50000000000001 102.50000000000001 23120.000000000004 106.50000000000001 244.50000000000003 243.50000000000003 245.50000000000003 89.500000000000014 99.500000000000014 80.500000000000014 295.50000000000006 297.50000000000006 293.50000000000006 1.0000000180025095e-35 121.50000000000001 288.50000000000006 30.500000000000004 39.500000000000007 153.50000000000003 158.50000000000003 33.500000000000007 34.500000000000007 42.500000000000007 2.0000000000000004 296.50000000000006
decision_type=2 2 2 2 2 2 2 2 2 2 2 2 2 2 2 2 2 2 2 2 2 2 2 2 2 2 2 2 2 2 2 2 2 2 2 2 2 2 2
left_child=2 32 3 5 8 7 -7 10 -4 24 -1 12 -12 16 15 21 34 -16 19 -19 -20 23 -23 -15 26 38 -6 30 -3 -5 -18 -32 37 -34 -13 -36 -37 -2 -26
right_child=1 28 4 29 9 6 -8 -9 -10 -11 11 13 -14 14 17 -17 27 18 20 -21 -22 22 -24 -25 25 -27 -28 -29 -30 -31 31 -33 33 -35 35 36 -38 -39 -40
leaf_value=0.053525417034139752 0.52469477389102293 -0.17094352980394151 -0.025802143657289771 0.076432801552059795 -0.029270937455731519 -0.086387992256506077 0.0063130643453135644 0.059462475169158334 -0.13253407561155506 0.087437822499273787 -0.011611349453115146 0.024889772296238167 -0.12814864231378856 -0.011766955685176186 0.052625492243642935 -0.12842222118045588 0.052809296668783798 0.0046144037782286243 -0.085170601726002909 0.078971894339264423 -0.0069749214735084246 -0.043711667444440501 0.023646844096087798 0.024376757445419582 -0.033356381450595843 0.0011361506855420203 0.05196810245682406 0.044494863936820048 -0.028394145806345996 0.14929121538142193 -0.020808421647522099 0.023614090413377441 0.17752589790569007 -0.2571324817613922 0.21170065954879685 0.031557733370134199 0.113257050064712 -0.25826765232787674 -0.11176341148072173
leaf_weight=5167.2120196232572 10.575808657798914 590.10186512442306 3284.6732140164822 3537.6907747508958 2767.4877871237695 5741.617963925004 4842.7486928086728 6197.2327893385664 3598.0176841486245 1612.3830876415595 22625.169919219799 2595.1001006318256 2805.5097395647317 66557.722284154966 7444.2697043539956 3464.4498093323782 3172.0158612169325 385853.72979922872 2634.4008974153548 3396.0851365877315 86179.280816462822 22561.651962894946 8554.1885275663808 21091.282194923609 2094.5847189137712 4739.0309656560421 3789.4709639549255 8314.9043075274676 1217.0662997886539 2560.8337742518634 12854.976601785049 11281.522695257328 165.26535949343815 484.39685110887513 871.40419766400009 3151.7727575628087 2350.6981104305014 6814.4312542364933 2151.5247141299769
leaf_count=29523 4488 65076 23492 20209 19751 39428 32165 38646 27749 11070 140934 17236 24094 444347 46743 29623 16167 2358903 24915 19255 583887 165867 52619 127680 13724 31937 24351 63191 143239 14567 62990 55413 47487 234994 4599 20081 14555 3483589 13949
internal_value=0 -0.213863 0.00119062 0.00209509 -0.0253658 0.00118035 -0.043971 0.00187391 -0.0816054 -0.0027985 0.00135125 0.000953401 -0.0244701 0.00194459 0.000192567 -0.0122549 0.0258214 0.00332637 0.0025586 0.00526329 -0.00929498 -0.00886571 -0.0251926 -0.00306911 -0.0121633 -0.0339414 0.0176742 0.0150589 -0.0749764 0.107037 0.00609457 -4.35548e-05 -0.247434 -0.146482 0.0685632 0.0863374 0.0664701 -0.257033 -0.0730979
internal_weight=0 9281.84 729845 705807 24037.2 699709 10584.4 689125 6882.69 17154.5 682927 677760 25430.7 652329 607737 122229 44592.4 485508 478063 389250 88813.7 118765 31115.8 87649 15542.1 8985.14 6556.96 35623.4 1807.17 6098.52 27308.5 24136.5 7474.67 649.662 8968.98 6373.88 5502.47 6825.01 4246.11
internal_count=8592533 3978873 4613660 4447637 166023 4412861 71593 4341268 51241 114782 4302622 4273099 165028 4108071 3853839 820136 254232 3033703 2986960 2378158 608802 790513 218486 572027 103712 59610 44102 197761 208315 34776 134570 118403 3770558 282481 56471 39235 34636 3488077 27673
is_linear=0
shrinkage=0.293686


Tree=17
num_leaves=40
num_cat=0
split_feature=4 6 2 7 8 7 8 7 7 7 7 7 7 7 7 7 7 7 7 7 7 7 7 7 7 7 8 5 6 8 8 8 8 5 3 3 3 3 3
split_gain=3321.01 469.284 122.684 107.681 215.23 176.269 171.581 115.824 505.534 445.101 348.6 261.304 192.844 309.157 265.566 262.275 226.409 139.295 126.556 760.472 295.412 178.801 170.968 514.974 159.042 124.96 138.321 164.542 155.564 126.75 126.479 119.686 249.519 177.06 119.307 190.527 112.526 136.806 123.951
threshold=1.0000000180025095e-35 1.0000000180025095e-35 1.0000000180025095e-35 43790.500000000007 46.000000000000007 43200.000000000007 24.500000000000004 34015.500000000007 31612.500000000004 31763.500000000004 34951.500000000007 33802.500000000007 32430.500000000004 32586.500000000004 32123.500000000004 32753.500000000004 32505.500000000004 33914.500000000007 35789.500000000007 35502.500000000007 36998.500000000007 38287.500000000007 38911.500000000007 38769.000000000007 35145.500000000007 2772.0000000000005 125.50000000000001 1.5000000000000002 1.0000000180025095e-35 2.0000000000000004 154.50000000000003 159.50000000000003 161.50000000000003 1.0000000180025095e-35 28.500000000000004 29.500000000000004 18.500000000000004 28.500000000000004 17.500000000000004
decision_type=2 2 2 2 2 2 2 2 2 2 2 2 2 2 2 2 2 2 2 2 2 2 2 2 2 2 2 2 2 2 2 2 2 2 2 2 2 2 2
left_child=2 -2 -1 5 6 7 -5 8 25 -10 -9 12 14 16 -11 -15 -14 -13 19 24 -20 -22 23 -23 -12 26 28 36 -4 -30 34 -32 33 -33 -27 -36 38 -38 -28
right_child=1 -3 3 4 -6 -7 -8 10 9 11 18 17 13 15 -16 -17 -18 -19 20 -21 21 22 -24 -25 -26 30 27 -29 29 -31 31 32 -34 -35 35 -37 37 -39 -40
leaf_value=-0.096598791041568655 -0.23439070127425765 -0.058376521131731716 -0.069616119001004811 -0.044189532208358008 -0.016441874178357144 0.045324215894807701 0.0075729344587394283 0.043990928476791182 -0.1240779255454381 0.0050886704656956843 -0.029541164380638481 -0.14286004154000301 0.0075251065876174522 -0.080065388274179985 -0.078481929051859287 0.00037340085875276234 0.15098295729996708 -0.037198516458094542 0.036179076065532279 -0.10001889130521806 -0.018691304883258712 0.0090152410513262091 0.00096501430196130789 0.14151551223952097 0.031239778400200334 0.00030309570458771442 0.0020601957318566143 -0.079750147814511979 -0.20568859690411792 0.0097428209603925269 0.058780433038260485 -0.27185171980052031 0.066153733821099472 -0.029467072281758884 0.077990875248792155 0.012554645919962823 -0.040100299109115625 -0.0061503636968511322 0.08563678826932139
leaf_weight=1113.969726764597 5857.9706824210007 1682.4848636835814 2237.8491777814925 5900.1820798879489 81548.931272329763 8331.4780093058944 86410.897190806456 20990.202615665272 3792.4002751177177 5734.8345025433227 5071.188482475467 2103.90877791401 1933.9926752289757 4091.0352931814268 7657.9836688600481 24029.899538177997 1863.7618908090517 2205.5543919736519 24873.8415504843 6723.9024155344814 29752.225545886904 12818.379736289382 59779.728868770413 3152.1463281102479 13859.872970750555 94567.38007135503 22430.052355377935 2916.4080060608685 236.11853101477027 70642.618591710925 8228.4649895103648 283.84963417425752 3040.4192184321582 3071.2282226467505 4125.7163493288681 55025.416584904306 14979.726787883788 32348.191383802332 1642.5130889732391
leaf_count=11667 3770558 208315 75851 37343 521244 48757 435323 133978 25521 38168 31537 14157 12847 27229 50966 153871 11820 14176 153789 43687 180951 77593 353331 17905 85906 600019 163242 23322 2298 400415 39641 1852 14232 71231 21749 372881 102550 232872 9739
internal_value=0 -0.195125 0.000780281 0.000929285 -0.00544789 0.00292872 0.00426397 0.00228197 -0.000679291 -0.0271033 0.00845807 -0.0196905 -0.0131168 -0.000704912 -0.0426945 -0.011328 0.0779418 -0.0887963 0.0036777 -0.015177 0.00738815 0.000599832 0.00817728 0.035171 0.0149559 0.00379021 -0.00245235 -0.0113751 0.00661641 0.00902402 0.00925763 0.0353571 0.00521383 -0.0500004 0.00677438 0.0171196 -0.00858156 -0.0168967 0.00776501
internal_weight=0 7540.46 729516 728402 173860 554542 92311.1 546211 369189 53413.4 177021 49621 45311.5 31918.7 13392.8 28120.9 3797.75 4309.46 156031 25655 130376 105502 75750.3 15970.5 18931.1 315776 147433 74316.9 73116.6 70878.7 168342 14624 6395.5 3355.08 153719 59151.1 71400.5 47327.9 24072.6
internal_count=8592533 3978873 4613660 4601993 993910 3608083 472666 3559326 2480649 348755 1078677 323234 294901 205767 89134 181100 24667 28333 944699 161130 783569 629780 448829 95498 117443 2131894 1010289 531725 478564 402713 1121605 126956 87315 73083 994649 394630 508403 335422 172981
is_linear=0
shrinkage=0.293686


Tree=18
num_leaves=40
num_cat=0
split_feature=4 6 1 9 9 9 9 9 9 9 9 9 9 9 9 5 1 9 9 9 9 9 9 9 9 9 9 9 9 9 9 9 9 9 1 1 9 9 9
split_gain=2180.81 416.97 116.75 107.128 288.981 250.09 132.022 152.452 392.802 602.782 216.6 146.116 132.591 234.612 97.614 88.4055 98.4572 81.033 80.8626 284.421 363.129 301.859 216.913 210.472 352.148 475.299 217.298 197.356 231.153 109.32 533.836 411.558 80.6065 78.9467 72.948 76.8557 59.4198 75.9405 58.2444
threshold=1.0000000180025095e-35 1.0000000180025095e-35 49.500000000000007 290.50000000000006 287.50000000000006 292.50000000000006 282.50000000000006 276.50000000000006 271.50000000000006 273.50000000000006 274.50000000000006 285.50000000000006 269.50000000000006 268.50000000000006 286.50000000000006 1.0000000180025095e-35 38.500000000000007 289.50000000000006 117.50000000000001 72.500000000000014 74.500000000000014 73.500000000000014 116.50000000000001 123.50000000000001 126.50000000000001 125.50000000000001 144.50000000000003 122.50000000000001 121.50000000000001 63.500000000000007 64.500000000000014 62.500000000000007 298.50000000000006 291.50000000000006 27.500000000000004 56.500000000000007 295.50000000000006 297.50000000000006 293.50000000000006
decision_type=2 2 2 2 2 2 2 2 2 2 2 2 2 2 2 2 2 2 2 2 2 2 2 2 2 2 2 2 2 2 2 2 2 2 2 2 2 2 2
left_child=3 15 -3 4 6 33 7 8 12 -10 -11 -8 13 18 -13 16 -2 34 19 29 21 -21 -22 27 25 -25 -26 28 -20 31 -31 -1 36 -5 -6 -36 38 -38 -7
right_child=1 2 -4 5 17 32 11 -9 9 10 -12 14 -14 -15 -16 -17 -18 -19 23 20 22 -23 -24 24 26 -27 -28 -29 -30 30 -32 -33 -34 -35 35 -37 37 -39 -40
leaf_value=0.0066451479173156797 -0.027613023050885987 0.0075599482099998365 -0.16659632338968747 -0.027608912827051968 0.17845029576707025 -0.020940852530861091 -0.056206237751241735 0.030407857899315913 -0.12963104872901143 0.09432280389707863 -0.028853371532333468 0.073394952516311923 0.043788295391257483 -0.096504308841323758 -0.028338673102094987 -0.25021177036738146 -0.2013662715750949 -0.0068646149258069821 0.033196060857175934 -0.03069754267403586 -0.0072899726973730053 -0.16669905042710695 -0.076811043929504164 0.016234679106657962 0.020794954819491524 -0.14087548851823367 0.00071152264081519206 0.095695866206609262 -0.095645387268484636 0.12722465669607819 0.0022824660057417039 -0.090124512574760479 0.058651782818057469 -0.10317411919900664 0.049685306666837396 0.15208456795196518 -0.054147967962615944 0.00045343845420171635 0.035069740317037766
leaf_weight=99938.241805643775 352.6732200619299 1116.6330399028957 472.04853785829619 1862.3306041322649 508.39303588494658 2723.4617185229436 7065.0722549147904 14868.272998842411 5020.4080565199256 1795.2008180208504 3918.371581537649 1517.7106476295739 6258.850102448836 2128.3338087648153 1752.0829078638926 2883.5753628310049 1400.8765789667377 1376.2099605472758 10507.969271281734 3537.0587909007445 104064.06124619301 2338.9275233428925 4020.4642616771162 3222.5928865605965 53757.206226238981 3425.8616120619699 342670.04487784207 3758.9082514522597 1355.7014756090939 3699.8918964779004 14543.792002804577 3939.8992528738454 1680.0566501989961 3323.8515344243497 5095.7885505314916 722.18940737843513 4092.3479380365461 4740.5218932721764 3884.2009439403191
leaf_count=592689 222074 147933 60382 13678 5682 19751 50313 96757 36281 12386 27527 9531 40211 14227 11749 2460231 1088253 9814 61541 29650 707775 20194 29675 19777 311792 27781 2144633 19237 9059 19429 95969 24678 11070 27749 23784 5310 27673 31937 24351
internal_value=0 -0.174066 -0.0441795 0.00048877 0.00112124 -0.0195497 0.000497854 0.000992279 0.00034322 -0.0553879 0.00984409 -0.032449 0.00124535 0.000839944 0.0188725 -0.218554 -0.16645 0.0576949 0.00115644 -0.00318985 -0.0137423 -0.0848431 -0.00987646 0.00360718 0.00231075 -0.0647185 0.00343502 0.0370533 0.0184684 0.00665713 0.0276245 0.00297433 -0.00243213 -0.0760484 0.0717444 0.0624076 -0.00908168 -0.0248404 0.0119785
internal_weight=0 6225.81 1588.68 729114 706808 22306.8 699105 688770 673902 10734 5713.57 10334.9 663168 656909 3269.79 4637.13 1753.55 7702.58 654781 236082 113961 5875.99 108085 418698 403076 6648.45 396427 15622.6 11863.7 122122 18243.7 103878 17120.6 5186.18 6326.37 5817.98 15440.5 8832.87 6607.66
internal_count=8592533 3978873 208315 4613660 4457451 156209 4412861 4341268 4244511 76194 39913 71593 4168317 4128106 21280 3770558 1310327 44590 4113879 1520059 787294 49844 737450 2593820 2503983 47558 2456425 89837 70600 732765 115398 617367 114782 41427 34776 29094 103712 59610 44102
is_linear=0
shrinkage=0.293686


Tree=19
num_leaves=40
num_cat=0
split_feature=4 6 3 3 5 1 0 3 3 3 3 3 3 1 3 1 3 3 6 6 6 1 5 1 1 3 3 1 1 1 6 5 3 6 6 1 5 3 1
split_gain=1403.82 348.366 92.706 95.449 91.4493 91.2623 115.666 96.8944 90.969 116.286 173.484 139.812 279.886 140.891 137.851 140.236 112.314 113.955 99.3393 90.483 83.1187 78.7322 77.9009 75.7939 68.4864 65.9287 139.509 120.783 58.1747 50.1186 49.7983 48.7259 47.3036 79.2179 44.7902 44.6678 43.8933 42.8276 40.6874
threshold=1.0000000180025095e-35 1.0000000180025095e-35 47.500000000000007 50.500000000000007 1.0000000180025095e-35 48.500000000000007 1.0000000180025095e-35 1.5000000000000002 6.5000000000000009 9.5000000000000018 12.500000000000002 17.500000000000004 18.500000000000004 24.500000000000004 14.500000000000002 30.500000000000004 20.500000000000004 19.500000000000004 1.0000000180025095e-35 1.0000000180025095e-35 1.0000000180025095e-35 38.500000000000007 1.0000000180025095e-35 47.500000000000007 36.500000000000007 21.500000000000004 22.500000000000004 25.500000000000004 34.500000000000007 23.500000000000004 1.0000000180025095e-35 1.5000000000000002 13.500000000000002 1.0000000180025095e-35 1.0000000180025095e-35 61.500000000000007 1.5000000000000002 4.5000000000000009 24.500000000000004
decision_type=2 2 2 2 2 2 2 2 2 2 2 2 2 2 2 2 2 2 2 2 2 2 2 2 2 2 2 2 2 2 2 2 2 2 2 2 2 2 2
left_child=2 4 5 20 21 7 -7 36 -9 19 18 14 13 -13 24 -16 17 -14 -11 -10 -4 -2 30 29 32 27 -27 -18 -6 -3 35 -24 -12 -34 -15 -8 -1 -30 -21
right_child=1 23 3 -5 28 6 22 8 9 10 11 12 16 34 15 -17 25 -19 -20 38 -22 -23 31 -25 -26 26 -28 -29 37 -31 -32 -33 33 -35 -36 -37 -38 -39 -40
leaf_value=-0.062302430238098921 -0.020165810885991314 -0.08852357151118033 -0.13038756146359487 0.14214132972090085 -0.240293032774718 -0.013311575936332309 -0.024859170900995958 0.020737398250734011 -0.09046228475409851 0.15346210556161324 0.0097676957607828567 0.19346122179896816 0.0041446632435842186 0.19568662809077769 -0.064347104304943809 -0.010604837048328727 0.15765597609687731 -0.082636439113770804 0.029240180590401919 -0.035526913600933678 -0.018090119278228144 -0.18067019817697025 0.12014545935527575 -0.13259399386583182 -0.017633663734265986 -0.098307103045780816 0.003742905889014009 0.017465978157904447 2.9049024269192807 0.051116122102853531 -0.0018393451971677056 0.01293707352031352 0.33659906246654625 0.05617717596258736 0.045796992942356597 -0.13356640834812786 0.044956992007145868 0.36056942924974184 -0.006506196773222379
leaf_weight=2668.6732345456257 343.1014761722181 315.10090803774074 584.73993806820363 312.80800553411245 2239.9017792342929 76280.940938658081 1328.9219023995101 24985.75230760593 1244.1926123695448 575.41073951311409 2741.7165839727968 665.71151648648083 2588.2329389154911 177.55955473706126 7260.6784885749221 9900.0336738303304 656.04507938213646 2630.764625701122 15831.99082776159 4741.0259584710002 20370.675005812198 1145.9436055953847 370.20537882018834 464.47693382576108 3742.2120140586048 1158.9756960459054 353319.90403756499 2761.7304292879999 0.43872590805403788 746.01866582478397 119806.41620618664 29013.169658681378 90.662660575471818 2021.6968254763633 5435.5344009362161 432.41626719012856 374.78910810127854 6.1049211364006624 34457.012264950201
leaf_count=23319 222074 51936 25200 2212 2457096 497039 42853 174082 42029 13425 27763 5773 14294 2860 111404 55757 7506 15916 91135 74833 151437 1088253 3936 67748 19367 10407 2071426 16146 207 88631 715083 151091 2650 13715 26372 22231 1978 2928 180421
internal_value=0 -0.151965 0.000283589 -0.0188208 -0.200261 0.000858138 -0.00399062 0.00315348 0.00348685 0.00253319 0.00400991 0.00278112 0.00423994 0.0657161 -0.0181389 -0.0333458 0.00317679 -0.039594 0.0336008 -0.0124936 -0.0212267 -0.14372 0.000719349 -0.033676 0.0122143 0.00380061 0.00340909 0.0443945 -0.237705 0.00960566 -0.00256042 0.0142899 0.0352327 0.068263 0.0505523 -0.0515811 -0.0490795 0.622355 -0.0100174
internal_weight=0 5261.09 728531 21268.2 3735.49 707262 227232 480030 476987 452001 411559 395151 369394 6278.81 25757 17160.7 363116 5219 16407.4 40442.2 20955.4 1489.05 150951 1525.6 8596.29 357897 354479 3417.78 2246.45 1061.12 121568 29383.4 4854.08 2112.36 5613.09 1761.34 3043.46 6.54365 39198
internal_count=8592533 3978873 4613660 178849 3770558 4434811 1432233 3002578 2977281 2803199 2505916 2401356 2170700 35005 230656 167161 2135695 30210 104560 297283 176637 1310327 935194 208315 63495 2105485 2081833 23652 2460231 140567 780167 155027 44128 16365 29232 65084 25297 3135 255254
is_linear=0
shrinkage=0.293686


Tree=20
num_leaves=40
num_cat=0
split_feature=4 6 5 9 9 9 9 9 9 1 3 9 9 9 9 9 9 9 9 9 9 9 1 9 9 5 1 9 9 1 3 5 5 1 5 9 9 9 5
split_gain=883.079 276.384 94.6523 74.5307 218.875 167.602 137.823 244.638 223.094 195.91 112.867 110.686 183.184 140.44 375.253 157.236 333.262 155.847 278.633 127.17 90.9778 97.8532 71.8237 71.2814 59.4126 55.2307 51.2899 48.9845 44.2011 42.7359 42.2987 40.1296 38.3923 35.321 32.6853 32.1979 31.6648 34.1427 30.475
threshold=1.0000000180025095e-35 1.0000000180025095e-35 1.0000000180025095e-35 16.500000000000004 27.500000000000004 26.500000000000004 34.500000000000007 33.500000000000007 31.500000000000004 32.500000000000007 18.500000000000004 39.500000000000007 49.500000000000007 56.500000000000007 60.500000000000007 63.500000000000007 64.500000000000014 103.50000000000001 102.50000000000001 106.50000000000001 54.500000000000007 52.500000000000007 50.500000000000007 24.500000000000004 41.500000000000007 1.0000000180025095e-35 54.500000000000007 30.500000000000004 62.500000000000007 34.500000000000007 28.500000000000004 1.0000000180025095e-35 1.0000000180025095e-35 41.500000000000007 1.0000000180025095e-35 42.500000000000007 19.500000000000004 23.500000000000004 1.0000000180025095e-35
decision_type=2 2 2 2 2 2 2 2 2 2 2 2 2 2 2 2 2 2 2 2 2 2 2 2 2 2 2 2 2 2 2 2 2 2 2 2 2 2 2
left_child=3 2 22 34 5 23 7 8 27 32 -11 -8 24 20 -15 28 33 18 -18 -19 21 25 -2 36 -13 -14 -3 -6 -16 -30 31 -12 -9 -17 -1 -26 -5 -38 -7
right_child=1 26 -4 4 6 38 11 9 -10 10 30 12 13 14 15 16 17 19 -20 -21 -22 -23 -24 -25 35 -27 -28 -29 29 -31 -32 -33 -34 -35 -36 -37 37 -39 -40
leaf_value=0.014227166364916922 -0.066175322545075355 -0.00033617480457736378 -0.22385967527163758 -0.0046418313701891006 0.045694831369857698 -0.0794869870361571 -0.032032861575215767 0.13041804967644866 -0.060543768898981103 0.16210972629004905 0.0048419154378551241 0.07146097120765886 -0.058294253674337923 0.062896825944623022 -0.013778464047296766 0.12324697431696009 -0.0089087178325519441 0.039009431201770743 -0.097370424222754756 0.00066896337809326401 -0.062655460287246376 0.017859187075602773 -0.20965620026137774 0.0311117757550896 0.0010205871500751106 0.012753566992699555 -0.14487542079465496 0.00037865994511450434 -0.14167533372568836 -0.054329750272402798 0.089689447216046686 0.10226141273408175 0.28941281627926407 0.064659517079150644 0.049527634811564199 0.030581439912917459 -0.048191166825076084 -0.011047980369325581 -0.14812177166829646
leaf_weight=9202.9571909940569 814.70544609503122 1224.9765307281632 1777.7478476419346 3624.8615581700578 5395.1298782043159 1764.0370775233023 9211.6286936867982 196.09144524857402 3371.3747191326693 765.60251203551888 2368.6183616528288 2477.2679125564173 3867.2784542599693 8131.054591328837 2030.3927319012582 1413.5448563378304 85380.730465131346 7569.2107072398067 3185.547680218704 524324.68820706336 4694.2872460726649 4662.3847951274365 478.31901009165449 2006.6236717924476 4355.9257641918957 1247.1929845232517 255.9239576398395 3328.184923873283 569.9726014342159 3198.6352414526045 1022.1139956135303 431.08580255880952 404.24832991231233 2401.155667883344 3002.0756906438619 11778.772608649917 6901.2010084176436 3094.7106046853587 820.27545067295432
leaf_count=46982 742575 163157 2459842 22513 31032 14841 53772 849 20768 3612 10521 14348 20021 45649 13922 8166 602690 46654 29719 3298815 27627 27082 567848 12849 23520 9773 45117 19614 5011 19690 4727 1964 3014 11288 24232 66538 44394 19615 9179
internal_value=0 -0.129602 -0.179858 0.000157187 -0.000230683 -0.0320147 0.000598817 0.0264984 0.0036107 0.0798491 0.059186 -5.8901e-05 0.000379811 -0.000439394 0.000209264 -0.000599676 -0.00015246 -0.000684594 -0.0120911 0.00121466 -0.0290486 -0.0129077 -0.119306 -0.0205539 0.029109 -0.0409618 -0.0253571 0.0284101 -0.0487353 -0.0675571 0.0385504 0.0198619 0.237606 0.0863846 0.0229138 0.0226032 -0.0281684 -0.0366959 -0.101297
internal_weight=0 4551.67 3070.77 728199 715994 18211.7 697782 17282.4 12094.7 5187.76 4587.42 680500 671288 652676 638205 630074 624275 620460 88566.3 531894 14471.1 9776.86 1293.02 15627.4 18612 5114.47 1480.9 8723.31 5799 3768.61 3821.82 2799.7 600.34 3814.7 12205 16134.7 13620.8 9995.91 2584.31
internal_count=8593530 3978539 3770265 4614991 4543777 123391 4420386 96101 71414 24687 20824 4324285 4270513 4166107 4081604 4035955 3997332 3977878 632409 3345469 84503 56876 1310423 99371 104406 29794 208274 50646 38623 24701 17212 12485 3863 19454 71214 90058 86522 64009 24020
is_linear=0
shrinkage=0.293686


Tree=21
num_leaves=40
num_cat=0
split_feature=4 5 1 3 3 3 3 3 7 7 3 3 3 1 7 7 7 7 3 3 7 3 3 1 7 1 7 3 3 1 1 1 3 1 7 1 1 9 1
split_gain=538.827 105.632 115.437 71.1057 155.571 147.469 103.885 104.927 77.7815 76.1645 72.4051 154.42 159.985 78.5287 153.689 151.848 231.768 133.497 124.005 112.016 111.78 85.1534 68.4491 68.0621 64.9151 59.2599 58.036 55.2755 53.976 46.2391 46.0623 40.4651 39.6519 33.6538 33.5388 33.4641 33.2828 29.0401 28.617
threshold=1.0000000180025095e-35 1.0000000180025095e-35 40.500000000000007 41.500000000000007 40.500000000000007 44.500000000000007 38.500000000000007 37.500000000000007 24360.500000000004 34951.500000000007 35.500000000000007 34.500000000000007 33.500000000000007 34.500000000000007 47349.500000000007 34015.500000000007 29963.500000000004 29605.500000000004 2.5000000000000004 32.500000000000007 35502.500000000007 6.5000000000000009 24.500000000000004 57.500000000000007 27551.500000000004 65.500000000000014 43000.500000000007 43.500000000000007 1.0000000180025095e-35 25.500000000000004 69.500000000000014 62.500000000000007 47.500000000000007 54.500000000000007 35693.500000000007 26.500000000000004 29.500000000000004 242.50000000000003 27.500000000000004
decision_type=2 2 2 2 2 2 2 2 2 2 2 2 2 2 2 2 2 2 2 2 2 2 2 2 2 2 2 2 2 2 2 2 2 2 2 2 2 2 2
left_child=3 2 -2 4 6 27 7 10 -8 30 11 12 13 14 18 16 17 -15 28 20 -17 -20 -18 34 -12 -13 29 -5 -1 -6 32 -4 -7 35 -11 -9 -36 -34 -3
right_child=1 38 31 5 26 9 8 33 -10 23 24 25 -14 15 -16 19 22 -19 21 -21 -22 -23 -24 -25 -26 -27 -28 -29 -30 -31 -32 -33 37 -35 36 -37 -38 -39 -40
leaf_value=-0.19026549626712186 0.03546722346388937 -0.1728596604327417 -0.085451950262824594 -0.044505053305653422 0.060769794466846737 0.0065631048622846432 0.0036481509003974673 0.14093279076308449 -0.044920571980924764 -0.050088713780586866 0.006191418099917319 0.031010633626056609 -0.074697695194075833 -0.0032293667344011493 -0.022019898050837452 0.022686811465509254 -0.010732156812903022 0.049177328159856294 0.038139068612411474 -0.056931963123963078 0.0018270780565864755 0.0098568895188293273 -0.033614038472660333 -0.069965665426921009 -0.029875355075247235 0.15057205595200543 -0.012088351663611439 -0.14106405768477051 -0.036524481061408279 0.022165546677923309 -0.065084771743892267 -0.21097838673126415 -0.0048247028170135976 0.088703580739175739 -0.038861824008377344 0.024020679983349297 -0.00012298735118640273 -0.036953543350303757 -0.077755137503141419
leaf_weight=211.41243338317145 700.23441525734961 1620.5552100446657 1088.3089841803885 5012.1427407609299 3025.7615821324289 38213.026927094907 4533.7753789937124 222.45055532548577 7624.1680730171502 1983.7800957569852 6539.9036696357653 10842.97322627902 2451.7578276107088 129512.69338356052 13806.756657772698 24396.185780701693 17816.952173295431 4332.4149787910283 10182.893131004646 2650.3968089437112 241455.0328538348 93532.459092666395 30741.213018910028 2271.1519694877788 12581.903622128069 369.74954233132303 3827.5910525675863 569.84185290336609 2878.1898169992492 23252.363673469983 912.23940904205665 278.96163642866304 12703.822483340278 1043.0300648482516 2452.0648303534836 4157.09786994569 8705.8446648390964 3000.3598936442286 330.6171384708141
leaf_count=2153 331903 2136612 829520 37533 25750 266428 30257 2003 50553 16193 52354 62669 22533 771816 101504 128865 100023 23065 78028 15168 1297999 778448 168265 19917 115445 3331 23541 5877 35647 122447 12206 270980 103386 6939 37143 21245 50187 26073 409524
internal_value=0 -0.10775 -0.0614557 8.24337e-05 0.00107242 -0.00842968 7.42109e-05 0.000610277 -0.0268062 -0.00477792 0.000245256 0.000826431 0.000159552 0.000480776 0.00713708 -0.00129963 -0.00783853 -0.00153267 0.0109066 0.00314236 0.00374145 0.0126341 -0.0252191 -0.0230178 -0.0175382 0.0349593 0.0216908 -0.054374 -0.0470688 0.0266124 0.000348804 -0.111119 0.00145683 0.0412804 -0.0149005 0.029974 -0.00864014 -0.0109658 -0.156774
internal_weight=0 4018.68 2067.51 727813 651989 75824.3 621883 609725 12157.9 70242.3 604303 585181 573968 571517 120612 450905 182403 133845 106805 268502 265851 103715 48558.2 15412.8 19121.8 11212.7 30105.7 5581.98 3089.6 26278.1 54829.4 1367.27 53917.2 5422.58 13141.7 4379.55 11157.9 15704.2 1951.17
